digraph Tree {
node [shape=box, style="filled, rounded", color="black", fontname=helvetica] ;
edge [fontname=helvetica] ;
0 [label=<X<SUB>2</SUB> &le; 0.5<br/>gini = 0.346<br/>samples = 5000<br/>value = [3980, 686, 158, 54, 41, 23, 9, 9, 5, 5, 19, 3<br/>4, 1, 3]>, fillcolor="#eb9f68"] ;
1 [label=<X<SUB>1</SUB> &le; 0.5<br/>gini = 0.199<br/>samples = 4289<br/>value = [3816, 406, 49, 14, 2, 0, 0, 0, 0, 0, 0, 0, 0<br/>0, 2]>, fillcolor="#e89051"] ;
0 -> 1 [labeldistance=2.5, labelangle=45, headlabel="True"] ;
2 [label=<X<SUB>0</SUB> &le; 48.0<br/>gini = 0.339<br/>samples = 421<br/>value = [338, 50, 16, 13, 2, 0, 0, 0, 0, 0, 0, 0, 0<br/>0, 2]>, fillcolor="#eb9d65"] ;
1 -> 2 ;
3 [label=<X<SUB>0</SUB> &le; 40.0<br/>gini = 0.35<br/>samples = 400<br/>value = [318, 50, 16, 13, 2, 0, 0, 0, 0, 0, 0, 0, 0<br/>0, 1]>, fillcolor="#eb9f67"] ;
2 -> 3 ;
4 [label=<X<SUB>0</SUB> &le; 31.5<br/>gini = 0.333<br/>samples = 386<br/>value = [311, 48, 14, 10, 2, 0, 0, 0, 0, 0, 0, 0, 0<br/>0, 1]>, fillcolor="#eb9d65"] ;
3 -> 4 ;
5 [label=<X<SUB>0</SUB> &le; 25.0<br/>gini = 0.348<br/>samples = 362<br/>value = [288, 47, 14, 10, 2, 0, 0, 0, 0, 0, 0, 0, 0<br/>0, 1]>, fillcolor="#eb9f68"] ;
4 -> 5 ;
6 [label=<X<SUB>0</SUB> &le; 17.5<br/>gini = 0.338<br/>samples = 340<br/>value = [273, 42, 13, 9, 2, 0, 0, 0, 0, 0, 0, 0, 0, 0<br/>1]>, fillcolor="#eb9d66"] ;
5 -> 6 ;
7 [label=<X<SUB>0</SUB> &le; 3.0<br/>gini = 0.383<br/>samples = 120<br/>value = [92, 20, 4, 2, 1, 0, 0, 0, 0, 0, 0, 0, 0, 0<br/>1]>, fillcolor="#eca470"] ;
6 -> 7 ;
8 [label=<gini = 0.414<br/>samples = 66<br/>value = [49, 12, 2, 2, 1, 0, 0, 0, 0, 0, 0, 0, 0, 0<br/>0]>, fillcolor="#eda977"] ;
7 -> 8 ;
9 [label=<gini = 0.342<br/>samples = 54<br/>value = [43, 8, 2, 0, 0, 0, 0, 0, 0, 0, 0, 0, 0, 0<br/>1]>, fillcolor="#eb9f68"] ;
7 -> 9 ;
10 [label=<gini = 0.31<br/>samples = 220<br/>value = [181, 22, 9, 7, 1, 0, 0, 0, 0, 0, 0, 0, 0, 0<br/>0]>, fillcolor="#ea9a60"] ;
6 -> 10 ;
11 [label=<gini = 0.479<br/>samples = 22<br/>value = [15, 5, 1, 1, 0, 0, 0, 0, 0, 0, 0, 0, 0, 0<br/>0]>, fillcolor="#f0b58b"] ;
5 -> 11 ;
12 [label=<gini = 0.08<br/>samples = 24<br/>value = [23, 1, 0, 0, 0, 0, 0, 0, 0, 0, 0, 0, 0, 0<br/>0]>, fillcolor="#e68642"] ;
4 -> 12 ;
13 [label=<gini = 0.663<br/>samples = 14<br/>value = [7, 2, 2, 3, 0, 0, 0, 0, 0, 0, 0, 0, 0, 0<br/>0]>, fillcolor="#f6d1b7"] ;
3 -> 13 ;
14 [label=<X<SUB>0</SUB> &le; 51.0<br/>gini = 0.091<br/>samples = 21<br/>value = [20, 0, 0, 0, 0, 0, 0, 0, 0, 0, 0, 0, 0, 0<br/>1]>, fillcolor="#e68743"] ;
2 -> 14 ;
15 [label=<gini = 0.278<br/>samples = 6<br/>value = [5, 0, 0, 0, 0, 0, 0, 0, 0, 0, 0, 0, 0, 0<br/>1]>, fillcolor="#ea9a61"] ;
14 -> 15 ;
16 [label=<gini = 0.0<br/>samples = 15<br/>value = [15, 0, 0, 0, 0, 0, 0, 0, 0, 0, 0, 0, 0, 0<br/>0]>, fillcolor="#e58139"] ;
14 -> 16 ;
17 [label=<X<SUB>1</SUB> &le; 15.5<br/>gini = 0.183<br/>samples = 3868<br/>value = [3478, 356, 33, 1, 0, 0, 0, 0, 0, 0, 0, 0, 0<br/>0, 0]>, fillcolor="#e88f4f"] ;
1 -> 17 ;
18 [label=<X<SUB>1</SUB> &le; 14.5<br/>gini = 0.197<br/>samples = 3044<br/>value = [2710, 305, 28, 1, 0, 0, 0, 0, 0, 0, 0, 0, 0<br/>0, 0]>, fillcolor="#e89051"] ;
17 -> 18 ;
19 [label=<X<SUB>1</SUB> &le; 5.5<br/>gini = 0.188<br/>samples = 2916<br/>value = [2613, 275, 27, 1, 0, 0, 0, 0, 0, 0, 0, 0, 0<br/>0, 0]>, fillcolor="#e88f50"] ;
18 -> 19 ;
20 [label=<X<SUB>0</SUB> &le; 5.5<br/>gini = 0.141<br/>samples = 1187<br/>value = [1097, 86, 4, 0, 0, 0, 0, 0, 0, 0, 0, 0, 0, 0<br/>0]>, fillcolor="#e78b49"] ;
19 -> 20 ;
21 [label=<X<SUB>0</SUB> &le; 4.5<br/>gini = 0.203<br/>samples = 442<br/>value = [392, 46, 4, 0, 0, 0, 0, 0, 0, 0, 0, 0, 0, 0<br/>0]>, fillcolor="#e89152"] ;
20 -> 21 ;
22 [label=<X<SUB>0</SUB> &le; 3.5<br/>gini = 0.109<br/>samples = 350<br/>value = [330, 17, 3, 0, 0, 0, 0, 0, 0, 0, 0, 0, 0, 0<br/>0]>, fillcolor="#e78945"] ;
21 -> 22 ;
23 [label=<X<SUB>0</SUB> &le; 1.5<br/>gini = 0.087<br/>samples = 328<br/>value = [313, 15, 0, 0, 0, 0, 0, 0, 0, 0, 0, 0, 0, 0<br/>0]>, fillcolor="#e68742"] ;
22 -> 23 ;
24 [label=<X<SUB>1</SUB> &le; 1.5<br/>gini = 0.141<br/>samples = 105<br/>value = [97, 8, 0, 0, 0, 0, 0, 0, 0, 0, 0, 0, 0, 0<br/>0]>, fillcolor="#e78b49"] ;
23 -> 24 ;
25 [label=<gini = 0.301<br/>samples = 38<br/>value = [31, 7, 0, 0, 0, 0, 0, 0, 0, 0, 0, 0, 0, 0<br/>0]>, fillcolor="#eb9d66"] ;
24 -> 25 ;
26 [label=<X<SUB>1</SUB> &le; 3.5<br/>gini = 0.029<br/>samples = 67<br/>value = [66, 1, 0, 0, 0, 0, 0, 0, 0, 0, 0, 0, 0, 0<br/>0]>, fillcolor="#e5833c"] ;
24 -> 26 ;
27 [label=<gini = 0.0<br/>samples = 53<br/>value = [53, 0, 0, 0, 0, 0, 0, 0, 0, 0, 0, 0, 0, 0<br/>0]>, fillcolor="#e58139"] ;
26 -> 27 ;
28 [label=<gini = 0.133<br/>samples = 14<br/>value = [13, 1, 0, 0, 0, 0, 0, 0, 0, 0, 0, 0, 0, 0<br/>0]>, fillcolor="#e78b48"] ;
26 -> 28 ;
29 [label=<X<SUB>1</SUB> &le; 1.5<br/>gini = 0.061<br/>samples = 223<br/>value = [216, 7, 0, 0, 0, 0, 0, 0, 0, 0, 0, 0, 0, 0<br/>0]>, fillcolor="#e6853f"] ;
23 -> 29 ;
30 [label=<gini = 0.051<br/>samples = 152<br/>value = [148, 4, 0, 0, 0, 0, 0, 0, 0, 0, 0, 0, 0, 0<br/>0]>, fillcolor="#e6843e"] ;
29 -> 30 ;
31 [label=<gini = 0.081<br/>samples = 71<br/>value = [68, 3, 0, 0, 0, 0, 0, 0, 0, 0, 0, 0, 0, 0<br/>0]>, fillcolor="#e68742"] ;
29 -> 31 ;
32 [label=<gini = 0.376<br/>samples = 22<br/>value = [17, 2, 3, 0, 0, 0, 0, 0, 0, 0, 0, 0, 0, 0<br/>0]>, fillcolor="#eca26d"] ;
22 -> 32 ;
33 [label=<gini = 0.446<br/>samples = 92<br/>value = [62, 29, 1, 0, 0, 0, 0, 0, 0, 0, 0, 0, 0, 0<br/>0]>, fillcolor="#f1bd97"] ;
21 -> 33 ;
34 [label=<X<SUB>1</SUB> &le; 1.5<br/>gini = 0.102<br/>samples = 745<br/>value = [705, 40, 0, 0, 0, 0, 0, 0, 0, 0, 0, 0, 0, 0<br/>0]>, fillcolor="#e68844"] ;
20 -> 34 ;
35 [label=<X<SUB>0</SUB> &le; 14.5<br/>gini = 0.269<br/>samples = 162<br/>value = [136, 26, 0, 0, 0, 0, 0, 0, 0, 0, 0, 0, 0, 0<br/>0]>, fillcolor="#ea995f"] ;
34 -> 35 ;
36 [label=<gini = 0.117<br/>samples = 32<br/>value = [30, 2, 0, 0, 0, 0, 0, 0, 0, 0, 0, 0, 0, 0<br/>0]>, fillcolor="#e78946"] ;
35 -> 36 ;
37 [label=<X<SUB>0</SUB> &le; 19.5<br/>gini = 0.301<br/>samples = 130<br/>value = [106, 24, 0, 0, 0, 0, 0, 0, 0, 0, 0, 0, 0, 0<br/>0]>, fillcolor="#eb9e66"] ;
35 -> 37 ;
38 [label=<gini = 0.313<br/>samples = 103<br/>value = [83, 20, 0, 0, 0, 0, 0, 0, 0, 0, 0, 0, 0, 0<br/>0]>, fillcolor="#eb9f69"] ;
37 -> 38 ;
39 [label=<gini = 0.252<br/>samples = 27<br/>value = [23, 4, 0, 0, 0, 0, 0, 0, 0, 0, 0, 0, 0, 0<br/>0]>, fillcolor="#ea975b"] ;
37 -> 39 ;
40 [label=<X<SUB>0</SUB> &le; 13.5<br/>gini = 0.047<br/>samples = 583<br/>value = [569, 14, 0, 0, 0, 0, 0, 0, 0, 0, 0, 0, 0, 0<br/>0]>, fillcolor="#e6843e"] ;
34 -> 40 ;
41 [label=<X<SUB>1</SUB> &le; 3.5<br/>gini = 0.03<br/>samples = 459<br/>value = [452, 7, 0, 0, 0, 0, 0, 0, 0, 0, 0, 0, 0, 0<br/>0]>, fillcolor="#e5833c"] ;
40 -> 41 ;
42 [label=<X<SUB>0</SUB> &le; 12.5<br/>gini = 0.022<br/>samples = 182<br/>value = [180, 2, 0, 0, 0, 0, 0, 0, 0, 0, 0, 0, 0, 0<br/>0]>, fillcolor="#e5823b"] ;
41 -> 42 ;
43 [label=<X<SUB>0</SUB> &le; 9.0<br/>gini = 0.014<br/>samples = 144<br/>value = [143, 1, 0, 0, 0, 0, 0, 0, 0, 0, 0, 0, 0, 0<br/>0]>, fillcolor="#e5823a"] ;
42 -> 43 ;
44 [label=<gini = 0.017<br/>samples = 119<br/>value = [118, 1, 0, 0, 0, 0, 0, 0, 0, 0, 0, 0, 0, 0<br/>0]>, fillcolor="#e5823b"] ;
43 -> 44 ;
45 [label=<gini = 0.0<br/>samples = 25<br/>value = [25, 0, 0, 0, 0, 0, 0, 0, 0, 0, 0, 0, 0, 0<br/>0]>, fillcolor="#e58139"] ;
43 -> 45 ;
46 [label=<gini = 0.051<br/>samples = 38<br/>value = [37, 1, 0, 0, 0, 0, 0, 0, 0, 0, 0, 0, 0, 0<br/>0]>, fillcolor="#e6843e"] ;
42 -> 46 ;
47 [label=<X<SUB>0</SUB> &le; 11.0<br/>gini = 0.035<br/>samples = 277<br/>value = [272, 5, 0, 0, 0, 0, 0, 0, 0, 0, 0, 0, 0, 0<br/>0]>, fillcolor="#e5833d"] ;
41 -> 47 ;
48 [label=<X<SUB>0</SUB> &le; 8.0<br/>gini = 0.042<br/>samples = 234<br/>value = [229, 5, 0, 0, 0, 0, 0, 0, 0, 0, 0, 0, 0, 0<br/>0]>, fillcolor="#e6843d"] ;
47 -> 48 ;
49 [label=<gini = 0.042<br/>samples = 141<br/>value = [138, 3, 0, 0, 0, 0, 0, 0, 0, 0, 0, 0, 0, 0<br/>0]>, fillcolor="#e6843d"] ;
48 -> 49 ;
50 [label=<gini = 0.042<br/>samples = 93<br/>value = [91, 2, 0, 0, 0, 0, 0, 0, 0, 0, 0, 0, 0, 0<br/>0]>, fillcolor="#e6843d"] ;
48 -> 50 ;
51 [label=<gini = 0.0<br/>samples = 43<br/>value = [43, 0, 0, 0, 0, 0, 0, 0, 0, 0, 0, 0, 0, 0<br/>0]>, fillcolor="#e58139"] ;
47 -> 51 ;
52 [label=<X<SUB>1</SUB> &le; 4.5<br/>gini = 0.107<br/>samples = 124<br/>value = [117, 7, 0, 0, 0, 0, 0, 0, 0, 0, 0, 0, 0, 0<br/>0]>, fillcolor="#e78945"] ;
40 -> 52 ;
53 [label=<X<SUB>1</SUB> &le; 3.5<br/>gini = 0.083<br/>samples = 115<br/>value = [110, 5, 0, 0, 0, 0, 0, 0, 0, 0, 0, 0, 0, 0<br/>0]>, fillcolor="#e68742"] ;
52 -> 53 ;
54 [label=<X<SUB>0</SUB> &le; 20.0<br/>gini = 0.155<br/>samples = 59<br/>value = [54, 5, 0, 0, 0, 0, 0, 0, 0, 0, 0, 0, 0, 0<br/>0]>, fillcolor="#e78d4b"] ;
53 -> 54 ;
55 [label=<X<SUB>0</SUB> &le; 16.0<br/>gini = 0.198<br/>samples = 18<br/>value = [16, 2, 0, 0, 0, 0, 0, 0, 0, 0, 0, 0, 0, 0<br/>0]>, fillcolor="#e89152"] ;
54 -> 55 ;
56 [label=<gini = 0.142<br/>samples = 13<br/>value = [12, 1, 0, 0, 0, 0, 0, 0, 0, 0, 0, 0, 0, 0<br/>0]>, fillcolor="#e78c49"] ;
55 -> 56 ;
57 [label=<gini = 0.32<br/>samples = 5<br/>value = [4, 1, 0, 0, 0, 0, 0, 0, 0, 0, 0, 0, 0, 0<br/>0]>, fillcolor="#eca06a"] ;
55 -> 57 ;
58 [label=<X<SUB>0</SUB> &le; 25.0<br/>gini = 0.136<br/>samples = 41<br/>value = [38, 3, 0, 0, 0, 0, 0, 0, 0, 0, 0, 0, 0, 0<br/>0]>, fillcolor="#e78b49"] ;
54 -> 58 ;
59 [label=<gini = 0.133<br/>samples = 28<br/>value = [26, 2, 0, 0, 0, 0, 0, 0, 0, 0, 0, 0, 0, 0<br/>0]>, fillcolor="#e78b48"] ;
58 -> 59 ;
60 [label=<gini = 0.142<br/>samples = 13<br/>value = [12, 1, 0, 0, 0, 0, 0, 0, 0, 0, 0, 0, 0, 0<br/>0]>, fillcolor="#e78c49"] ;
58 -> 60 ;
61 [label=<gini = 0.0<br/>samples = 56<br/>value = [56, 0, 0, 0, 0, 0, 0, 0, 0, 0, 0, 0, 0, 0<br/>0]>, fillcolor="#e58139"] ;
53 -> 61 ;
62 [label=<gini = 0.346<br/>samples = 9<br/>value = [7, 2, 0, 0, 0, 0, 0, 0, 0, 0, 0, 0, 0, 0<br/>0]>, fillcolor="#eca572"] ;
52 -> 62 ;
63 [label=<X<SUB>1</SUB> &le; 9.5<br/>gini = 0.219<br/>samples = 1729<br/>value = [1516, 189, 23, 1, 0, 0, 0, 0, 0, 0, 0, 0, 0<br/>0, 0]>, fillcolor="#e99254"] ;
19 -> 63 ;
64 [label=<X<SUB>1</SUB> &le; 8.5<br/>gini = 0.264<br/>samples = 1085<br/>value = [919, 146, 20, 0, 0, 0, 0, 0, 0, 0, 0, 0, 0<br/>0, 0]>, fillcolor="#ea975c"] ;
63 -> 64 ;
65 [label=<X<SUB>0</SUB> &le; 47.5<br/>gini = 0.223<br/>samples = 790<br/>value = [691, 84, 15, 0, 0, 0, 0, 0, 0, 0, 0, 0, 0, 0<br/>0]>, fillcolor="#e99355"] ;
64 -> 65 ;
66 [label=<X<SUB>0</SUB> &le; 38.5<br/>gini = 0.219<br/>samples = 775<br/>value = [680, 80, 15, 0, 0, 0, 0, 0, 0, 0, 0, 0, 0, 0<br/>0]>, fillcolor="#e99254"] ;
65 -> 66 ;
67 [label=<X<SUB>0</SUB> &le; 5.0<br/>gini = 0.238<br/>samples = 677<br/>value = [586, 76, 15, 0, 0, 0, 0, 0, 0, 0, 0, 0, 0, 0<br/>0]>, fillcolor="#e99457"] ;
66 -> 67 ;
68 [label=<X<SUB>1</SUB> &le; 7.5<br/>gini = 0.176<br/>samples = 256<br/>value = [231, 25, 0, 0, 0, 0, 0, 0, 0, 0, 0, 0, 0, 0<br/>0]>, fillcolor="#e88f4e"] ;
67 -> 68 ;
69 [label=<X<SUB>0</SUB> &le; 1.5<br/>gini = 0.195<br/>samples = 174<br/>value = [155, 19, 0, 0, 0, 0, 0, 0, 0, 0, 0, 0, 0, 0<br/>0]>, fillcolor="#e89051"] ;
68 -> 69 ;
70 [label=<gini = 0.172<br/>samples = 42<br/>value = [38, 4, 0, 0, 0, 0, 0, 0, 0, 0, 0, 0, 0, 0<br/>0]>, fillcolor="#e88e4e"] ;
69 -> 70 ;
71 [label=<gini = 0.201<br/>samples = 132<br/>value = [117, 15, 0, 0, 0, 0, 0, 0, 0, 0, 0, 0, 0, 0<br/>0]>, fillcolor="#e89152"] ;
69 -> 71 ;
72 [label=<gini = 0.136<br/>samples = 82<br/>value = [76, 6, 0, 0, 0, 0, 0, 0, 0, 0, 0, 0, 0, 0<br/>0]>, fillcolor="#e78b49"] ;
68 -> 72 ;
73 [label=<X<SUB>0</SUB> &le; 10.0<br/>gini = 0.273<br/>samples = 421<br/>value = [355, 51, 15, 0, 0, 0, 0, 0, 0, 0, 0, 0, 0, 0<br/>0]>, fillcolor="#ea975c"] ;
67 -> 73 ;
74 [label=<X<SUB>0</SUB> &le; 8.5<br/>gini = 0.356<br/>samples = 129<br/>value = [101, 22, 6, 0, 0, 0, 0, 0, 0, 0, 0, 0, 0, 0<br/>0]>, fillcolor="#eca26d"] ;
73 -> 74 ;
75 [label=<X<SUB>1</SUB> &le; 6.5<br/>gini = 0.338<br/>samples = 96<br/>value = [76, 18, 2, 0, 0, 0, 0, 0, 0, 0, 0, 0, 0, 0<br/>0]>, fillcolor="#eca16c"] ;
74 -> 75 ;
76 [label=<gini = 0.291<br/>samples = 34<br/>value = [28, 6, 0, 0, 0, 0, 0, 0, 0, 0, 0, 0, 0, 0<br/>0]>, fillcolor="#eb9c63"] ;
75 -> 76 ;
77 [label=<gini = 0.362<br/>samples = 62<br/>value = [48, 12, 2, 0, 0, 0, 0, 0, 0, 0, 0, 0, 0, 0<br/>0]>, fillcolor="#eca470"] ;
75 -> 77 ;
78 [label=<gini = 0.397<br/>samples = 33<br/>value = [25, 4, 4, 0, 0, 0, 0, 0, 0, 0, 0, 0, 0, 0<br/>0]>, fillcolor="#eca470"] ;
74 -> 78 ;
79 [label=<X<SUB>1</SUB> &le; 7.5<br/>gini = 0.233<br/>samples = 292<br/>value = [254, 29, 9, 0, 0, 0, 0, 0, 0, 0, 0, 0, 0, 0<br/>0]>, fillcolor="#e99356"] ;
73 -> 79 ;
80 [label=<X<SUB>0</SUB> &le; 28.0<br/>gini = 0.166<br/>samples = 124<br/>value = [113, 6, 5, 0, 0, 0, 0, 0, 0, 0, 0, 0, 0, 0<br/>0]>, fillcolor="#e78d4b"] ;
79 -> 80 ;
81 [label=<X<SUB>0</SUB> &le; 17.0<br/>gini = 0.028<br/>samples = 70<br/>value = [69, 1, 0, 0, 0, 0, 0, 0, 0, 0, 0, 0, 0, 0<br/>0]>, fillcolor="#e5833c"] ;
80 -> 81 ;
82 [label=<gini = 0.0<br/>samples = 22<br/>value = [22, 0, 0, 0, 0, 0, 0, 0, 0, 0, 0, 0, 0, 0<br/>0]>, fillcolor="#e58139"] ;
81 -> 82 ;
83 [label=<X<SUB>0</SUB> &le; 23.0<br/>gini = 0.041<br/>samples = 48<br/>value = [47, 1, 0, 0, 0, 0, 0, 0, 0, 0, 0, 0, 0, 0<br/>0]>, fillcolor="#e6843d"] ;
81 -> 83 ;
84 [label=<gini = 0.048<br/>samples = 41<br/>value = [40, 1, 0, 0, 0, 0, 0, 0, 0, 0, 0, 0, 0, 0<br/>0]>, fillcolor="#e6843e"] ;
83 -> 84 ;
85 [label=<gini = 0.0<br/>samples = 7<br/>value = [7, 0, 0, 0, 0, 0, 0, 0, 0, 0, 0, 0, 0, 0<br/>0]>, fillcolor="#e58139"] ;
83 -> 85 ;
86 [label=<X<SUB>0</SUB> &le; 32.5<br/>gini = 0.319<br/>samples = 54<br/>value = [44, 5, 5, 0, 0, 0, 0, 0, 0, 0, 0, 0, 0, 0<br/>0]>, fillcolor="#ea9b61"] ;
80 -> 86 ;
87 [label=<gini = 0.277<br/>samples = 19<br/>value = [16, 1, 2, 0, 0, 0, 0, 0, 0, 0, 0, 0, 0, 0<br/>0]>, fillcolor="#ea975c"] ;
86 -> 87 ;
88 [label=<gini = 0.34<br/>samples = 35<br/>value = [28, 4, 3, 0, 0, 0, 0, 0, 0, 0, 0, 0, 0, 0<br/>0]>, fillcolor="#eb9d66"] ;
86 -> 88 ;
89 [label=<X<SUB>0</SUB> &le; 16.5<br/>gini = 0.276<br/>samples = 168<br/>value = [141, 23, 4, 0, 0, 0, 0, 0, 0, 0, 0, 0, 0, 0<br/>0]>, fillcolor="#ea985e"] ;
79 -> 89 ;
90 [label=<gini = 0.308<br/>samples = 71<br/>value = [58, 11, 2, 0, 0, 0, 0, 0, 0, 0, 0, 0, 0, 0<br/>0]>, fillcolor="#eb9c64"] ;
89 -> 90 ;
91 [label=<X<SUB>0</SUB> &le; 22.0<br/>gini = 0.252<br/>samples = 97<br/>value = [83, 12, 2, 0, 0, 0, 0, 0, 0, 0, 0, 0, 0, 0<br/>0]>, fillcolor="#e9965a"] ;
89 -> 91 ;
92 [label=<gini = 0.261<br/>samples = 54<br/>value = [46, 6, 2, 0, 0, 0, 0, 0, 0, 0, 0, 0, 0, 0<br/>0]>, fillcolor="#e9965a"] ;
91 -> 92 ;
93 [label=<X<SUB>0</SUB> &le; 30.5<br/>gini = 0.24<br/>samples = 43<br/>value = [37, 6, 0, 0, 0, 0, 0, 0, 0, 0, 0, 0, 0, 0<br/>0]>, fillcolor="#e99559"] ;
91 -> 93 ;
94 [label=<gini = 0.227<br/>samples = 23<br/>value = [20, 3, 0, 0, 0, 0, 0, 0, 0, 0, 0, 0, 0, 0<br/>0]>, fillcolor="#e99457"] ;
93 -> 94 ;
95 [label=<gini = 0.255<br/>samples = 20<br/>value = [17, 3, 0, 0, 0, 0, 0, 0, 0, 0, 0, 0, 0, 0<br/>0]>, fillcolor="#ea975c"] ;
93 -> 95 ;
96 [label=<X<SUB>1</SUB> &le; 6.5<br/>gini = 0.078<br/>samples = 98<br/>value = [94, 4, 0, 0, 0, 0, 0, 0, 0, 0, 0, 0, 0, 0<br/>0]>, fillcolor="#e68641"] ;
66 -> 96 ;
97 [label=<gini = 0.097<br/>samples = 39<br/>value = [37, 2, 0, 0, 0, 0, 0, 0, 0, 0, 0, 0, 0, 0<br/>0]>, fillcolor="#e68844"] ;
96 -> 97 ;
98 [label=<gini = 0.065<br/>samples = 59<br/>value = [57, 2, 0, 0, 0, 0, 0, 0, 0, 0, 0, 0, 0, 0<br/>0]>, fillcolor="#e68540"] ;
96 -> 98 ;
99 [label=<gini = 0.391<br/>samples = 15<br/>value = [11, 4, 0, 0, 0, 0, 0, 0, 0, 0, 0, 0, 0, 0<br/>0]>, fillcolor="#eeaf81"] ;
65 -> 99 ;
100 [label=<X<SUB>0</SUB> &le; 15.0<br/>gini = 0.358<br/>samples = 295<br/>value = [228, 62, 5, 0, 0, 0, 0, 0, 0, 0, 0, 0, 0, 0<br/>0]>, fillcolor="#eca572"] ;
64 -> 100 ;
101 [label=<X<SUB>0</SUB> &le; 7.5<br/>gini = 0.338<br/>samples = 180<br/>value = [142, 36, 2, 0, 0, 0, 0, 0, 0, 0, 0, 0, 0, 0<br/>0]>, fillcolor="#eca26d"] ;
100 -> 101 ;
102 [label=<X<SUB>0</SUB> &le; 1.0<br/>gini = 0.349<br/>samples = 65<br/>value = [51, 12, 2, 0, 0, 0, 0, 0, 0, 0, 0, 0, 0, 0<br/>0]>, fillcolor="#eca26d"] ;
101 -> 102 ;
103 [label=<gini = 0.34<br/>samples = 29<br/>value = [23, 5, 1, 0, 0, 0, 0, 0, 0, 0, 0, 0, 0, 0<br/>0]>, fillcolor="#eca06a"] ;
102 -> 103 ;
104 [label=<gini = 0.356<br/>samples = 36<br/>value = [28, 7, 1, 0, 0, 0, 0, 0, 0, 0, 0, 0, 0, 0<br/>0]>, fillcolor="#eca470"] ;
102 -> 104 ;
105 [label=<gini = 0.33<br/>samples = 115<br/>value = [91, 24, 0, 0, 0, 0, 0, 0, 0, 0, 0, 0, 0, 0<br/>0]>, fillcolor="#eca26d"] ;
101 -> 105 ;
106 [label=<X<SUB>0</SUB> &le; 21.0<br/>gini = 0.389<br/>samples = 115<br/>value = [86, 26, 3, 0, 0, 0, 0, 0, 0, 0, 0, 0, 0, 0<br/>0]>, fillcolor="#edaa7a"] ;
100 -> 106 ;
107 [label=<gini = 0.38<br/>samples = 58<br/>value = [44, 12, 2, 0, 0, 0, 0, 0, 0, 0, 0, 0, 0, 0<br/>0]>, fillcolor="#eda775"] ;
106 -> 107 ;
108 [label=<X<SUB>0</SUB> &le; 33.5<br/>gini = 0.396<br/>samples = 57<br/>value = [42, 14, 1, 0, 0, 0, 0, 0, 0, 0, 0, 0, 0, 0<br/>0]>, fillcolor="#eead7e"] ;
106 -> 108 ;
109 [label=<gini = 0.411<br/>samples = 33<br/>value = [24, 8, 1, 0, 0, 0, 0, 0, 0, 0, 0, 0, 0, 0<br/>0]>, fillcolor="#eeae80"] ;
108 -> 109 ;
110 [label=<gini = 0.375<br/>samples = 24<br/>value = [18, 6, 0, 0, 0, 0, 0, 0, 0, 0, 0, 0, 0, 0<br/>0]>, fillcolor="#eeab7b"] ;
108 -> 110 ;
111 [label=<X<SUB>1</SUB> &le; 13.5<br/>gini = 0.136<br/>samples = 644<br/>value = [597, 43, 3, 1, 0, 0, 0, 0, 0, 0, 0, 0, 0, 0<br/>0]>, fillcolor="#e78b48"] ;
63 -> 111 ;
112 [label=<X<SUB>0</SUB> &le; 11.0<br/>gini = 0.085<br/>samples = 472<br/>value = [451, 20, 1, 0, 0, 0, 0, 0, 0, 0, 0, 0, 0, 0<br/>0]>, fillcolor="#e68742"] ;
111 -> 112 ;
113 [label=<X<SUB>0</SUB> &le; 8.0<br/>gini = 0.106<br/>samples = 215<br/>value = [203, 11, 1, 0, 0, 0, 0, 0, 0, 0, 0, 0, 0, 0<br/>0]>, fillcolor="#e78845"] ;
112 -> 113 ;
114 [label=<X<SUB>1</SUB> &le; 11.5<br/>gini = 0.1<br/>samples = 210<br/>value = [199, 10, 1, 0, 0, 0, 0, 0, 0, 0, 0, 0, 0, 0<br/>0]>, fillcolor="#e68844"] ;
113 -> 114 ;
115 [label=<X<SUB>0</SUB> &le; 2.0<br/>gini = 0.077<br/>samples = 125<br/>value = [120, 5, 0, 0, 0, 0, 0, 0, 0, 0, 0, 0, 0, 0<br/>0]>, fillcolor="#e68641"] ;
114 -> 115 ;
116 [label=<gini = 0.111<br/>samples = 51<br/>value = [48, 3, 0, 0, 0, 0, 0, 0, 0, 0, 0, 0, 0, 0<br/>0]>, fillcolor="#e78945"] ;
115 -> 116 ;
117 [label=<X<SUB>1</SUB> &le; 10.5<br/>gini = 0.053<br/>samples = 74<br/>value = [72, 2, 0, 0, 0, 0, 0, 0, 0, 0, 0, 0, 0, 0<br/>0]>, fillcolor="#e6843e"] ;
115 -> 117 ;
118 [label=<gini = 0.059<br/>samples = 33<br/>value = [32, 1, 0, 0, 0, 0, 0, 0, 0, 0, 0, 0, 0, 0<br/>0]>, fillcolor="#e6853f"] ;
117 -> 118 ;
119 [label=<gini = 0.048<br/>samples = 41<br/>value = [40, 1, 0, 0, 0, 0, 0, 0, 0, 0, 0, 0, 0, 0<br/>0]>, fillcolor="#e6843e"] ;
117 -> 119 ;
120 [label=<X<SUB>0</SUB> &le; 3.5<br/>gini = 0.133<br/>samples = 85<br/>value = [79, 5, 1, 0, 0, 0, 0, 0, 0, 0, 0, 0, 0, 0<br/>0]>, fillcolor="#e78a48"] ;
114 -> 120 ;
121 [label=<gini = 0.119<br/>samples = 48<br/>value = [45, 2, 1, 0, 0, 0, 0, 0, 0, 0, 0, 0, 0, 0<br/>0]>, fillcolor="#e78946"] ;
120 -> 121 ;
122 [label=<X<SUB>0</SUB> &le; 5.0<br/>gini = 0.149<br/>samples = 37<br/>value = [34, 3, 0, 0, 0, 0, 0, 0, 0, 0, 0, 0, 0, 0<br/>0]>, fillcolor="#e78c4a"] ;
120 -> 122 ;
123 [label=<gini = 0.142<br/>samples = 26<br/>value = [24, 2, 0, 0, 0, 0, 0, 0, 0, 0, 0, 0, 0, 0<br/>0]>, fillcolor="#e78c49"] ;
122 -> 123 ;
124 [label=<gini = 0.165<br/>samples = 11<br/>value = [10, 1, 0, 0, 0, 0, 0, 0, 0, 0, 0, 0, 0, 0<br/>0]>, fillcolor="#e88e4d"] ;
122 -> 124 ;
125 [label=<gini = 0.32<br/>samples = 5<br/>value = [4, 1, 0, 0, 0, 0, 0, 0, 0, 0, 0, 0, 0, 0<br/>0]>, fillcolor="#eca06a"] ;
113 -> 125 ;
126 [label=<X<SUB>0</SUB> &le; 15.5<br/>gini = 0.068<br/>samples = 257<br/>value = [248, 9, 0, 0, 0, 0, 0, 0, 0, 0, 0, 0, 0, 0<br/>0]>, fillcolor="#e68640"] ;
112 -> 126 ;
127 [label=<X<SUB>1</SUB> &le; 11.5<br/>gini = 0.018<br/>samples = 108<br/>value = [107, 1, 0, 0, 0, 0, 0, 0, 0, 0, 0, 0, 0, 0<br/>0]>, fillcolor="#e5823b"] ;
126 -> 127 ;
128 [label=<X<SUB>0</SUB> &le; 13.0<br/>gini = 0.028<br/>samples = 71<br/>value = [70, 1, 0, 0, 0, 0, 0, 0, 0, 0, 0, 0, 0, 0<br/>0]>, fillcolor="#e5833c"] ;
127 -> 128 ;
129 [label=<gini = 0.0<br/>samples = 30<br/>value = [30, 0, 0, 0, 0, 0, 0, 0, 0, 0, 0, 0, 0, 0<br/>0]>, fillcolor="#e58139"] ;
128 -> 129 ;
130 [label=<gini = 0.048<br/>samples = 41<br/>value = [40, 1, 0, 0, 0, 0, 0, 0, 0, 0, 0, 0, 0, 0<br/>0]>, fillcolor="#e6843e"] ;
128 -> 130 ;
131 [label=<gini = 0.0<br/>samples = 37<br/>value = [37, 0, 0, 0, 0, 0, 0, 0, 0, 0, 0, 0, 0, 0<br/>0]>, fillcolor="#e58139"] ;
127 -> 131 ;
132 [label=<X<SUB>0</SUB> &le; 34.0<br/>gini = 0.102<br/>samples = 149<br/>value = [141, 8, 0, 0, 0, 0, 0, 0, 0, 0, 0, 0, 0, 0<br/>0]>, fillcolor="#e68844"] ;
126 -> 132 ;
133 [label=<X<SUB>0</SUB> &le; 25.0<br/>gini = 0.096<br/>samples = 138<br/>value = [131, 7, 0, 0, 0, 0, 0, 0, 0, 0, 0, 0, 0, 0<br/>0]>, fillcolor="#e68844"] ;
132 -> 133 ;
134 [label=<X<SUB>0</SUB> &le; 17.0<br/>gini = 0.101<br/>samples = 113<br/>value = [107, 6, 0, 0, 0, 0, 0, 0, 0, 0, 0, 0, 0, 0<br/>0]>, fillcolor="#e68844"] ;
133 -> 134 ;
135 [label=<gini = 0.117<br/>samples = 16<br/>value = [15, 1, 0, 0, 0, 0, 0, 0, 0, 0, 0, 0, 0, 0<br/>0]>, fillcolor="#e78946"] ;
134 -> 135 ;
136 [label=<X<SUB>0</SUB> &le; 20.0<br/>gini = 0.098<br/>samples = 97<br/>value = [92, 5, 0, 0, 0, 0, 0, 0, 0, 0, 0, 0, 0, 0<br/>0]>, fillcolor="#e68844"] ;
134 -> 136 ;
137 [label=<gini = 0.091<br/>samples = 42<br/>value = [40, 2, 0, 0, 0, 0, 0, 0, 0, 0, 0, 0, 0, 0<br/>0]>, fillcolor="#e68743"] ;
136 -> 137 ;
138 [label=<X<SUB>1</SUB> &le; 10.5<br/>gini = 0.103<br/>samples = 55<br/>value = [52, 3, 0, 0, 0, 0, 0, 0, 0, 0, 0, 0, 0, 0<br/>0]>, fillcolor="#e68844"] ;
136 -> 138 ;
139 [label=<gini = 0.1<br/>samples = 38<br/>value = [36, 2, 0, 0, 0, 0, 0, 0, 0, 0, 0, 0, 0, 0<br/>0]>, fillcolor="#e68844"] ;
138 -> 139 ;
140 [label=<gini = 0.111<br/>samples = 17<br/>value = [16, 1, 0, 0, 0, 0, 0, 0, 0, 0, 0, 0, 0, 0<br/>0]>, fillcolor="#e78945"] ;
138 -> 140 ;
141 [label=<gini = 0.077<br/>samples = 25<br/>value = [24, 1, 0, 0, 0, 0, 0, 0, 0, 0, 0, 0, 0, 0<br/>0]>, fillcolor="#e68641"] ;
133 -> 141 ;
142 [label=<gini = 0.165<br/>samples = 11<br/>value = [10, 1, 0, 0, 0, 0, 0, 0, 0, 0, 0, 0, 0, 0<br/>0]>, fillcolor="#e88e4d"] ;
132 -> 142 ;
143 [label=<X<SUB>0</SUB> &le; 9.5<br/>gini = 0.261<br/>samples = 172<br/>value = [146, 23, 2, 1, 0, 0, 0, 0, 0, 0, 0, 0, 0, 0<br/>0]>, fillcolor="#ea975c"] ;
111 -> 143 ;
144 [label=<gini = 0.299<br/>samples = 67<br/>value = [55, 11, 1, 0, 0, 0, 0, 0, 0, 0, 0, 0, 0, 0<br/>0]>, fillcolor="#eb9c63"] ;
143 -> 144 ;
145 [label=<X<SUB>0</SUB> &le; 18.5<br/>gini = 0.236<br/>samples = 105<br/>value = [91, 12, 1, 1, 0, 0, 0, 0, 0, 0, 0, 0, 0, 0<br/>0]>, fillcolor="#e99457"] ;
143 -> 145 ;
146 [label=<gini = 0.08<br/>samples = 24<br/>value = [23, 1, 0, 0, 0, 0, 0, 0, 0, 0, 0, 0, 0, 0<br/>0]>, fillcolor="#e68642"] ;
145 -> 146 ;
147 [label=<X<SUB>0</SUB> &le; 24.5<br/>gini = 0.276<br/>samples = 81<br/>value = [68, 11, 1, 1, 0, 0, 0, 0, 0, 0, 0, 0, 0, 0<br/>0]>, fillcolor="#ea985e"] ;
145 -> 147 ;
148 [label=<gini = 0.287<br/>samples = 66<br/>value = [55, 9, 1, 1, 0, 0, 0, 0, 0, 0, 0, 0, 0, 0<br/>0]>, fillcolor="#ea995f"] ;
147 -> 148 ;
149 [label=<gini = 0.231<br/>samples = 15<br/>value = [13, 2, 0, 0, 0, 0, 0, 0, 0, 0, 0, 0, 0, 0<br/>0]>, fillcolor="#e99457"] ;
147 -> 149 ;
150 [label=<X<SUB>0</SUB> &le; 40.5<br/>gini = 0.371<br/>samples = 128<br/>value = [97, 30, 1, 0, 0, 0, 0, 0, 0, 0, 0, 0, 0, 0<br/>0]>, fillcolor="#eda978"] ;
18 -> 150 ;
151 [label=<X<SUB>0</SUB> &le; 34.5<br/>gini = 0.45<br/>samples = 73<br/>value = [49, 23, 1, 0, 0, 0, 0, 0, 0, 0, 0, 0, 0, 0<br/>0]>, fillcolor="#f1bd98"] ;
150 -> 151 ;
152 [label=<X<SUB>0</SUB> &le; 25.0<br/>gini = 0.443<br/>samples = 69<br/>value = [47, 21, 1, 0, 0, 0, 0, 0, 0, 0, 0, 0, 0, 0<br/>0]>, fillcolor="#f1bb94"] ;
151 -> 152 ;
153 [label=<gini = 0.393<br/>samples = 26<br/>value = [19, 7, 0, 0, 0, 0, 0, 0, 0, 0, 0, 0, 0, 0<br/>0]>, fillcolor="#efaf82"] ;
152 -> 153 ;
154 [label=<X<SUB>0</SUB> &le; 29.0<br/>gini = 0.469<br/>samples = 43<br/>value = [28, 14, 1, 0, 0, 0, 0, 0, 0, 0, 0, 0, 0, 0<br/>0]>, fillcolor="#f2c29f"] ;
152 -> 154 ;
155 [label=<gini = 0.508<br/>samples = 16<br/>value = [10, 5, 1, 0, 0, 0, 0, 0, 0, 0, 0, 0, 0, 0<br/>0]>, fillcolor="#f3c6a5"] ;
154 -> 155 ;
156 [label=<X<SUB>0</SUB> &le; 31.5<br/>gini = 0.444<br/>samples = 27<br/>value = [18, 9, 0, 0, 0, 0, 0, 0, 0, 0, 0, 0, 0, 0<br/>0]>, fillcolor="#f2c09c"] ;
154 -> 156 ;
157 [label=<gini = 0.432<br/>samples = 19<br/>value = [13, 6, 0, 0, 0, 0, 0, 0, 0, 0, 0, 0, 0, 0<br/>0]>, fillcolor="#f1bb94"] ;
156 -> 157 ;
158 [label=<gini = 0.469<br/>samples = 8<br/>value = [5, 3, 0, 0, 0, 0, 0, 0, 0, 0, 0, 0, 0, 0<br/>0]>, fillcolor="#f5cdb0"] ;
156 -> 158 ;
159 [label=<gini = 0.5<br/>samples = 4<br/>value = [2, 2, 0, 0, 0, 0, 0, 0, 0, 0, 0, 0, 0, 0<br/>0]>, fillcolor="#ffffff"] ;
151 -> 159 ;
160 [label=<X<SUB>0</SUB> &le; 53.0<br/>gini = 0.222<br/>samples = 55<br/>value = [48, 7, 0, 0, 0, 0, 0, 0, 0, 0, 0, 0, 0, 0<br/>0]>, fillcolor="#e99356"] ;
150 -> 160 ;
161 [label=<X<SUB>0</SUB> &le; 48.0<br/>gini = 0.283<br/>samples = 41<br/>value = [34, 7, 0, 0, 0, 0, 0, 0, 0, 0, 0, 0, 0, 0<br/>0]>, fillcolor="#ea9b62"] ;
160 -> 161 ;
162 [label=<gini = 0.32<br/>samples = 25<br/>value = [20, 5, 0, 0, 0, 0, 0, 0, 0, 0, 0, 0, 0, 0<br/>0]>, fillcolor="#eca06a"] ;
161 -> 162 ;
163 [label=<X<SUB>0</SUB> &le; 50.0<br/>gini = 0.219<br/>samples = 16<br/>value = [14, 2, 0, 0, 0, 0, 0, 0, 0, 0, 0, 0, 0, 0<br/>0]>, fillcolor="#e99355"] ;
161 -> 163 ;
164 [label=<gini = 0.153<br/>samples = 12<br/>value = [11, 1, 0, 0, 0, 0, 0, 0, 0, 0, 0, 0, 0, 0<br/>0]>, fillcolor="#e78c4b"] ;
163 -> 164 ;
165 [label=<gini = 0.375<br/>samples = 4<br/>value = [3, 1, 0, 0, 0, 0, 0, 0, 0, 0, 0, 0, 0, 0<br/>0]>, fillcolor="#eeab7b"] ;
163 -> 165 ;
166 [label=<gini = 0.0<br/>samples = 14<br/>value = [14, 0, 0, 0, 0, 0, 0, 0, 0, 0, 0, 0, 0, 0<br/>0]>, fillcolor="#e58139"] ;
160 -> 166 ;
167 [label=<X<SUB>0</SUB> &le; 4.5<br/>gini = 0.127<br/>samples = 824<br/>value = [768, 51, 5, 0, 0, 0, 0, 0, 0, 0, 0, 0, 0, 0<br/>0]>, fillcolor="#e78a47"] ;
17 -> 167 ;
168 [label=<X<SUB>0</SUB> &le; 3.0<br/>gini = 0.237<br/>samples = 118<br/>value = [102, 15, 1, 0, 0, 0, 0, 0, 0, 0, 0, 0, 0, 0<br/>0]>, fillcolor="#e99558"] ;
167 -> 168 ;
169 [label=<gini = 0.219<br/>samples = 72<br/>value = [63, 9, 0, 0, 0, 0, 0, 0, 0, 0, 0, 0, 0, 0<br/>0]>, fillcolor="#e99355"] ;
168 -> 169 ;
170 [label=<gini = 0.264<br/>samples = 46<br/>value = [39, 6, 1, 0, 0, 0, 0, 0, 0, 0, 0, 0, 0, 0<br/>0]>, fillcolor="#ea975c"] ;
168 -> 170 ;
171 [label=<X<SUB>0</SUB> &le; 44.0<br/>gini = 0.107<br/>samples = 706<br/>value = [666, 36, 4, 0, 0, 0, 0, 0, 0, 0, 0, 0, 0, 0<br/>0]>, fillcolor="#e78945"] ;
167 -> 171 ;
172 [label=<X<SUB>0</SUB> &le; 35.5<br/>gini = 0.11<br/>samples = 669<br/>value = [630, 36, 3, 0, 0, 0, 0, 0, 0, 0, 0, 0, 0, 0<br/>0]>, fillcolor="#e78945"] ;
171 -> 172 ;
173 [label=<X<SUB>0</SUB> &le; 27.0<br/>gini = 0.104<br/>samples = 640<br/>value = [605, 33, 2, 0, 0, 0, 0, 0, 0, 0, 0, 0, 0, 0<br/>0]>, fillcolor="#e68844"] ;
172 -> 173 ;
174 [label=<X<SUB>0</SUB> &le; 25.0<br/>gini = 0.11<br/>samples = 583<br/>value = [549, 32, 2, 0, 0, 0, 0, 0, 0, 0, 0, 0, 0, 0<br/>0]>, fillcolor="#e78945"] ;
173 -> 174 ;
175 [label=<X<SUB>1</SUB> &le; 19.5<br/>gini = 0.108<br/>samples = 563<br/>value = [531, 30, 2, 0, 0, 0, 0, 0, 0, 0, 0, 0, 0, 0<br/>0]>, fillcolor="#e78945"] ;
174 -> 175 ;
176 [label=<X<SUB>0</SUB> &le; 16.5<br/>gini = 0.102<br/>samples = 449<br/>value = [425, 22, 2, 0, 0, 0, 0, 0, 0, 0, 0, 0, 0, 0<br/>0]>, fillcolor="#e68844"] ;
175 -> 176 ;
177 [label=<X<SUB>0</SUB> &le; 7.5<br/>gini = 0.062<br/>samples = 94<br/>value = [91, 3, 0, 0, 0, 0, 0, 0, 0, 0, 0, 0, 0, 0<br/>0]>, fillcolor="#e68540"] ;
176 -> 177 ;
178 [label=<gini = 0.081<br/>samples = 71<br/>value = [68, 3, 0, 0, 0, 0, 0, 0, 0, 0, 0, 0, 0, 0<br/>0]>, fillcolor="#e68742"] ;
177 -> 178 ;
179 [label=<gini = 0.0<br/>samples = 23<br/>value = [23, 0, 0, 0, 0, 0, 0, 0, 0, 0, 0, 0, 0, 0<br/>0]>, fillcolor="#e58139"] ;
177 -> 179 ;
180 [label=<X<SUB>0</SUB> &le; 17.5<br/>gini = 0.112<br/>samples = 355<br/>value = [334, 19, 2, 0, 0, 0, 0, 0, 0, 0, 0, 0, 0, 0<br/>0]>, fillcolor="#e78945"] ;
176 -> 180 ;
181 [label=<gini = 0.16<br/>samples = 57<br/>value = [52, 5, 0, 0, 0, 0, 0, 0, 0, 0, 0, 0, 0, 0<br/>0]>, fillcolor="#e88d4c"] ;
180 -> 181 ;
182 [label=<X<SUB>0</SUB> &le; 21.5<br/>gini = 0.102<br/>samples = 298<br/>value = [282, 14, 2, 0, 0, 0, 0, 0, 0, 0, 0, 0, 0, 0<br/>0]>, fillcolor="#e68844"] ;
180 -> 182 ;
183 [label=<X<SUB>1</SUB> &le; 18.5<br/>gini = 0.082<br/>samples = 163<br/>value = [156, 7, 0, 0, 0, 0, 0, 0, 0, 0, 0, 0, 0, 0<br/>0]>, fillcolor="#e68742"] ;
182 -> 183 ;
184 [label=<X<SUB>0</SUB> &le; 19.5<br/>gini = 0.071<br/>samples = 109<br/>value = [105, 4, 0, 0, 0, 0, 0, 0, 0, 0, 0, 0, 0, 0<br/>0]>, fillcolor="#e68641"] ;
183 -> 184 ;
185 [label=<gini = 0.045<br/>samples = 43<br/>value = [42, 1, 0, 0, 0, 0, 0, 0, 0, 0, 0, 0, 0, 0<br/>0]>, fillcolor="#e6843e"] ;
184 -> 185 ;
186 [label=<gini = 0.087<br/>samples = 66<br/>value = [63, 3, 0, 0, 0, 0, 0, 0, 0, 0, 0, 0, 0, 0<br/>0]>, fillcolor="#e68742"] ;
184 -> 186 ;
187 [label=<gini = 0.105<br/>samples = 54<br/>value = [51, 3, 0, 0, 0, 0, 0, 0, 0, 0, 0, 0, 0, 0<br/>0]>, fillcolor="#e78845"] ;
183 -> 187 ;
188 [label=<X<SUB>0</SUB> &le; 23.0<br/>gini = 0.126<br/>samples = 135<br/>value = [126, 7, 2, 0, 0, 0, 0, 0, 0, 0, 0, 0, 0, 0<br/>0]>, fillcolor="#e78a47"] ;
182 -> 188 ;
189 [label=<gini = 0.625<br/>samples = 4<br/>value = [2, 1, 1, 0, 0, 0, 0, 0, 0, 0, 0, 0, 0, 0<br/>0]>, fillcolor="#f6d5bd"] ;
188 -> 189 ;
190 [label=<gini = 0.102<br/>samples = 131<br/>value = [124, 6, 1, 0, 0, 0, 0, 0, 0, 0, 0, 0, 0, 0<br/>0]>, fillcolor="#e68844"] ;
188 -> 190 ;
191 [label=<X<SUB>1</SUB> &le; 20.5<br/>gini = 0.131<br/>samples = 114<br/>value = [106, 8, 0, 0, 0, 0, 0, 0, 0, 0, 0, 0, 0, 0<br/>0]>, fillcolor="#e78b48"] ;
175 -> 191 ;
192 [label=<gini = 0.141<br/>samples = 92<br/>value = [85, 7, 0, 0, 0, 0, 0, 0, 0, 0, 0, 0, 0, 0<br/>0]>, fillcolor="#e78b49"] ;
191 -> 192 ;
193 [label=<gini = 0.087<br/>samples = 22<br/>value = [21, 1, 0, 0, 0, 0, 0, 0, 0, 0, 0, 0, 0, 0<br/>0]>, fillcolor="#e68742"] ;
191 -> 193 ;
194 [label=<gini = 0.18<br/>samples = 20<br/>value = [18, 2, 0, 0, 0, 0, 0, 0, 0, 0, 0, 0, 0, 0<br/>0]>, fillcolor="#e88f4f"] ;
174 -> 194 ;
195 [label=<X<SUB>1</SUB> &le; 18.5<br/>gini = 0.034<br/>samples = 57<br/>value = [56, 1, 0, 0, 0, 0, 0, 0, 0, 0, 0, 0, 0, 0<br/>0]>, fillcolor="#e5833d"] ;
173 -> 195 ;
196 [label=<gini = 0.044<br/>samples = 44<br/>value = [43, 1, 0, 0, 0, 0, 0, 0, 0, 0, 0, 0, 0, 0<br/>0]>, fillcolor="#e6843e"] ;
195 -> 196 ;
197 [label=<gini = 0.0<br/>samples = 13<br/>value = [13, 0, 0, 0, 0, 0, 0, 0, 0, 0, 0, 0, 0, 0<br/>0]>, fillcolor="#e58139"] ;
195 -> 197 ;
198 [label=<gini = 0.245<br/>samples = 29<br/>value = [25, 3, 1, 0, 0, 0, 0, 0, 0, 0, 0, 0, 0, 0<br/>0]>, fillcolor="#e99457"] ;
172 -> 198 ;
199 [label=<X<SUB>0</SUB> &le; 46.5<br/>gini = 0.053<br/>samples = 37<br/>value = [36, 0, 1, 0, 0, 0, 0, 0, 0, 0, 0, 0, 0, 0<br/>0]>, fillcolor="#e6843e"] ;
171 -> 199 ;
200 [label=<gini = 0.0<br/>samples = 22<br/>value = [22, 0, 0, 0, 0, 0, 0, 0, 0, 0, 0, 0, 0, 0<br/>0]>, fillcolor="#e58139"] ;
199 -> 200 ;
201 [label=<gini = 0.124<br/>samples = 15<br/>value = [14, 0, 1, 0, 0, 0, 0, 0, 0, 0, 0, 0, 0, 0<br/>0]>, fillcolor="#e78a47"] ;
199 -> 201 ;
202 [label=<X<SUB>1</SUB> &le; 14.5<br/>gini = 0.76<br/>samples = 711<br/>value = [164, 280, 109, 40, 39, 23, 9, 9, 5, 5, 19, 3<br/>4, 1, 1]>, fillcolor="#f9f3d5"] ;
0 -> 202 [labeldistance=2.5, labelangle=-45, headlabel="False"] ;
203 [label=<X<SUB>1</SUB> &le; 2.5<br/>gini = 0.79<br/>samples = 517<br/>value = [119, 175, 92, 32, 32, 19, 7, 8, 3, 5, 18, 2, 4<br/>1, 0]>, fillcolor="#fbf7e3"] ;
202 -> 203 ;
204 [label=<X<SUB>1</SUB> &le; 0.5<br/>gini = 0.765<br/>samples = 148<br/>value = [16, 63, 21, 10, 15, 8, 1, 3, 0, 1, 9, 0, 0<br/>1, 0]>, fillcolor="#f6ecbe"] ;
203 -> 204 ;
205 [label=<X<SUB>0</SUB> &le; 17.5<br/>gini = 0.846<br/>samples = 67<br/>value = [8, 14, 10, 5, 15, 4, 1, 0, 0, 1, 8, 0, 0, 1<br/>0]>, fillcolor="#fbfffb"] ;
204 -> 205 ;
206 [label=<X<SUB>0</SUB> &le; 3.0<br/>gini = 0.83<br/>samples = 24<br/>value = [2, 2, 5, 3, 7, 1, 1, 0, 0, 1, 2, 0, 0, 0<br/>0]>, fillcolor="#eafcea"] ;
205 -> 206 ;
207 [label=<gini = 0.805<br/>samples = 13<br/>value = [0, 1, 3, 3, 3, 0, 1, 0, 0, 0, 2, 0, 0, 0<br/>0]>, fillcolor="#ffffff"] ;
206 -> 207 ;
208 [label=<gini = 0.777<br/>samples = 11<br/>value = [2, 1, 2, 0, 4, 1, 0, 0, 0, 1, 0, 0, 0, 0<br/>0]>, fillcolor="#d3f9d4"] ;
206 -> 208 ;
209 [label=<X<SUB>0</SUB> &le; 25.0<br/>gini = 0.827<br/>samples = 43<br/>value = [6, 12, 5, 2, 8, 3, 0, 0, 0, 0, 6, 0, 0, 1<br/>0]>, fillcolor="#fcf8e8"] ;
205 -> 209 ;
210 [label=<gini = 0.78<br/>samples = 20<br/>value = [1, 7, 0, 1, 4, 2, 0, 0, 0, 0, 4, 0, 0, 1<br/>0]>, fillcolor="#faf4da"] ;
209 -> 210 ;
211 [label=<X<SUB>0</SUB> &le; 64.0<br/>gini = 0.817<br/>samples = 23<br/>value = [5, 5, 5, 1, 4, 1, 0, 0, 0, 0, 2, 0, 0, 0<br/>0]>, fillcolor="#ffffff"] ;
209 -> 211 ;
212 [label=<X<SUB>0</SUB> &le; 40.0<br/>gini = 0.77<br/>samples = 19<br/>value = [5, 4, 5, 0, 4, 1, 0, 0, 0, 0, 0, 0, 0, 0<br/>0]>, fillcolor="#ffffff"] ;
211 -> 212 ;
213 [label=<gini = 0.66<br/>samples = 10<br/>value = [4, 3, 3, 0, 0, 0, 0, 0, 0, 0, 0, 0, 0, 0<br/>0]>, fillcolor="#fbede3"] ;
212 -> 213 ;
214 [label=<gini = 0.716<br/>samples = 9<br/>value = [1, 1, 2, 0, 4, 1, 0, 0, 0, 0, 0, 0, 0, 0<br/>0]>, fillcolor="#c6f8c7"] ;
212 -> 214 ;
215 [label=<gini = 0.625<br/>samples = 4<br/>value = [0, 1, 0, 1, 0, 0, 0, 0, 0, 0, 2, 0, 0, 0<br/>0]>, fillcolor="#d5bdf6"] ;
211 -> 215 ;
216 [label=<X<SUB>0</SUB> &le; 15.5<br/>gini = 0.598<br/>samples = 81<br/>value = [8, 49, 11, 5, 0, 4, 0, 3, 0, 0, 1, 0, 0, 0<br/>0]>, fillcolor="#f1e094"] ;
204 -> 216 ;
217 [label=<X<SUB>0</SUB> &le; 7.5<br/>gini = 0.516<br/>samples = 62<br/>value = [7, 42, 5, 4, 0, 2, 0, 2, 0, 0, 0, 0, 0, 0<br/>0]>, fillcolor="#eeda81"] ;
216 -> 217 ;
218 [label=<X<SUB>0</SUB> &le; 1.5<br/>gini = 0.487<br/>samples = 46<br/>value = [7, 32, 2, 2, 0, 1, 0, 2, 0, 0, 0, 0, 0, 0<br/>0]>, fillcolor="#eeda80"] ;
217 -> 218 ;
219 [label=<gini = 0.578<br/>samples = 15<br/>value = [3, 9, 2, 0, 0, 1, 0, 0, 0, 0, 0, 0, 0, 0<br/>0]>, fillcolor="#f2e29c"] ;
218 -> 219 ;
220 [label=<X<SUB>0</SUB> &le; 2.5<br/>gini = 0.425<br/>samples = 31<br/>value = [4, 23, 0, 2, 0, 0, 0, 2, 0, 0, 0, 0, 0, 0<br/>0]>, fillcolor="#edd674"] ;
218 -> 220 ;
221 [label=<gini = 0.454<br/>samples = 25<br/>value = [3, 18, 0, 2, 0, 0, 0, 2, 0, 0, 0, 0, 0, 0<br/>0]>, fillcolor="#edd778"] ;
220 -> 221 ;
222 [label=<gini = 0.278<br/>samples = 6<br/>value = [1, 5, 0, 0, 0, 0, 0, 0, 0, 0, 0, 0, 0, 0<br/>0]>, fillcolor="#ead161"] ;
220 -> 222 ;
223 [label=<X<SUB>1</SUB> &le; 1.5<br/>gini = 0.555<br/>samples = 16<br/>value = [0, 10, 3, 2, 0, 1, 0, 0, 0, 0, 0, 0, 0, 0<br/>0]>, fillcolor="#f1e094"] ;
217 -> 223 ;
224 [label=<gini = 0.625<br/>samples = 4<br/>value = [0, 1, 2, 1, 0, 0, 0, 0, 0, 0, 0, 0, 0, 0<br/>0]>, fillcolor="#eaf6bd"] ;
223 -> 224 ;
225 [label=<gini = 0.417<br/>samples = 12<br/>value = [0, 9, 1, 1, 0, 1, 0, 0, 0, 0, 0, 0, 0, 0<br/>0]>, fillcolor="#ecd56f"] ;
223 -> 225 ;
226 [label=<X<SUB>0</SUB> &le; 19.5<br/>gini = 0.742<br/>samples = 19<br/>value = [1, 7, 6, 1, 0, 2, 0, 1, 0, 0, 1, 0, 0, 0<br/>0]>, fillcolor="#fdfbf0"] ;
216 -> 226 ;
227 [label=<gini = 0.792<br/>samples = 12<br/>value = [1, 3, 4, 1, 0, 1, 0, 1, 0, 0, 1, 0, 0, 0<br/>0]>, fillcolor="#f8fce9"] ;
226 -> 227 ;
228 [label=<gini = 0.571<br/>samples = 7<br/>value = [0, 4, 2, 0, 0, 1, 0, 0, 0, 0, 0, 0, 0, 0<br/>0]>, fillcolor="#f5e8b0"] ;
226 -> 228 ;
229 [label=<X<SUB>1</SUB> &le; 5.5<br/>gini = 0.785<br/>samples = 369<br/>value = [103, 112, 71, 22, 17, 11, 6, 5, 3, 4, 9, 2, 4<br/>0, 0]>, fillcolor="#fefdf8"] ;
203 -> 229 ;
230 [label=<X<SUB>0</SUB> &le; 16.0<br/>gini = 0.677<br/>samples = 96<br/>value = [43, 32, 8, 1, 3, 5, 2, 1, 0, 0, 0, 1, 0, 0<br/>0]>, fillcolor="#fbe9dd"] ;
229 -> 230 ;
231 [label=<X<SUB>0</SUB> &le; 5.5<br/>gini = 0.676<br/>samples = 75<br/>value = [27, 32, 6, 0, 1, 5, 2, 1, 0, 0, 0, 1, 0, 0<br/>0]>, fillcolor="#fcf9ea"] ;
230 -> 231 ;
232 [label=<gini = 0.642<br/>samples = 9<br/>value = [5, 0, 1, 0, 1, 1, 1, 0, 0, 0, 0, 0, 0, 0<br/>0]>, fillcolor="#f2c09c"] ;
231 -> 232 ;
233 [label=<X<SUB>0</SUB> &le; 11.0<br/>gini = 0.644<br/>samples = 66<br/>value = [22, 32, 5, 0, 0, 4, 1, 1, 0, 0, 0, 1, 0, 0<br/>0]>, fillcolor="#f9f2d2"] ;
231 -> 233 ;
234 [label=<X<SUB>0</SUB> &le; 8.0<br/>gini = 0.659<br/>samples = 62<br/>value = [22, 28, 5, 0, 0, 4, 1, 1, 0, 0, 0, 1, 0, 0<br/>0]>, fillcolor="#fbf6e1"] ;
233 -> 234 ;
235 [label=<X<SUB>1</SUB> &le; 4.0<br/>gini = 0.651<br/>samples = 44<br/>value = [17, 19, 4, 0, 0, 3, 0, 1, 0, 0, 0, 0, 0, 0<br/>0]>, fillcolor="#fdfbf0"] ;
234 -> 235 ;
236 [label=<gini = 0.651<br/>samples = 17<br/>value = [7, 7, 1, 0, 0, 1, 0, 1, 0, 0, 0, 0, 0, 0<br/>0]>, fillcolor="#ffffff"] ;
235 -> 236 ;
237 [label=<gini = 0.647<br/>samples = 27<br/>value = [10, 12, 3, 0, 0, 2, 0, 0, 0, 0, 0, 0, 0, 0<br/>0]>, fillcolor="#fcf8e8"] ;
235 -> 237 ;
238 [label=<gini = 0.66<br/>samples = 18<br/>value = [5, 9, 1, 0, 0, 1, 1, 0, 0, 0, 0, 1, 0, 0<br/>0]>, fillcolor="#f7edc2"] ;
234 -> 238 ;
239 [label=<gini = 0.0<br/>samples = 4<br/>value = [0, 4, 0, 0, 0, 0, 0, 0, 0, 0, 0, 0, 0, 0<br/>0]>, fillcolor="#e5c539"] ;
233 -> 239 ;
240 [label=<X<SUB>0</SUB> &le; 23.0<br/>gini = 0.399<br/>samples = 21<br/>value = [16, 0, 2, 1, 2, 0, 0, 0, 0, 0, 0, 0, 0, 0<br/>0]>, fillcolor="#eca26d"] ;
230 -> 240 ;
241 [label=<gini = 0.278<br/>samples = 12<br/>value = [10, 0, 0, 0, 2, 0, 0, 0, 0, 0, 0, 0, 0, 0<br/>0]>, fillcolor="#ea9a61"] ;
240 -> 241 ;
242 [label=<gini = 0.494<br/>samples = 9<br/>value = [6, 0, 2, 1, 0, 0, 0, 0, 0, 0, 0, 0, 0, 0<br/>0]>, fillcolor="#f0b78e"] ;
240 -> 242 ;
243 [label=<X<SUB>1</SUB> &le; 9.5<br/>gini = 0.801<br/>samples = 273<br/>value = [60, 80, 63, 21, 14, 6, 4, 4, 3, 4, 9, 1, 4<br/>0, 0]>, fillcolor="#fdfaef"] ;
229 -> 243 ;
244 [label=<X<SUB>1</SUB> &le; 8.5<br/>gini = 0.814<br/>samples = 153<br/>value = [19, 37, 46, 17, 9, 4, 1, 2, 2, 3, 9, 0, 4, 0<br/>0]>, fillcolor="#fafdf0"] ;
243 -> 244 ;
245 [label=<X<SUB>0</SUB> &le; 5.0<br/>gini = 0.818<br/>samples = 130<br/>value = [18, 36, 33, 14, 7, 2, 0, 2, 2, 3, 9, 0, 4, 0<br/>0]>, fillcolor="#fefdf9"] ;
244 -> 245 ;
246 [label=<X<SUB>0</SUB> &le; 1.5<br/>gini = 0.725<br/>samples = 40<br/>value = [13, 14, 8, 3, 1, 0, 0, 0, 0, 0, 0, 0, 1, 0<br/>0]>, fillcolor="#fefdf8"] ;
245 -> 246 ;
247 [label=<gini = 0.628<br/>samples = 11<br/>value = [0, 6, 2, 2, 1, 0, 0, 0, 0, 0, 0, 0, 0, 0<br/>0]>, fillcolor="#f3e5a7"] ;
246 -> 247 ;
248 [label=<X<SUB>1</SUB> &le; 7.5<br/>gini = 0.678<br/>samples = 29<br/>value = [13, 8, 6, 1, 0, 0, 0, 0, 0, 0, 0, 0, 1, 0<br/>0]>, fillcolor="#f9e1d0"] ;
246 -> 248 ;
249 [label=<gini = 0.439<br/>samples = 14<br/>value = [10, 0, 3, 0, 0, 0, 0, 0, 0, 0, 0, 0, 1, 0<br/>0]>, fillcolor="#eeaf81"] ;
248 -> 249 ;
250 [label=<gini = 0.631<br/>samples = 15<br/>value = [3, 8, 3, 1, 0, 0, 0, 0, 0, 0, 0, 0, 0, 0<br/>0]>, fillcolor="#f4e7ac"] ;
248 -> 250 ;
251 [label=<X<SUB>0</SUB> &le; 19.5<br/>gini = 0.827<br/>samples = 90<br/>value = [5, 22, 25, 11, 6, 2, 0, 2, 2, 3, 9, 0, 3, 0<br/>0]>, fillcolor="#fcfef6"] ;
245 -> 251 ;
252 [label=<X<SUB>1</SUB> &le; 6.5<br/>gini = 0.776<br/>samples = 40<br/>value = [0, 4, 16, 7, 3, 1, 0, 0, 1, 1, 4, 0, 3, 0<br/>0]>, fillcolor="#eef8c9"] ;
251 -> 252 ;
253 [label=<X<SUB>0</SUB> &le; 8.0<br/>gini = 0.77<br/>samples = 19<br/>value = [0, 4, 5, 6, 0, 0, 0, 0, 1, 1, 2, 0, 0, 0<br/>0]>, fillcolor="#f6fdf1"] ;
252 -> 253 ;
254 [label=<gini = 0.49<br/>samples = 7<br/>value = [0, 0, 4, 3, 0, 0, 0, 0, 0, 0, 0, 0, 0, 0<br/>0]>, fillcolor="#eff8ce"] ;
253 -> 254 ;
255 [label=<gini = 0.778<br/>samples = 12<br/>value = [0, 4, 1, 3, 0, 0, 0, 0, 1, 1, 2, 0, 0, 0<br/>0]>, fillcolor="#fcf9e9"] ;
253 -> 255 ;
256 [label=<X<SUB>0</SUB> &le; 11.0<br/>gini = 0.671<br/>samples = 21<br/>value = [0, 0, 11, 1, 3, 1, 0, 0, 0, 0, 2, 0, 3, 0<br/>0]>, fillcolor="#e3f3a7"] ;
252 -> 256 ;
257 [label=<gini = 0.694<br/>samples = 7<br/>value = [0, 0, 2, 0, 1, 0, 0, 0, 0, 0, 1, 0, 3, 0<br/>0]>, fillcolor="#fad7f2"] ;
256 -> 257 ;
258 [label=<gini = 0.551<br/>samples = 14<br/>value = [0, 0, 9, 1, 2, 1, 0, 0, 0, 0, 1, 0, 0, 0<br/>0]>, fillcolor="#daf08c"] ;
256 -> 258 ;
259 [label=<X<SUB>1</SUB> &le; 6.5<br/>gini = 0.804<br/>samples = 50<br/>value = [5, 18, 9, 4, 3, 1, 0, 2, 1, 2, 5, 0, 0, 0<br/>0]>, fillcolor="#f9f2d4"] ;
251 -> 259 ;
260 [label=<X<SUB>0</SUB> &le; 25.0<br/>gini = 0.839<br/>samples = 37<br/>value = [3, 10, 8, 4, 3, 1, 0, 2, 1, 1, 4, 0, 0, 0<br/>0]>, fillcolor="#fdfbf1"] ;
259 -> 260 ;
261 [label=<gini = 0.64<br/>samples = 10<br/>value = [0, 5, 3, 0, 0, 0, 0, 1, 1, 0, 0, 0, 0, 0<br/>0]>, fillcolor="#f8eec6"] ;
260 -> 261 ;
262 [label=<X<SUB>0</SUB> &le; 53.5<br/>gini = 0.859<br/>samples = 27<br/>value = [3, 5, 5, 4, 3, 1, 0, 1, 0, 1, 4, 0, 0, 0<br/>0]>, fillcolor="#ffffff"] ;
260 -> 262 ;
263 [label=<X<SUB>0</SUB> &le; 39.5<br/>gini = 0.851<br/>samples = 23<br/>value = [3, 5, 3, 4, 3, 1, 0, 1, 0, 0, 3, 0, 0, 0<br/>0]>, fillcolor="#fefcf5"] ;
262 -> 263 ;
264 [label=<X<SUB>0</SUB> &le; 36.5<br/>gini = 0.828<br/>samples = 16<br/>value = [3, 2, 2, 3, 3, 0, 0, 0, 0, 0, 3, 0, 0, 0<br/>0]>, fillcolor="#ffffff"] ;
263 -> 264 ;
265 [label=<gini = 0.765<br/>samples = 9<br/>value = [0, 2, 1, 2, 1, 0, 0, 0, 0, 0, 3, 0, 0, 0<br/>0]>, fillcolor="#ede3fb"] ;
264 -> 265 ;
266 [label=<gini = 0.694<br/>samples = 7<br/>value = [3, 0, 1, 1, 2, 0, 0, 0, 0, 0, 0, 0, 0, 0<br/>0]>, fillcolor="#fae6d7"] ;
264 -> 266 ;
267 [label=<gini = 0.735<br/>samples = 7<br/>value = [0, 3, 1, 1, 0, 1, 0, 1, 0, 0, 0, 0, 0, 0<br/>0]>, fillcolor="#f6ecbd"] ;
263 -> 267 ;
268 [label=<gini = 0.625<br/>samples = 4<br/>value = [0, 0, 2, 0, 0, 0, 0, 0, 0, 1, 1, 0, 0, 0<br/>0]>, fillcolor="#eaf6bd"] ;
262 -> 268 ;
269 [label=<gini = 0.58<br/>samples = 13<br/>value = [2, 8, 1, 0, 0, 0, 0, 0, 0, 1, 1, 0, 0, 0<br/>0]>, fillcolor="#f1df93"] ;
259 -> 269 ;
270 [label=<X<SUB>0</SUB> &le; 7.5<br/>gini = 0.643<br/>samples = 23<br/>value = [1, 1, 13, 3, 2, 2, 1, 0, 0, 0, 0, 0, 0, 0<br/>0]>, fillcolor="#e0f29c"] ;
244 -> 270 ;
271 [label=<gini = 0.656<br/>samples = 8<br/>value = [0, 0, 4, 0, 2, 1, 1, 0, 0, 0, 0, 0, 0, 0<br/>0]>, fillcolor="#eaf6bd"] ;
270 -> 271 ;
272 [label=<gini = 0.587<br/>samples = 15<br/>value = [1, 1, 9, 3, 0, 1, 0, 0, 0, 0, 0, 0, 0, 0<br/>0]>, fillcolor="#e0f29c"] ;
270 -> 272 ;
273 [label=<X<SUB>0</SUB> &le; 15.0<br/>gini = 0.731<br/>samples = 120<br/>value = [41, 43, 17, 4, 5, 2, 3, 2, 1, 1, 0, 1, 0, 0<br/>0]>, fillcolor="#fefefa"] ;
243 -> 273 ;
274 [label=<X<SUB>1</SUB> &le; 10.5<br/>gini = 0.696<br/>samples = 70<br/>value = [34, 16, 7, 4, 2, 0, 2, 2, 1, 1, 0, 1, 0, 0<br/>0]>, fillcolor="#f6d5bd"] ;
273 -> 274 ;
275 [label=<X<SUB>0</SUB> &le; 3.0<br/>gini = 0.491<br/>samples = 26<br/>value = [18, 4, 1, 1, 0, 0, 0, 0, 1, 0, 0, 1, 0, 0<br/>0]>, fillcolor="#eeaf81"] ;
274 -> 275 ;
276 [label=<gini = 0.5<br/>samples = 6<br/>value = [3, 3, 0, 0, 0, 0, 0, 0, 0, 0, 0, 0, 0, 0<br/>0]>, fillcolor="#ffffff"] ;
275 -> 276 ;
277 [label=<X<SUB>0</SUB> &le; 8.5<br/>gini = 0.425<br/>samples = 20<br/>value = [15, 1, 1, 1, 0, 0, 0, 0, 1, 0, 0, 1, 0, 0<br/>0]>, fillcolor="#eca26d"] ;
275 -> 277 ;
278 [label=<gini = 0.314<br/>samples = 11<br/>value = [9, 0, 0, 1, 0, 0, 0, 0, 1, 0, 0, 0, 0, 0<br/>0]>, fillcolor="#ea9a61"] ;
277 -> 278 ;
279 [label=<gini = 0.519<br/>samples = 9<br/>value = [6, 1, 1, 0, 0, 0, 0, 0, 0, 0, 0, 1, 0, 0<br/>0]>, fillcolor="#efb083"] ;
277 -> 279 ;
280 [label=<X<SUB>1</SUB> &le; 11.5<br/>gini = 0.763<br/>samples = 44<br/>value = [16, 12, 6, 3, 2, 0, 2, 2, 0, 1, 0, 0, 0, 0<br/>0]>, fillcolor="#fcefe6"] ;
274 -> 280 ;
281 [label=<gini = 0.631<br/>samples = 15<br/>value = [4, 8, 1, 1, 1, 0, 0, 0, 0, 0, 0, 0, 0, 0<br/>0]>, fillcolor="#f6eab7"] ;
280 -> 281 ;
282 [label=<X<SUB>0</SUB> &le; 9.5<br/>gini = 0.763<br/>samples = 29<br/>value = [12, 4, 5, 2, 1, 0, 2, 2, 0, 1, 0, 0, 0, 0<br/>0]>, fillcolor="#f7dac5"] ;
280 -> 282 ;
283 [label=<X<SUB>1</SUB> &le; 13.5<br/>gini = 0.815<br/>samples = 18<br/>value = [4, 3, 5, 2, 0, 0, 2, 1, 0, 1, 0, 0, 0, 0<br/>0]>, fillcolor="#fbfdf1"] ;
282 -> 283 ;
284 [label=<gini = 0.777<br/>samples = 11<br/>value = [4, 2, 1, 1, 0, 0, 2, 0, 0, 1, 0, 0, 0, 0<br/>0]>, fillcolor="#f9e3d3"] ;
283 -> 284 ;
285 [label=<gini = 0.612<br/>samples = 7<br/>value = [0, 1, 4, 1, 0, 0, 0, 1, 0, 0, 0, 0, 0, 0<br/>0]>, fillcolor="#e0f29c"] ;
283 -> 285 ;
286 [label=<gini = 0.446<br/>samples = 11<br/>value = [8, 1, 0, 0, 1, 0, 0, 1, 0, 0, 0, 0, 0, 0<br/>0]>, fillcolor="#eda774"] ;
282 -> 286 ;
287 [label=<X<SUB>1</SUB> &le; 13.5<br/>gini = 0.643<br/>samples = 50<br/>value = [7, 27, 10, 0, 3, 2, 1, 0, 0, 0, 0, 0, 0, 0<br/>0]>, fillcolor="#f4e6ab"] ;
273 -> 287 ;
288 [label=<X<SUB>1</SUB> &le; 12.0<br/>gini = 0.51<br/>samples = 40<br/>value = [5, 27, 5, 0, 0, 2, 1, 0, 0, 0, 0, 0, 0, 0<br/>0]>, fillcolor="#efdb83"] ;
287 -> 288 ;
289 [label=<X<SUB>1</SUB> &le; 10.5<br/>gini = 0.624<br/>samples = 25<br/>value = [5, 14, 3, 0, 0, 2, 1, 0, 0, 0, 0, 0, 0, 0<br/>0]>, fillcolor="#f3e5a6"] ;
288 -> 289 ;
290 [label=<gini = 0.617<br/>samples = 9<br/>value = [1, 5, 1, 0, 0, 2, 0, 0, 0, 0, 0, 0, 0, 0<br/>0]>, fillcolor="#f4e6aa"] ;
289 -> 290 ;
291 [label=<X<SUB>0</SUB> &le; 20.0<br/>gini = 0.602<br/>samples = 16<br/>value = [4, 9, 2, 0, 0, 0, 1, 0, 0, 0, 0, 0, 0, 0<br/>0]>, fillcolor="#f4e7ac"] ;
289 -> 291 ;
292 [label=<gini = 0.597<br/>samples = 12<br/>value = [2, 7, 2, 0, 0, 0, 1, 0, 0, 0, 0, 0, 0, 0<br/>0]>, fillcolor="#f2e29c"] ;
291 -> 292 ;
293 [label=<gini = 0.5<br/>samples = 4<br/>value = [2, 2, 0, 0, 0, 0, 0, 0, 0, 0, 0, 0, 0, 0<br/>0]>, fillcolor="#ffffff"] ;
291 -> 293 ;
294 [label=<gini = 0.231<br/>samples = 15<br/>value = [0, 13, 2, 0, 0, 0, 0, 0, 0, 0, 0, 0, 0, 0<br/>0]>, fillcolor="#e9ce57"] ;
288 -> 294 ;
295 [label=<gini = 0.62<br/>samples = 10<br/>value = [2, 0, 5, 0, 3, 0, 0, 0, 0, 0, 0, 0, 0, 0<br/>0]>, fillcolor="#edf8c6"] ;
287 -> 295 ;
296 [label=<X<SUB>1</SUB> &le; 18.5<br/>gini = 0.642<br/>samples = 194<br/>value = [45, 105, 17, 8, 7, 4, 2, 1, 2, 0, 1, 1, 0, 0<br/>1]>, fillcolor="#f5e8af"] ;
202 -> 296 ;
297 [label=<X<SUB>0</SUB> &le; 46.5<br/>gini = 0.611<br/>samples = 145<br/>value = [23, 86, 12, 6, 7, 4, 2, 0, 2, 0, 1, 1, 0, 0<br/>1]>, fillcolor="#f2e199"] ;
296 -> 297 ;
298 [label=<X<SUB>1</SUB> &le; 16.5<br/>gini = 0.584<br/>samples = 128<br/>value = [23, 78, 12, 6, 3, 2, 0, 0, 1, 0, 1, 1, 0, 0<br/>1]>, fillcolor="#f1e197"] ;
297 -> 298 ;
299 [label=<X<SUB>0</SUB> &le; 29.5<br/>gini = 0.654<br/>samples = 43<br/>value = [12, 21, 7, 2, 1, 0, 0, 0, 0, 0, 0, 0, 0, 0<br/>0]>, fillcolor="#f7eec6"] ;
298 -> 299 ;
300 [label=<X<SUB>0</SUB> &le; 23.5<br/>gini = 0.656<br/>samples = 35<br/>value = [12, 16, 4, 2, 1, 0, 0, 0, 0, 0, 0, 0, 0, 0<br/>0]>, fillcolor="#faf5dd"] ;
299 -> 300 ;
301 [label=<gini = 0.625<br/>samples = 4<br/>value = [1, 1, 0, 2, 0, 0, 0, 0, 0, 0, 0, 0, 0, 0<br/>0]>, fillcolor="#d3f6bd"] ;
300 -> 301 ;
302 [label=<gini = 0.622<br/>samples = 31<br/>value = [11, 15, 4, 0, 1, 0, 0, 0, 0, 0, 0, 0, 0, 0<br/>0]>, fillcolor="#faf3d7"] ;
300 -> 302 ;
303 [label=<gini = 0.469<br/>samples = 8<br/>value = [0, 5, 3, 0, 0, 0, 0, 0, 0, 0, 0, 0, 0, 0<br/>0]>, fillcolor="#f5e8b0"] ;
299 -> 303 ;
304 [label=<X<SUB>0</SUB> &le; 35.5<br/>gini = 0.526<br/>samples = 85<br/>value = [11, 57, 5, 4, 2, 2, 0, 0, 1, 0, 1, 1, 0, 0<br/>1]>, fillcolor="#efdb84"] ;
298 -> 304 ;
305 [label=<X<SUB>0</SUB> &le; 19.5<br/>gini = 0.49<br/>samples = 77<br/>value = [8, 54, 5, 3, 1, 2, 0, 0, 1, 0, 1, 1, 0, 0<br/>1]>, fillcolor="#eed87b"] ;
304 -> 305 ;
306 [label=<X<SUB>0</SUB> &le; 10.5<br/>gini = 0.532<br/>samples = 47<br/>value = [7, 31, 3, 3, 0, 2, 0, 0, 0, 0, 0, 1, 0, 0<br/>0]>, fillcolor="#efdc88"] ;
305 -> 306 ;
307 [label=<gini = 0.367<br/>samples = 14<br/>value = [1, 11, 1, 0, 0, 1, 0, 0, 0, 0, 0, 0, 0, 0<br/>0]>, fillcolor="#ebd267"] ;
306 -> 307 ;
308 [label=<X<SUB>0</SUB> &le; 17.5<br/>gini = 0.586<br/>samples = 33<br/>value = [6, 20, 2, 3, 0, 1, 0, 0, 0, 0, 0, 1, 0, 0<br/>0]>, fillcolor="#f2e198"] ;
306 -> 308 ;
309 [label=<gini = 0.688<br/>samples = 16<br/>value = [3, 8, 2, 1, 0, 1, 0, 0, 0, 0, 0, 1, 0, 0<br/>0]>, fillcolor="#f5e9b3"] ;
308 -> 309 ;
310 [label=<gini = 0.457<br/>samples = 17<br/>value = [3, 12, 0, 2, 0, 0, 0, 0, 0, 0, 0, 0, 0, 0<br/>0]>, fillcolor="#eeda80"] ;
308 -> 310 ;
311 [label=<X<SUB>1</SUB> &le; 17.5<br/>gini = 0.402<br/>samples = 30<br/>value = [1, 23, 2, 0, 1, 0, 0, 0, 1, 0, 1, 0, 0, 0<br/>1]>, fillcolor="#ecd46a"] ;
305 -> 311 ;
312 [label=<X<SUB>0</SUB> &le; 23.5<br/>gini = 0.463<br/>samples = 18<br/>value = [1, 13, 0, 0, 1, 0, 0, 0, 1, 0, 1, 0, 0, 0<br/>1]>, fillcolor="#edd673"] ;
311 -> 312 ;
313 [label=<gini = 0.34<br/>samples = 10<br/>value = [0, 8, 0, 0, 1, 0, 0, 0, 1, 0, 0, 0, 0, 0<br/>0]>, fillcolor="#ebd265"] ;
312 -> 313 ;
314 [label=<gini = 0.562<br/>samples = 8<br/>value = [1, 5, 0, 0, 0, 0, 0, 0, 0, 0, 1, 0, 0, 0<br/>1]>, fillcolor="#f0de8e"] ;
312 -> 314 ;
315 [label=<gini = 0.278<br/>samples = 12<br/>value = [0, 10, 2, 0, 0, 0, 0, 0, 0, 0, 0, 0, 0, 0<br/>0]>, fillcolor="#ead161"] ;
311 -> 315 ;
316 [label=<gini = 0.688<br/>samples = 8<br/>value = [3, 3, 0, 1, 1, 0, 0, 0, 0, 0, 0, 0, 0, 0<br/>0]>, fillcolor="#ffffff"] ;
304 -> 316 ;
317 [label=<X<SUB>1</SUB> &le; 16.0<br/>gini = 0.692<br/>samples = 17<br/>value = [0, 8, 0, 0, 4, 2, 2, 0, 1, 0, 0, 0, 0, 0<br/>0]>, fillcolor="#f7edc2"] ;
297 -> 317 ;
318 [label=<gini = 0.519<br/>samples = 9<br/>value = [0, 6, 0, 0, 1, 1, 0, 0, 1, 0, 0, 0, 0, 0<br/>0]>, fillcolor="#efdb83"] ;
317 -> 318 ;
319 [label=<gini = 0.719<br/>samples = 8<br/>value = [0, 2, 0, 0, 3, 1, 2, 0, 0, 0, 0, 0, 0, 0<br/>0]>, fillcolor="#defbde"] ;
317 -> 319 ;
320 [label=<X<SUB>0</SUB> &le; 23.0<br/>gini = 0.636<br/>samples = 49<br/>value = [22, 19, 5, 2, 0, 0, 0, 1, 0, 0, 0, 0, 0, 0<br/>0]>, fillcolor="#fcf2eb"] ;
296 -> 320 ;
321 [label=<X<SUB>0</SUB> &le; 17.0<br/>gini = 0.656<br/>samples = 39<br/>value = [13, 18, 5, 2, 0, 0, 0, 1, 0, 0, 0, 0, 0, 0<br/>0]>, fillcolor="#faf4d9"] ;
320 -> 321 ;
322 [label=<X<SUB>1</SUB> &le; 19.5<br/>gini = 0.657<br/>samples = 26<br/>value = [10, 11, 3, 1, 0, 0, 0, 1, 0, 0, 0, 0, 0, 0<br/>0]>, fillcolor="#fdfbf3"] ;
321 -> 322 ;
323 [label=<gini = 0.561<br/>samples = 14<br/>value = [7, 6, 1, 0, 0, 0, 0, 0, 0, 0, 0, 0, 0, 0<br/>0]>, fillcolor="#fcefe6"] ;
322 -> 323 ;
324 [label=<gini = 0.722<br/>samples = 12<br/>value = [3, 5, 2, 1, 0, 0, 0, 1, 0, 0, 0, 0, 0, 0<br/>0]>, fillcolor="#f9f2d3"] ;
322 -> 324 ;
325 [label=<gini = 0.627<br/>samples = 13<br/>value = [3, 7, 2, 1, 0, 0, 0, 0, 0, 0, 0, 0, 0, 0<br/>0]>, fillcolor="#f5e8b0"] ;
321 -> 325 ;
326 [label=<gini = 0.18<br/>samples = 10<br/>value = [9, 1, 0, 0, 0, 0, 0, 0, 0, 0, 0, 0, 0, 0<br/>0]>, fillcolor="#e88f4f"] ;
320 -> 326 ;
}