digraph Tree {
node [shape=box, style="filled, rounded", color="black", fontname=helvetica] ;
edge [fontname=helvetica] ;
0 [label=<X<SUB>5</SUB> &le; 847.5<br/>entropy = 5.116<br/>samples = 8000<br/>value = [90, 449, 154, 197, 440, 714, 221, 440, 635, 417<br/>84, 171, 54, 30, 237, 91, 408, 316, 437, 73, 36<br/>16, 210, 284, 62, 126, 16, 42, 48, 107, 74, 47<br/>28, 118, 23, 88, 57, 212, 43, 80, 57, 12, 24, 29<br/>75, 10, 16, 35, 19, 29, 10, 11, 9, 28, 5, 6<br/>21, 38, 1, 12, 27, 8, 23, 31, 33, 2, 10, 13<br/>11, 8, 9, 1, 2]>, fillcolor="#fffefd"] ;
1 [label=<X<SUB>5</SUB> &le; 634.0<br/>entropy = 4.214<br/>samples = 3847<br/>value = [90, 449, 154, 197, 440, 0, 0, 440, 0, 417, 84, 0<br/>0, 30, 0, 0, 0, 316, 0, 73, 0, 16, 210, 0, 62<br/>0, 16, 0, 0, 0, 74, 47, 0, 118, 0, 0, 57, 212<br/>43, 80, 0, 0, 0, 29, 0, 10, 0, 35, 19, 29, 0<br/>11, 0, 28, 5, 0, 0, 0, 0, 12, 0, 8, 23, 0, 0<br/>0, 10, 0, 0, 0, 0, 1, 2]>, fillcolor="#fffffe"] ;
0 -> 1 [labeldistance=2.5, labelangle=45, headlabel="True"] ;
2 [label=<X<SUB>5</SUB> &le; 524.0<br/>entropy = 3.434<br/>samples = 2015<br/>value = [0, 449, 154, 0, 0, 0, 0, 0, 0, 417, 84, 0, 0<br/>30, 0, 0, 0, 316, 0, 0, 0, 16, 0, 0, 62, 0<br/>0, 0, 0, 0, 74, 0, 0, 118, 0, 0, 0, 0, 43<br/>80, 0, 0, 0, 29, 0, 10, 0, 0, 19, 29, 0, 11<br/>0, 28, 0, 0, 0, 0, 0, 12, 0, 8, 23, 0, 0, 0<br/>0, 0, 0, 0, 0, 1, 2]>, fillcolor="#fefdfb"] ;
1 -> 2 ;
3 [label=<X<SUB>5</SUB> &le; 143.0<br/>entropy = 2.879<br/>samples = 823<br/>value = [0, 0, 0, 0, 0, 0, 0, 0, 0, 0, 84, 0, 0, 0<br/>0, 0, 0, 316, 0, 0, 0, 0, 0, 0, 62, 0, 0, 0<br/>0, 0, 0, 0, 0, 118, 0, 0, 0, 0, 43, 80, 0, 0<br/>0, 29, 0, 10, 0, 0, 19, 0, 0, 0, 0, 28, 0, 0<br/>0, 0, 0, 0, 0, 8, 23, 0, 0, 0, 0, 0, 0, 0<br/>0, 1, 2]>, fillcolor="#d1f8c7"] ;
2 -> 3 ;
4 [label=<X<SUB>5</SUB> &le; 119.5<br/>entropy = 1.645<br/>samples = 544<br/>value = [0, 0, 0, 0, 0, 0, 0, 0, 0, 0, 0, 0, 0, 0<br/>0, 0, 0, 316, 0, 0, 0, 0, 0, 0, 0, 0, 0, 0<br/>0, 0, 0, 0, 0, 118, 0, 0, 0, 0, 0, 80, 0, 0<br/>0, 0, 0, 0, 0, 0, 19, 0, 0, 0, 0, 0, 0, 0<br/>0, 0, 0, 0, 0, 8, 0, 0, 0, 0, 0, 0, 0, 0<br/>0, 1, 2]>, fillcolor="#b3f3a3"] ;
3 -> 4 ;
5 [label=<X<SUB>5</SUB> &le; 10.5<br/>entropy = 1.585<br/>samples = 228<br/>value = [0, 0, 0, 0, 0, 0, 0, 0, 0, 0, 0, 0, 0, 0<br/>0, 0, 0, 0, 0, 0, 0, 0, 0, 0, 0, 0, 0, 0<br/>0, 0, 0, 0, 0, 118, 0, 0, 0, 0, 0, 80, 0, 0<br/>0, 0, 0, 0, 0, 0, 19, 0, 0, 0, 0, 0, 0, 0<br/>0, 0, 0, 0, 0, 8, 0, 0, 0, 0, 0, 0, 0, 0<br/>0, 1, 2]>, fillcolor="#ccf3f8"] ;
4 -> 5 ;
6 [label=<entropy = 0.0<br/>samples = 118<br/>value = [0, 0, 0, 0, 0, 0, 0, 0, 0, 0, 0, 0, 0, 0<br/>0, 0, 0, 0, 0, 0, 0, 0, 0, 0, 0, 0, 0, 0<br/>0, 0, 0, 0, 0, 118, 0, 0, 0, 0, 0, 0, 0, 0<br/>0, 0, 0, 0, 0, 0, 0, 0, 0, 0, 0, 0, 0, 0<br/>0, 0, 0, 0, 0, 0, 0, 0, 0, 0, 0, 0, 0, 0<br/>0, 0, 0]>, fillcolor="#39d1e5"] ;
5 -> 6 ;
7 [label=<X<SUB>0</SUB> &le; 32.0<br/>entropy = 1.213<br/>samples = 110<br/>value = [0, 0, 0, 0, 0, 0, 0, 0, 0, 0, 0, 0, 0, 0<br/>0, 0, 0, 0, 0, 0, 0, 0, 0, 0, 0, 0, 0, 0<br/>0, 0, 0, 0, 0, 0, 0, 0, 0, 0, 0, 80, 0, 0<br/>0, 0, 0, 0, 0, 0, 19, 0, 0, 0, 0, 0, 0, 0<br/>0, 0, 0, 0, 0, 8, 0, 0, 0, 0, 0, 0, 0, 0<br/>0, 1, 2]>, fillcolor="#7aa7ee"] ;
5 -> 7 ;
8 [label=<X<SUB>3</SUB> &le; 28.5<br/>entropy = 1.35<br/>samples = 30<br/>value = [0, 0, 0, 0, 0, 0, 0, 0, 0, 0, 0, 0, 0, 0<br/>0, 0, 0, 0, 0, 0, 0, 0, 0, 0, 0, 0, 0, 0<br/>0, 0, 0, 0, 0, 0, 0, 0, 0, 0, 0, 0, 0, 0<br/>0, 0, 0, 0, 0, 0, 19, 0, 0, 0, 0, 0, 0, 0<br/>0, 0, 0, 0, 0, 8, 0, 0, 0, 0, 0, 0, 0, 0<br/>0, 1, 2]>, fillcolor="#ba9cf2"] ;
7 -> 8 ;
9 [label=<X<SUB>7</SUB> &le; 2132.0<br/>entropy = 1.096<br/>samples = 11<br/>value = [0, 0, 0, 0, 0, 0, 0, 0, 0, 0, 0, 0, 0, 0<br/>0, 0, 0, 0, 0, 0, 0, 0, 0, 0, 0, 0, 0, 0<br/>0, 0, 0, 0, 0, 0, 0, 0, 0, 0, 0, 0, 0, 0<br/>0, 0, 0, 0, 0, 0, 0, 0, 0, 0, 0, 0, 0, 0<br/>0, 0, 0, 0, 0, 8, 0, 0, 0, 0, 0, 0, 0, 0<br/>0, 1, 2]>, fillcolor="#ee7bbe"] ;
8 -> 9 ;
10 [label=<entropy = 0.0<br/>samples = 8<br/>value = [0, 0, 0, 0, 0, 0, 0, 0, 0, 0, 0, 0, 0, 0<br/>0, 0, 0, 0, 0, 0, 0, 0, 0, 0, 0, 0, 0, 0<br/>0, 0, 0, 0, 0, 0, 0, 0, 0, 0, 0, 0, 0, 0<br/>0, 0, 0, 0, 0, 0, 0, 0, 0, 0, 0, 0, 0, 0<br/>0, 0, 0, 0, 0, 8, 0, 0, 0, 0, 0, 0, 0, 0<br/>0, 0, 0]>, fillcolor="#e5399d"] ;
9 -> 10 ;
11 [label=<entropy = 0.918<br/>samples = 3<br/>value = [0, 0, 0, 0, 0, 0, 0, 0, 0, 0, 0, 0, 0, 0<br/>0, 0, 0, 0, 0, 0, 0, 0, 0, 0, 0, 0, 0, 0<br/>0, 0, 0, 0, 0, 0, 0, 0, 0, 0, 0, 0, 0, 0<br/>0, 0, 0, 0, 0, 0, 0, 0, 0, 0, 0, 0, 0, 0<br/>0, 0, 0, 0, 0, 0, 0, 0, 0, 0, 0, 0, 0, 0<br/>0, 1, 2]>, fillcolor="#f2b89c"] ;
9 -> 11 ;
12 [label=<entropy = 0.0<br/>samples = 19<br/>value = [0, 0, 0, 0, 0, 0, 0, 0, 0, 0, 0, 0, 0, 0<br/>0, 0, 0, 0, 0, 0, 0, 0, 0, 0, 0, 0, 0, 0<br/>0, 0, 0, 0, 0, 0, 0, 0, 0, 0, 0, 0, 0, 0<br/>0, 0, 0, 0, 0, 0, 19, 0, 0, 0, 0, 0, 0, 0<br/>0, 0, 0, 0, 0, 0, 0, 0, 0, 0, 0, 0, 0, 0<br/>0, 0, 0]>, fillcolor="#7539e5"] ;
8 -> 12 ;
13 [label=<entropy = 0.0<br/>samples = 80<br/>value = [0, 0, 0, 0, 0, 0, 0, 0, 0, 0, 0, 0, 0, 0<br/>0, 0, 0, 0, 0, 0, 0, 0, 0, 0, 0, 0, 0, 0<br/>0, 0, 0, 0, 0, 0, 0, 0, 0, 0, 0, 80, 0, 0<br/>0, 0, 0, 0, 0, 0, 0, 0, 0, 0, 0, 0, 0, 0<br/>0, 0, 0, 0, 0, 0, 0, 0, 0, 0, 0, 0, 0, 0<br/>0, 0, 0]>, fillcolor="#397be5"] ;
7 -> 13 ;
14 [label=<entropy = 0.0<br/>samples = 316<br/>value = [0, 0, 0, 0, 0, 0, 0, 0, 0, 0, 0, 0, 0, 0<br/>0, 0, 0, 316, 0, 0, 0, 0, 0, 0, 0, 0, 0, 0<br/>0, 0, 0, 0, 0, 0, 0, 0, 0, 0, 0, 0, 0, 0<br/>0, 0, 0, 0, 0, 0, 0, 0, 0, 0, 0, 0, 0, 0<br/>0, 0, 0, 0, 0, 0, 0, 0, 0, 0, 0, 0, 0, 0<br/>0, 0, 0]>, fillcolor="#5be539"] ;
4 -> 14 ;
15 [label=<X<SUB>5</SUB> &le; 196.0<br/>entropy = 2.561<br/>samples = 279<br/>value = [0, 0, 0, 0, 0, 0, 0, 0, 0, 0, 84, 0, 0, 0<br/>0, 0, 0, 0, 0, 0, 0, 0, 0, 0, 62, 0, 0, 0<br/>0, 0, 0, 0, 0, 0, 0, 0, 0, 0, 43, 0, 0, 0<br/>0, 29, 0, 10, 0, 0, 0, 0, 0, 0, 0, 28, 0, 0<br/>0, 0, 0, 0, 0, 0, 23, 0, 0, 0, 0, 0, 0, 0<br/>0, 0, 0]>, fillcolor="#f8fceb"] ;
3 -> 15 ;
16 [label=<X<SUB>5</SUB> &le; 170.5<br/>entropy = 1.438<br/>samples = 155<br/>value = [0, 0, 0, 0, 0, 0, 0, 0, 0, 0, 84, 0, 0, 0<br/>0, 0, 0, 0, 0, 0, 0, 0, 0, 0, 0, 0, 0, 0<br/>0, 0, 0, 0, 0, 0, 0, 0, 0, 0, 43, 0, 0, 0<br/>0, 0, 0, 0, 0, 0, 0, 0, 0, 0, 0, 28, 0, 0<br/>0, 0, 0, 0, 0, 0, 0, 0, 0, 0, 0, 0, 0, 0<br/>0, 0, 0]>, fillcolor="#e7f5b7"] ;
15 -> 16 ;
17 [label=<entropy = 0.0<br/>samples = 84<br/>value = [0, 0, 0, 0, 0, 0, 0, 0, 0, 0, 84, 0, 0, 0<br/>0, 0, 0, 0, 0, 0, 0, 0, 0, 0, 0, 0, 0, 0<br/>0, 0, 0, 0, 0, 0, 0, 0, 0, 0, 0, 0, 0, 0<br/>0, 0, 0, 0, 0, 0, 0, 0, 0, 0, 0, 0, 0, 0<br/>0, 0, 0, 0, 0, 0, 0, 0, 0, 0, 0, 0, 0, 0<br/>0, 0, 0]>, fillcolor="#bde539"] ;
16 -> 17 ;
18 [label=<X<SUB>4</SUB> &le; 16.0<br/>entropy = 0.968<br/>samples = 71<br/>value = [0, 0, 0, 0, 0, 0, 0, 0, 0, 0, 0, 0, 0, 0<br/>0, 0, 0, 0, 0, 0, 0, 0, 0, 0, 0, 0, 0, 0<br/>0, 0, 0, 0, 0, 0, 0, 0, 0, 0, 43, 0, 0, 0<br/>0, 0, 0, 0, 0, 0, 0, 0, 0, 0, 0, 28, 0, 0<br/>0, 0, 0, 0, 0, 0, 0, 0, 0, 0, 0, 0, 0, 0<br/>0, 0, 0]>, fillcolor="#bad6f6"] ;
16 -> 18 ;
19 [label=<entropy = 0.0<br/>samples = 43<br/>value = [0, 0, 0, 0, 0, 0, 0, 0, 0, 0, 0, 0, 0, 0<br/>0, 0, 0, 0, 0, 0, 0, 0, 0, 0, 0, 0, 0, 0<br/>0, 0, 0, 0, 0, 0, 0, 0, 0, 0, 43, 0, 0, 0<br/>0, 0, 0, 0, 0, 0, 0, 0, 0, 0, 0, 0, 0, 0<br/>0, 0, 0, 0, 0, 0, 0, 0, 0, 0, 0, 0, 0, 0<br/>0, 0, 0]>, fillcolor="#3989e5"] ;
18 -> 19 ;
20 [label=<entropy = 0.0<br/>samples = 28<br/>value = [0, 0, 0, 0, 0, 0, 0, 0, 0, 0, 0, 0, 0, 0<br/>0, 0, 0, 0, 0, 0, 0, 0, 0, 0, 0, 0, 0, 0<br/>0, 0, 0, 0, 0, 0, 0, 0, 0, 0, 0, 0, 0, 0<br/>0, 0, 0, 0, 0, 0, 0, 0, 0, 0, 0, 28, 0, 0<br/>0, 0, 0, 0, 0, 0, 0, 0, 0, 0, 0, 0, 0, 0<br/>0, 0, 0]>, fillcolor="#bd39e5"] ;
18 -> 20 ;
21 [label=<X<SUB>5</SUB> &le; 515.5<br/>entropy = 1.734<br/>samples = 124<br/>value = [0, 0, 0, 0, 0, 0, 0, 0, 0, 0, 0, 0, 0, 0<br/>0, 0, 0, 0, 0, 0, 0, 0, 0, 0, 62, 0, 0, 0<br/>0, 0, 0, 0, 0, 0, 0, 0, 0, 0, 0, 0, 0, 0<br/>0, 29, 0, 10, 0, 0, 0, 0, 0, 0, 0, 0, 0, 0<br/>0, 0, 0, 0, 0, 0, 23, 0, 0, 0, 0, 0, 0, 0<br/>0, 0, 0]>, fillcolor="#baf6d1"] ;
15 -> 21 ;
22 [label=<X<SUB>4</SUB> &le; 12.0<br/>entropy = 1.468<br/>samples = 62<br/>value = [0, 0, 0, 0, 0, 0, 0, 0, 0, 0, 0, 0, 0, 0<br/>0, 0, 0, 0, 0, 0, 0, 0, 0, 0, 0, 0, 0, 0<br/>0, 0, 0, 0, 0, 0, 0, 0, 0, 0, 0, 0, 0, 0<br/>0, 29, 0, 10, 0, 0, 0, 0, 0, 0, 0, 0, 0, 0<br/>0, 0, 0, 0, 0, 0, 23, 0, 0, 0, 0, 0, 0, 0<br/>0, 0, 0]>, fillcolor="#e1e2fb"] ;
21 -> 22 ;
23 [label=<X<SUB>8</SUB> &le; 4.5<br/>entropy = 0.885<br/>samples = 33<br/>value = [0, 0, 0, 0, 0, 0, 0, 0, 0, 0, 0, 0, 0, 0<br/>0, 0, 0, 0, 0, 0, 0, 0, 0, 0, 0, 0, 0, 0<br/>0, 0, 0, 0, 0, 0, 0, 0, 0, 0, 0, 0, 0, 0<br/>0, 0, 0, 10, 0, 0, 0, 0, 0, 0, 0, 0, 0, 0<br/>0, 0, 0, 0, 0, 0, 23, 0, 0, 0, 0, 0, 0, 0<br/>0, 0, 0]>, fillcolor="#f08fc0"] ;
22 -> 23 ;
24 [label=<entropy = 0.0<br/>samples = 23<br/>value = [0, 0, 0, 0, 0, 0, 0, 0, 0, 0, 0, 0, 0, 0<br/>0, 0, 0, 0, 0, 0, 0, 0, 0, 0, 0, 0, 0, 0<br/>0, 0, 0, 0, 0, 0, 0, 0, 0, 0, 0, 0, 0, 0<br/>0, 0, 0, 0, 0, 0, 0, 0, 0, 0, 0, 0, 0, 0<br/>0, 0, 0, 0, 0, 0, 23, 0, 0, 0, 0, 0, 0, 0<br/>0, 0, 0]>, fillcolor="#e5398f"] ;
23 -> 24 ;
25 [label=<entropy = 0.0<br/>samples = 10<br/>value = [0, 0, 0, 0, 0, 0, 0, 0, 0, 0, 0, 0, 0, 0<br/>0, 0, 0, 0, 0, 0, 0, 0, 0, 0, 0, 0, 0, 0<br/>0, 0, 0, 0, 0, 0, 0, 0, 0, 0, 0, 0, 0, 0<br/>0, 0, 0, 10, 0, 0, 0, 0, 0, 0, 0, 0, 0, 0<br/>0, 0, 0, 0, 0, 0, 0, 0, 0, 0, 0, 0, 0, 0<br/>0, 0, 0]>, fillcolor="#4a39e5"] ;
23 -> 25 ;
26 [label=<entropy = 0.0<br/>samples = 29<br/>value = [0, 0, 0, 0, 0, 0, 0, 0, 0, 0, 0, 0, 0, 0<br/>0, 0, 0, 0, 0, 0, 0, 0, 0, 0, 0, 0, 0, 0<br/>0, 0, 0, 0, 0, 0, 0, 0, 0, 0, 0, 0, 0, 0<br/>0, 29, 0, 0, 0, 0, 0, 0, 0, 0, 0, 0, 0, 0<br/>0, 0, 0, 0, 0, 0, 0, 0, 0, 0, 0, 0, 0, 0<br/>0, 0, 0]>, fillcolor="#3941e5"] ;
22 -> 26 ;
27 [label=<entropy = 0.0<br/>samples = 62<br/>value = [0, 0, 0, 0, 0, 0, 0, 0, 0, 0, 0, 0, 0, 0<br/>0, 0, 0, 0, 0, 0, 0, 0, 0, 0, 62, 0, 0, 0<br/>0, 0, 0, 0, 0, 0, 0, 0, 0, 0, 0, 0, 0, 0<br/>0, 0, 0, 0, 0, 0, 0, 0, 0, 0, 0, 0, 0, 0<br/>0, 0, 0, 0, 0, 0, 0, 0, 0, 0, 0, 0, 0, 0<br/>0, 0, 0]>, fillcolor="#39e57b"] ;
21 -> 27 ;
28 [label=<X<SUB>5</SUB> &le; 554.5<br/>entropy = 2.168<br/>samples = 1192<br/>value = [0, 449, 154, 0, 0, 0, 0, 0, 0, 417, 0, 0, 0<br/>30, 0, 0, 0, 0, 0, 0, 0, 16, 0, 0, 0, 0, 0<br/>0, 0, 0, 74, 0, 0, 0, 0, 0, 0, 0, 0, 0, 0<br/>0, 0, 0, 0, 0, 0, 0, 0, 29, 0, 11, 0, 0, 0<br/>0, 0, 0, 0, 12, 0, 0, 0, 0, 0, 0, 0, 0, 0<br/>0, 0, 0, 0]>, fillcolor="#fefaf7"] ;
2 -> 28 ;
29 [label=<X<SUB>5</SUB> &le; 537.5<br/>entropy = 0.82<br/>samples = 603<br/>value = [0, 449, 154, 0, 0, 0, 0, 0, 0, 0, 0, 0, 0, 0<br/>0, 0, 0, 0, 0, 0, 0, 0, 0, 0, 0, 0, 0, 0<br/>0, 0, 0, 0, 0, 0, 0, 0, 0, 0, 0, 0, 0, 0<br/>0, 0, 0, 0, 0, 0, 0, 0, 0, 0, 0, 0, 0, 0<br/>0, 0, 0, 0, 0, 0, 0, 0, 0, 0, 0, 0, 0, 0<br/>0, 0, 0]>, fillcolor="#eeb37d"] ;
28 -> 29 ;
30 [label=<entropy = 0.0<br/>samples = 449<br/>value = [0, 449, 0, 0, 0, 0, 0, 0, 0, 0, 0, 0, 0, 0<br/>0, 0, 0, 0, 0, 0, 0, 0, 0, 0, 0, 0, 0, 0<br/>0, 0, 0, 0, 0, 0, 0, 0, 0, 0, 0, 0, 0, 0<br/>0, 0, 0, 0, 0, 0, 0, 0, 0, 0, 0, 0, 0, 0<br/>0, 0, 0, 0, 0, 0, 0, 0, 0, 0, 0, 0, 0, 0<br/>0, 0, 0]>, fillcolor="#e58c39"] ;
29 -> 30 ;
31 [label=<entropy = 0.0<br/>samples = 154<br/>value = [0, 0, 154, 0, 0, 0, 0, 0, 0, 0, 0, 0, 0, 0<br/>0, 0, 0, 0, 0, 0, 0, 0, 0, 0, 0, 0, 0, 0<br/>0, 0, 0, 0, 0, 0, 0, 0, 0, 0, 0, 0, 0, 0<br/>0, 0, 0, 0, 0, 0, 0, 0, 0, 0, 0, 0, 0, 0<br/>0, 0, 0, 0, 0, 0, 0, 0, 0, 0, 0, 0, 0, 0<br/>0, 0, 0]>, fillcolor="#e59a39"] ;
29 -> 31 ;
32 [label=<X<SUB>5</SUB> &le; 622.0<br/>entropy = 1.524<br/>samples = 589<br/>value = [0, 0, 0, 0, 0, 0, 0, 0, 0, 417, 0, 0, 0, 30<br/>0, 0, 0, 0, 0, 0, 0, 16, 0, 0, 0, 0, 0, 0<br/>0, 0, 74, 0, 0, 0, 0, 0, 0, 0, 0, 0, 0, 0<br/>0, 0, 0, 0, 0, 0, 0, 29, 0, 11, 0, 0, 0, 0<br/>0, 0, 0, 12, 0, 0, 0, 0, 0, 0, 0, 0, 0, 0<br/>0, 0, 0]>, fillcolor="#dcee7b"] ;
28 -> 32 ;
33 [label=<X<SUB>4</SUB> &le; 6.5<br/>entropy = 2.236<br/>samples = 172<br/>value = [0, 0, 0, 0, 0, 0, 0, 0, 0, 0, 0, 0, 0, 30<br/>0, 0, 0, 0, 0, 0, 0, 16, 0, 0, 0, 0, 0, 0<br/>0, 0, 74, 0, 0, 0, 0, 0, 0, 0, 0, 0, 0, 0<br/>0, 0, 0, 0, 0, 0, 0, 29, 0, 11, 0, 0, 0, 0<br/>0, 0, 0, 12, 0, 0, 0, 0, 0, 0, 0, 0, 0, 0<br/>0, 0, 0]>, fillcolor="#c2f7f0"] ;
32 -> 33 ;
34 [label=<X<SUB>5</SUB> &le; 594.0<br/>entropy = 0.556<br/>samples = 85<br/>value = [0, 0, 0, 0, 0, 0, 0, 0, 0, 0, 0, 0, 0, 0<br/>0, 0, 0, 0, 0, 0, 0, 0, 0, 0, 0, 0, 0, 0<br/>0, 0, 74, 0, 0, 0, 0, 0, 0, 0, 0, 0, 0, 0<br/>0, 0, 0, 0, 0, 0, 0, 0, 0, 11, 0, 0, 0, 0<br/>0, 0, 0, 0, 0, 0, 0, 0, 0, 0, 0, 0, 0, 0<br/>0, 0, 0]>, fillcolor="#56e9d5"] ;
33 -> 34 ;
35 [label=<entropy = 0.0<br/>samples = 11<br/>value = [0, 0, 0, 0, 0, 0, 0, 0, 0, 0, 0, 0, 0, 0<br/>0, 0, 0, 0, 0, 0, 0, 0, 0, 0, 0, 0, 0, 0<br/>0, 0, 0, 0, 0, 0, 0, 0, 0, 0, 0, 0, 0, 0<br/>0, 0, 0, 0, 0, 0, 0, 0, 0, 11, 0, 0, 0, 0<br/>0, 0, 0, 0, 0, 0, 0, 0, 0, 0, 0, 0, 0, 0<br/>0, 0, 0]>, fillcolor="#a039e5"] ;
34 -> 35 ;
36 [label=<entropy = 0.0<br/>samples = 74<br/>value = [0, 0, 0, 0, 0, 0, 0, 0, 0, 0, 0, 0, 0, 0<br/>0, 0, 0, 0, 0, 0, 0, 0, 0, 0, 0, 0, 0, 0<br/>0, 0, 74, 0, 0, 0, 0, 0, 0, 0, 0, 0, 0, 0<br/>0, 0, 0, 0, 0, 0, 0, 0, 0, 0, 0, 0, 0, 0<br/>0, 0, 0, 0, 0, 0, 0, 0, 0, 0, 0, 0, 0, 0<br/>0, 0, 0]>, fillcolor="#39e5ce"] ;
34 -> 36 ;
37 [label=<X<SUB>0</SUB> &le; 13.5<br/>entropy = 1.901<br/>samples = 87<br/>value = [0, 0, 0, 0, 0, 0, 0, 0, 0, 0, 0, 0, 0, 30<br/>0, 0, 0, 0, 0, 0, 0, 16, 0, 0, 0, 0, 0, 0<br/>0, 0, 0, 0, 0, 0, 0, 0, 0, 0, 0, 0, 0, 0<br/>0, 0, 0, 0, 0, 0, 0, 29, 0, 0, 0, 0, 0, 0<br/>0, 0, 0, 12, 0, 0, 0, 0, 0, 0, 0, 0, 0, 0<br/>0, 0, 0]>, fillcolor="#fdfffc"] ;
33 -> 37 ;
38 [label=<X<SUB>3</SUB> &le; 9.0<br/>entropy = 0.939<br/>samples = 45<br/>value = [0, 0, 0, 0, 0, 0, 0, 0, 0, 0, 0, 0, 0, 0<br/>0, 0, 0, 0, 0, 0, 0, 16, 0, 0, 0, 0, 0, 0<br/>0, 0, 0, 0, 0, 0, 0, 0, 0, 0, 0, 0, 0, 0<br/>0, 0, 0, 0, 0, 0, 0, 29, 0, 0, 0, 0, 0, 0<br/>0, 0, 0, 0, 0, 0, 0, 0, 0, 0, 0, 0, 0, 0<br/>0, 0, 0]>, fillcolor="#c7a6f3"] ;
37 -> 38 ;
39 [label=<entropy = 0.0<br/>samples = 29<br/>value = [0, 0, 0, 0, 0, 0, 0, 0, 0, 0, 0, 0, 0, 0<br/>0, 0, 0, 0, 0, 0, 0, 0, 0, 0, 0, 0, 0, 0<br/>0, 0, 0, 0, 0, 0, 0, 0, 0, 0, 0, 0, 0, 0<br/>0, 0, 0, 0, 0, 0, 0, 29, 0, 0, 0, 0, 0, 0<br/>0, 0, 0, 0, 0, 0, 0, 0, 0, 0, 0, 0, 0, 0<br/>0, 0, 0]>, fillcolor="#8339e5"] ;
38 -> 39 ;
40 [label=<entropy = 0.0<br/>samples = 16<br/>value = [0, 0, 0, 0, 0, 0, 0, 0, 0, 0, 0, 0, 0, 0<br/>0, 0, 0, 0, 0, 0, 0, 16, 0, 0, 0, 0, 0, 0<br/>0, 0, 0, 0, 0, 0, 0, 0, 0, 0, 0, 0, 0, 0<br/>0, 0, 0, 0, 0, 0, 0, 0, 0, 0, 0, 0, 0, 0<br/>0, 0, 0, 0, 0, 0, 0, 0, 0, 0, 0, 0, 0, 0<br/>0, 0, 0]>, fillcolor="#39e550"] ;
38 -> 40 ;
41 [label=<X<SUB>0</SUB> &le; 34.0<br/>entropy = 0.863<br/>samples = 42<br/>value = [0, 0, 0, 0, 0, 0, 0, 0, 0, 0, 0, 0, 0, 30<br/>0, 0, 0, 0, 0, 0, 0, 0, 0, 0, 0, 0, 0, 0<br/>0, 0, 0, 0, 0, 0, 0, 0, 0, 0, 0, 0, 0, 0<br/>0, 0, 0, 0, 0, 0, 0, 0, 0, 0, 0, 0, 0, 0<br/>0, 0, 0, 12, 0, 0, 0, 0, 0, 0, 0, 0, 0, 0<br/>0, 0, 0]>, fillcolor="#beef88"] ;
37 -> 41 ;
42 [label=<entropy = 0.0<br/>samples = 30<br/>value = [0, 0, 0, 0, 0, 0, 0, 0, 0, 0, 0, 0, 0, 30<br/>0, 0, 0, 0, 0, 0, 0, 0, 0, 0, 0, 0, 0, 0<br/>0, 0, 0, 0, 0, 0, 0, 0, 0, 0, 0, 0, 0, 0<br/>0, 0, 0, 0, 0, 0, 0, 0, 0, 0, 0, 0, 0, 0<br/>0, 0, 0, 0, 0, 0, 0, 0, 0, 0, 0, 0, 0, 0<br/>0, 0, 0]>, fillcolor="#92e539"] ;
41 -> 42 ;
43 [label=<entropy = 0.0<br/>samples = 12<br/>value = [0, 0, 0, 0, 0, 0, 0, 0, 0, 0, 0, 0, 0, 0<br/>0, 0, 0, 0, 0, 0, 0, 0, 0, 0, 0, 0, 0, 0<br/>0, 0, 0, 0, 0, 0, 0, 0, 0, 0, 0, 0, 0, 0<br/>0, 0, 0, 0, 0, 0, 0, 0, 0, 0, 0, 0, 0, 0<br/>0, 0, 0, 12, 0, 0, 0, 0, 0, 0, 0, 0, 0, 0<br/>0, 0, 0]>, fillcolor="#e539ba"] ;
41 -> 43 ;
44 [label=<entropy = 0.0<br/>samples = 417<br/>value = [0, 0, 0, 0, 0, 0, 0, 0, 0, 417, 0, 0, 0, 0<br/>0, 0, 0, 0, 0, 0, 0, 0, 0, 0, 0, 0, 0, 0<br/>0, 0, 0, 0, 0, 0, 0, 0, 0, 0, 0, 0, 0, 0<br/>0, 0, 0, 0, 0, 0, 0, 0, 0, 0, 0, 0, 0, 0<br/>0, 0, 0, 0, 0, 0, 0, 0, 0, 0, 0, 0, 0, 0<br/>0, 0, 0]>, fillcolor="#cbe539"] ;
32 -> 44 ;
45 [label=<X<SUB>5</SUB> &le; 674.5<br/>entropy = 2.976<br/>samples = 1832<br/>value = [90, 0, 0, 197, 440, 0, 0, 440, 0, 0, 0, 0, 0<br/>0, 0, 0, 0, 0, 0, 73, 0, 0, 210, 0, 0, 0, 16<br/>0, 0, 0, 0, 47, 0, 0, 0, 0, 57, 212, 0, 0, 0<br/>0, 0, 0, 0, 0, 0, 35, 0, 0, 0, 0, 0, 0, 5<br/>0, 0, 0, 0, 0, 0, 0, 0, 0, 0, 0, 10, 0, 0<br/>0, 0, 0, 0]>, fillcolor="#ffffff"] ;
1 -> 45 ;
46 [label=<X<SUB>5</SUB> &le; 651.5<br/>entropy = 1.838<br/>samples = 957<br/>value = [90, 0, 0, 0, 440, 0, 0, 0, 0, 0, 0, 0, 0, 0<br/>0, 0, 0, 0, 0, 0, 0, 0, 210, 0, 0, 0, 0, 0<br/>0, 0, 0, 0, 0, 0, 0, 0, 0, 212, 0, 0, 0, 0<br/>0, 0, 0, 0, 0, 0, 0, 0, 0, 0, 0, 0, 5, 0<br/>0, 0, 0, 0, 0, 0, 0, 0, 0, 0, 0, 0, 0, 0<br/>0, 0, 0]>, fillcolor="#f7e9c2"] ;
45 -> 46 ;
47 [label=<X<SUB>4</SUB> &le; 8.0<br/>entropy = 0.91<br/>samples = 652<br/>value = [0, 0, 0, 0, 440, 0, 0, 0, 0, 0, 0, 0, 0, 0<br/>0, 0, 0, 0, 0, 0, 0, 0, 0, 0, 0, 0, 0, 0<br/>0, 0, 0, 0, 0, 0, 0, 0, 0, 212, 0, 0, 0, 0<br/>0, 0, 0, 0, 0, 0, 0, 0, 0, 0, 0, 0, 0, 0<br/>0, 0, 0, 0, 0, 0, 0, 0, 0, 0, 0, 0, 0, 0<br/>0, 0, 0]>, fillcolor="#f2da98"] ;
46 -> 47 ;
48 [label=<entropy = 0.0<br/>samples = 440<br/>value = [0, 0, 0, 0, 440, 0, 0, 0, 0, 0, 0, 0, 0, 0<br/>0, 0, 0, 0, 0, 0, 0, 0, 0, 0, 0, 0, 0, 0<br/>0, 0, 0, 0, 0, 0, 0, 0, 0, 0, 0, 0, 0, 0<br/>0, 0, 0, 0, 0, 0, 0, 0, 0, 0, 0, 0, 0, 0<br/>0, 0, 0, 0, 0, 0, 0, 0, 0, 0, 0, 0, 0, 0<br/>0, 0, 0]>, fillcolor="#e5b739"] ;
47 -> 48 ;
49 [label=<entropy = 0.0<br/>samples = 212<br/>value = [0, 0, 0, 0, 0, 0, 0, 0, 0, 0, 0, 0, 0, 0<br/>0, 0, 0, 0, 0, 0, 0, 0, 0, 0, 0, 0, 0, 0<br/>0, 0, 0, 0, 0, 0, 0, 0, 0, 212, 0, 0, 0, 0<br/>0, 0, 0, 0, 0, 0, 0, 0, 0, 0, 0, 0, 0, 0<br/>0, 0, 0, 0, 0, 0, 0, 0, 0, 0, 0, 0, 0, 0<br/>0, 0, 0]>, fillcolor="#3998e5"] ;
47 -> 49 ;
50 [label=<X<SUB>5</SUB> &le; 669.5<br/>entropy = 0.988<br/>samples = 305<br/>value = [90, 0, 0, 0, 0, 0, 0, 0, 0, 0, 0, 0, 0, 0<br/>0, 0, 0, 0, 0, 0, 0, 0, 210, 0, 0, 0, 0, 0<br/>0, 0, 0, 0, 0, 0, 0, 0, 0, 0, 0, 0, 0, 0<br/>0, 0, 0, 0, 0, 0, 0, 0, 0, 0, 0, 0, 5, 0<br/>0, 0, 0, 0, 0, 0, 0, 0, 0, 0, 0, 0, 0, 0<br/>0, 0, 0]>, fillcolor="#90f0a5"] ;
46 -> 50 ;
51 [label=<X<SUB>5</SUB> &le; 662.5<br/>entropy = 0.159<br/>samples = 215<br/>value = [0, 0, 0, 0, 0, 0, 0, 0, 0, 0, 0, 0, 0, 0<br/>0, 0, 0, 0, 0, 0, 0, 0, 210, 0, 0, 0, 0, 0<br/>0, 0, 0, 0, 0, 0, 0, 0, 0, 0, 0, 0, 0, 0<br/>0, 0, 0, 0, 0, 0, 0, 0, 0, 0, 0, 0, 5, 0<br/>0, 0, 0, 0, 0, 0, 0, 0, 0, 0, 0, 0, 0, 0<br/>0, 0, 0]>, fillcolor="#3ee662"] ;
50 -> 51 ;
52 [label=<entropy = 0.0<br/>samples = 5<br/>value = [0, 0, 0, 0, 0, 0, 0, 0, 0, 0, 0, 0, 0, 0<br/>0, 0, 0, 0, 0, 0, 0, 0, 0, 0, 0, 0, 0, 0<br/>0, 0, 0, 0, 0, 0, 0, 0, 0, 0, 0, 0, 0, 0<br/>0, 0, 0, 0, 0, 0, 0, 0, 0, 0, 0, 0, 5, 0<br/>0, 0, 0, 0, 0, 0, 0, 0, 0, 0, 0, 0, 0, 0<br/>0, 0, 0]>, fillcolor="#cb39e5"] ;
51 -> 52 ;
53 [label=<entropy = 0.0<br/>samples = 210<br/>value = [0, 0, 0, 0, 0, 0, 0, 0, 0, 0, 0, 0, 0, 0<br/>0, 0, 0, 0, 0, 0, 0, 0, 210, 0, 0, 0, 0, 0<br/>0, 0, 0, 0, 0, 0, 0, 0, 0, 0, 0, 0, 0, 0<br/>0, 0, 0, 0, 0, 0, 0, 0, 0, 0, 0, 0, 0, 0<br/>0, 0, 0, 0, 0, 0, 0, 0, 0, 0, 0, 0, 0, 0<br/>0, 0, 0]>, fillcolor="#39e55e"] ;
51 -> 53 ;
54 [label=<entropy = 0.0<br/>samples = 90<br/>value = [90, 0, 0, 0, 0, 0, 0, 0, 0, 0, 0, 0, 0, 0<br/>0, 0, 0, 0, 0, 0, 0, 0, 0, 0, 0, 0, 0, 0<br/>0, 0, 0, 0, 0, 0, 0, 0, 0, 0, 0, 0, 0, 0<br/>0, 0, 0, 0, 0, 0, 0, 0, 0, 0, 0, 0, 0, 0<br/>0, 0, 0, 0, 0, 0, 0, 0, 0, 0, 0, 0, 0, 0<br/>0, 0, 0]>, fillcolor="#e58139"] ;
50 -> 54 ;
55 [label=<X<SUB>5</SUB> &le; 693.5<br/>entropy = 2.13<br/>samples = 875<br/>value = [0, 0, 0, 197, 0, 0, 0, 440, 0, 0, 0, 0, 0, 0<br/>0, 0, 0, 0, 0, 73, 0, 0, 0, 0, 0, 0, 16, 0<br/>0, 0, 0, 47, 0, 0, 0, 0, 57, 0, 0, 0, 0, 0<br/>0, 0, 0, 0, 0, 35, 0, 0, 0, 0, 0, 0, 0, 0<br/>0, 0, 0, 0, 0, 0, 0, 0, 0, 0, 10, 0, 0, 0<br/>0, 0, 0]>, fillcolor="#f6f5b8"] ;
45 -> 55 ;
56 [label=<X<SUB>5</SUB> &le; 680.0<br/>entropy = 0.38<br/>samples = 475<br/>value = [0, 0, 0, 0, 0, 0, 0, 440, 0, 0, 0, 0, 0, 0<br/>0, 0, 0, 0, 0, 0, 0, 0, 0, 0, 0, 0, 0, 0<br/>0, 0, 0, 0, 0, 0, 0, 0, 0, 0, 0, 0, 0, 0<br/>0, 0, 0, 0, 0, 35, 0, 0, 0, 0, 0, 0, 0, 0<br/>0, 0, 0, 0, 0, 0, 0, 0, 0, 0, 0, 0, 0, 0<br/>0, 0, 0]>, fillcolor="#e7e449"] ;
55 -> 56 ;
57 [label=<entropy = 0.0<br/>samples = 35<br/>value = [0, 0, 0, 0, 0, 0, 0, 0, 0, 0, 0, 0, 0, 0<br/>0, 0, 0, 0, 0, 0, 0, 0, 0, 0, 0, 0, 0, 0<br/>0, 0, 0, 0, 0, 0, 0, 0, 0, 0, 0, 0, 0, 0<br/>0, 0, 0, 0, 0, 35, 0, 0, 0, 0, 0, 0, 0, 0<br/>0, 0, 0, 0, 0, 0, 0, 0, 0, 0, 0, 0, 0, 0<br/>0, 0, 0]>, fillcolor="#6739e5"] ;
56 -> 57 ;
58 [label=<entropy = 0.0<br/>samples = 440<br/>value = [0, 0, 0, 0, 0, 0, 0, 440, 0, 0, 0, 0, 0, 0<br/>0, 0, 0, 0, 0, 0, 0, 0, 0, 0, 0, 0, 0, 0<br/>0, 0, 0, 0, 0, 0, 0, 0, 0, 0, 0, 0, 0, 0<br/>0, 0, 0, 0, 0, 0, 0, 0, 0, 0, 0, 0, 0, 0<br/>0, 0, 0, 0, 0, 0, 0, 0, 0, 0, 0, 0, 0, 0<br/>0, 0, 0]>, fillcolor="#e5e239"] ;
56 -> 58 ;
59 [label=<X<SUB>5</SUB> &le; 833.5<br/>entropy = 2.033<br/>samples = 400<br/>value = [0, 0, 0, 197, 0, 0, 0, 0, 0, 0, 0, 0, 0, 0<br/>0, 0, 0, 0, 0, 73, 0, 0, 0, 0, 0, 0, 16, 0<br/>0, 0, 0, 47, 0, 0, 0, 0, 57, 0, 0, 0, 0, 0<br/>0, 0, 0, 0, 0, 0, 0, 0, 0, 0, 0, 0, 0, 0<br/>0, 0, 0, 0, 0, 0, 0, 0, 0, 0, 10, 0, 0, 0<br/>0, 0, 0]>, fillcolor="#f5deb4"] ;
55 -> 59 ;
60 [label=<X<SUB>5</SUB> &le; 808.0<br/>entropy = 2.037<br/>samples = 203<br/>value = [0, 0, 0, 0, 0, 0, 0, 0, 0, 0, 0, 0, 0, 0<br/>0, 0, 0, 0, 0, 73, 0, 0, 0, 0, 0, 0, 16, 0<br/>0, 0, 0, 47, 0, 0, 0, 0, 57, 0, 0, 0, 0, 0<br/>0, 0, 0, 0, 0, 0, 0, 0, 0, 0, 0, 0, 0, 0<br/>0, 0, 0, 0, 0, 0, 0, 0, 0, 0, 10, 0, 0, 0<br/>0, 0, 0]>, fillcolor="#eafce9"] ;
59 -> 60 ;
61 [label=<X<SUB>4</SUB> &le; 6.5<br/>entropy = 1.335<br/>samples = 114<br/>value = [0, 0, 0, 0, 0, 0, 0, 0, 0, 0, 0, 0, 0, 0<br/>0, 0, 0, 0, 0, 0, 0, 0, 0, 0, 0, 0, 0, 0<br/>0, 0, 0, 47, 0, 0, 0, 0, 57, 0, 0, 0, 0, 0<br/>0, 0, 0, 0, 0, 0, 0, 0, 0, 0, 0, 0, 0, 0<br/>0, 0, 0, 0, 0, 0, 0, 0, 0, 0, 10, 0, 0, 0<br/>0, 0, 0]>, fillcolor="#e1f2fb"] ;
60 -> 61 ;
62 [label=<entropy = 0.0<br/>samples = 57<br/>value = [0, 0, 0, 0, 0, 0, 0, 0, 0, 0, 0, 0, 0, 0<br/>0, 0, 0, 0, 0, 0, 0, 0, 0, 0, 0, 0, 0, 0<br/>0, 0, 0, 0, 0, 0, 0, 0, 57, 0, 0, 0, 0, 0<br/>0, 0, 0, 0, 0, 0, 0, 0, 0, 0, 0, 0, 0, 0<br/>0, 0, 0, 0, 0, 0, 0, 0, 0, 0, 0, 0, 0, 0<br/>0, 0, 0]>, fillcolor="#39a6e5"] ;
61 -> 62 ;
63 [label=<X<SUB>0</SUB> &le; 45.5<br/>entropy = 0.67<br/>samples = 57<br/>value = [0, 0, 0, 0, 0, 0, 0, 0, 0, 0, 0, 0, 0, 0<br/>0, 0, 0, 0, 0, 0, 0, 0, 0, 0, 0, 0, 0, 0<br/>0, 0, 0, 47, 0, 0, 0, 0, 0, 0, 0, 0, 0, 0<br/>0, 0, 0, 0, 0, 0, 0, 0, 0, 0, 0, 0, 0, 0<br/>0, 0, 0, 0, 0, 0, 0, 0, 0, 0, 10, 0, 0, 0<br/>0, 0, 0]>, fillcolor="#63ebe3"] ;
61 -> 63 ;
64 [label=<entropy = 0.0<br/>samples = 47<br/>value = [0, 0, 0, 0, 0, 0, 0, 0, 0, 0, 0, 0, 0, 0<br/>0, 0, 0, 0, 0, 0, 0, 0, 0, 0, 0, 0, 0, 0<br/>0, 0, 0, 47, 0, 0, 0, 0, 0, 0, 0, 0, 0, 0<br/>0, 0, 0, 0, 0, 0, 0, 0, 0, 0, 0, 0, 0, 0<br/>0, 0, 0, 0, 0, 0, 0, 0, 0, 0, 0, 0, 0, 0<br/>0, 0, 0]>, fillcolor="#39e5dc"] ;
63 -> 64 ;
65 [label=<entropy = 0.0<br/>samples = 10<br/>value = [0, 0, 0, 0, 0, 0, 0, 0, 0, 0, 0, 0, 0, 0<br/>0, 0, 0, 0, 0, 0, 0, 0, 0, 0, 0, 0, 0, 0<br/>0, 0, 0, 0, 0, 0, 0, 0, 0, 0, 0, 0, 0, 0<br/>0, 0, 0, 0, 0, 0, 0, 0, 0, 0, 0, 0, 0, 0<br/>0, 0, 0, 0, 0, 0, 0, 0, 0, 0, 10, 0, 0, 0<br/>0, 0, 0]>, fillcolor="#e53956"] ;
63 -> 65 ;
66 [label=<X<SUB>0</SUB> &le; 23.5<br/>entropy = 0.68<br/>samples = 89<br/>value = [0, 0, 0, 0, 0, 0, 0, 0, 0, 0, 0, 0, 0, 0<br/>0, 0, 0, 0, 0, 73, 0, 0, 0, 0, 0, 0, 16, 0<br/>0, 0, 0, 0, 0, 0, 0, 0, 0, 0, 0, 0, 0, 0<br/>0, 0, 0, 0, 0, 0, 0, 0, 0, 0, 0, 0, 0, 0<br/>0, 0, 0, 0, 0, 0, 0, 0, 0, 0, 0, 0, 0, 0<br/>0, 0, 0]>, fillcolor="#69eb64"] ;
60 -> 66 ;
67 [label=<entropy = 0.0<br/>samples = 73<br/>value = [0, 0, 0, 0, 0, 0, 0, 0, 0, 0, 0, 0, 0, 0<br/>0, 0, 0, 0, 0, 73, 0, 0, 0, 0, 0, 0, 0, 0<br/>0, 0, 0, 0, 0, 0, 0, 0, 0, 0, 0, 0, 0, 0<br/>0, 0, 0, 0, 0, 0, 0, 0, 0, 0, 0, 0, 0, 0<br/>0, 0, 0, 0, 0, 0, 0, 0, 0, 0, 0, 0, 0, 0<br/>0, 0, 0]>, fillcolor="#3fe539"] ;
66 -> 67 ;
68 [label=<entropy = 0.0<br/>samples = 16<br/>value = [0, 0, 0, 0, 0, 0, 0, 0, 0, 0, 0, 0, 0, 0<br/>0, 0, 0, 0, 0, 0, 0, 0, 0, 0, 0, 0, 16, 0<br/>0, 0, 0, 0, 0, 0, 0, 0, 0, 0, 0, 0, 0, 0<br/>0, 0, 0, 0, 0, 0, 0, 0, 0, 0, 0, 0, 0, 0<br/>0, 0, 0, 0, 0, 0, 0, 0, 0, 0, 0, 0, 0, 0<br/>0, 0, 0]>, fillcolor="#39e598"] ;
66 -> 68 ;
69 [label=<entropy = 0.0<br/>samples = 197<br/>value = [0, 0, 0, 197, 0, 0, 0, 0, 0, 0, 0, 0, 0, 0<br/>0, 0, 0, 0, 0, 0, 0, 0, 0, 0, 0, 0, 0, 0<br/>0, 0, 0, 0, 0, 0, 0, 0, 0, 0, 0, 0, 0, 0<br/>0, 0, 0, 0, 0, 0, 0, 0, 0, 0, 0, 0, 0, 0<br/>0, 0, 0, 0, 0, 0, 0, 0, 0, 0, 0, 0, 0, 0<br/>0, 0, 0]>, fillcolor="#e5a939"] ;
59 -> 69 ;
70 [label=<X<SUB>5</SUB> &le; 1164.0<br/>entropy = 4.028<br/>samples = 4153<br/>value = [0, 0, 0, 0, 0, 714, 221, 0, 635, 0, 0, 171, 54<br/>0, 237, 91, 408, 0, 437, 0, 36, 0, 0, 284, 0<br/>126, 0, 42, 48, 107, 0, 0, 28, 0, 23, 88, 0, 0<br/>0, 0, 57, 12, 24, 0, 75, 0, 16, 0, 0, 0, 10<br/>0, 9, 0, 0, 6, 21, 38, 1, 0, 27, 0, 0, 31<br/>33, 2, 0, 13, 11, 8, 9, 0, 0]>, fillcolor="#fefefb"] ;
0 -> 70 [labeldistance=2.5, labelangle=-45, headlabel="False"] ;
71 [label=<X<SUB>5</SUB> &le; 900.5<br/>entropy = 2.811<br/>samples = 2075<br/>value = [0, 0, 0, 0, 0, 714, 0, 0, 0, 0, 0, 0, 54, 0<br/>237, 0, 0, 0, 437, 0, 0, 0, 0, 284, 0, 126, 0<br/>0, 0, 0, 0, 0, 28, 0, 23, 0, 0, 0, 0, 0, 57<br/>12, 0, 0, 0, 0, 16, 0, 0, 0, 10, 0, 9, 0, 0<br/>0, 21, 38, 1, 0, 0, 0, 0, 0, 0, 0, 0, 0, 0<br/>8, 0, 0, 0]>, fillcolor="#fbf5de"] ;
70 -> 71 ;
72 [label=<X<SUB>5</SUB> &le; 887.5<br/>entropy = 1.308<br/>samples = 1233<br/>value = [0, 0, 0, 0, 0, 714, 0, 0, 0, 0, 0, 0, 54, 0<br/>0, 0, 0, 0, 437, 0, 0, 0, 0, 0, 0, 0, 0, 0<br/>0, 0, 0, 0, 28, 0, 0, 0, 0, 0, 0, 0, 0, 0<br/>0, 0, 0, 0, 0, 0, 0, 0, 0, 0, 0, 0, 0, 0<br/>0, 0, 0, 0, 0, 0, 0, 0, 0, 0, 0, 0, 0, 0<br/>0, 0, 0]>, fillcolor="#f6ebba"] ;
71 -> 72 ;
73 [label=<X<SUB>5</SUB> &le; 862.5<br/>entropy = 0.776<br/>samples = 519<br/>value = [0, 0, 0, 0, 0, 0, 0, 0, 0, 0, 0, 0, 54, 0<br/>0, 0, 0, 0, 437, 0, 0, 0, 0, 0, 0, 0, 0, 0<br/>0, 0, 0, 0, 28, 0, 0, 0, 0, 0, 0, 0, 0, 0<br/>0, 0, 0, 0, 0, 0, 0, 0, 0, 0, 0, 0, 0, 0<br/>0, 0, 0, 0, 0, 0, 0, 0, 0, 0, 0, 0, 0, 0<br/>0, 0, 0]>, fillcolor="#6cea5c"] ;
72 -> 73 ;
74 [label=<entropy = 0.0<br/>samples = 437<br/>value = [0, 0, 0, 0, 0, 0, 0, 0, 0, 0, 0, 0, 0, 0<br/>0, 0, 0, 0, 437, 0, 0, 0, 0, 0, 0, 0, 0, 0<br/>0, 0, 0, 0, 0, 0, 0, 0, 0, 0, 0, 0, 0, 0<br/>0, 0, 0, 0, 0, 0, 0, 0, 0, 0, 0, 0, 0, 0<br/>0, 0, 0, 0, 0, 0, 0, 0, 0, 0, 0, 0, 0, 0<br/>0, 0, 0]>, fillcolor="#4de539"] ;
73 -> 74 ;
75 [label=<X<SUB>3</SUB> &le; 21.5<br/>entropy = 0.926<br/>samples = 82<br/>value = [0, 0, 0, 0, 0, 0, 0, 0, 0, 0, 0, 0, 54, 0<br/>0, 0, 0, 0, 0, 0, 0, 0, 0, 0, 0, 0, 0, 0<br/>0, 0, 0, 0, 28, 0, 0, 0, 0, 0, 0, 0, 0, 0<br/>0, 0, 0, 0, 0, 0, 0, 0, 0, 0, 0, 0, 0, 0<br/>0, 0, 0, 0, 0, 0, 0, 0, 0, 0, 0, 0, 0, 0<br/>0, 0, 0]>, fillcolor="#d1f2a0"] ;
73 -> 75 ;
76 [label=<entropy = 0.0<br/>samples = 54<br/>value = [0, 0, 0, 0, 0, 0, 0, 0, 0, 0, 0, 0, 54, 0<br/>0, 0, 0, 0, 0, 0, 0, 0, 0, 0, 0, 0, 0, 0<br/>0, 0, 0, 0, 0, 0, 0, 0, 0, 0, 0, 0, 0, 0<br/>0, 0, 0, 0, 0, 0, 0, 0, 0, 0, 0, 0, 0, 0<br/>0, 0, 0, 0, 0, 0, 0, 0, 0, 0, 0, 0, 0, 0<br/>0, 0, 0]>, fillcolor="#a0e539"] ;
75 -> 76 ;
77 [label=<entropy = 0.0<br/>samples = 28<br/>value = [0, 0, 0, 0, 0, 0, 0, 0, 0, 0, 0, 0, 0, 0<br/>0, 0, 0, 0, 0, 0, 0, 0, 0, 0, 0, 0, 0, 0<br/>0, 0, 0, 0, 28, 0, 0, 0, 0, 0, 0, 0, 0, 0<br/>0, 0, 0, 0, 0, 0, 0, 0, 0, 0, 0, 0, 0, 0<br/>0, 0, 0, 0, 0, 0, 0, 0, 0, 0, 0, 0, 0, 0<br/>0, 0, 0]>, fillcolor="#39dfe5"] ;
75 -> 77 ;
78 [label=<entropy = 0.0<br/>samples = 714<br/>value = [0, 0, 0, 0, 0, 714, 0, 0, 0, 0, 0, 0, 0, 0<br/>0, 0, 0, 0, 0, 0, 0, 0, 0, 0, 0, 0, 0, 0<br/>0, 0, 0, 0, 0, 0, 0, 0, 0, 0, 0, 0, 0, 0<br/>0, 0, 0, 0, 0, 0, 0, 0, 0, 0, 0, 0, 0, 0<br/>0, 0, 0, 0, 0, 0, 0, 0, 0, 0, 0, 0, 0, 0<br/>0, 0, 0]>, fillcolor="#e5c539"] ;
72 -> 78 ;
79 [label=<X<SUB>5</SUB> &le; 925.0<br/>entropy = 2.611<br/>samples = 842<br/>value = [0, 0, 0, 0, 0, 0, 0, 0, 0, 0, 0, 0, 0, 0<br/>237, 0, 0, 0, 0, 0, 0, 0, 0, 284, 0, 126, 0<br/>0, 0, 0, 0, 0, 0, 0, 23, 0, 0, 0, 0, 0, 57<br/>12, 0, 0, 0, 0, 16, 0, 0, 0, 10, 0, 9, 0, 0<br/>0, 21, 38, 1, 0, 0, 0, 0, 0, 0, 0, 0, 0, 0<br/>8, 0, 0, 0]>, fillcolor="#f0fdf4"] ;
71 -> 79 ;
80 [label=<X<SUB>5</SUB> &le; 909.0<br/>entropy = 1.209<br/>samples = 385<br/>value = [0, 0, 0, 0, 0, 0, 0, 0, 0, 0, 0, 0, 0, 0<br/>237, 0, 0, 0, 0, 0, 0, 0, 0, 0, 0, 126, 0, 0<br/>0, 0, 0, 0, 0, 0, 0, 0, 0, 0, 0, 0, 0, 0<br/>0, 0, 0, 0, 0, 0, 0, 0, 0, 0, 0, 0, 0, 0<br/>21, 0, 1, 0, 0, 0, 0, 0, 0, 0, 0, 0, 0, 0<br/>0, 0, 0]>, fillcolor="#caf4aa"] ;
79 -> 80 ;
81 [label=<entropy = 0.0<br/>samples = 126<br/>value = [0, 0, 0, 0, 0, 0, 0, 0, 0, 0, 0, 0, 0, 0<br/>0, 0, 0, 0, 0, 0, 0, 0, 0, 0, 0, 126, 0, 0<br/>0, 0, 0, 0, 0, 0, 0, 0, 0, 0, 0, 0, 0, 0<br/>0, 0, 0, 0, 0, 0, 0, 0, 0, 0, 0, 0, 0, 0<br/>0, 0, 0, 0, 0, 0, 0, 0, 0, 0, 0, 0, 0, 0<br/>0, 0, 0]>, fillcolor="#39e589"] ;
80 -> 81 ;
82 [label=<X<SUB>5</SUB> &le; 914.0<br/>entropy = 0.442<br/>samples = 259<br/>value = [0, 0, 0, 0, 0, 0, 0, 0, 0, 0, 0, 0, 0, 0<br/>237, 0, 0, 0, 0, 0, 0, 0, 0, 0, 0, 0, 0, 0<br/>0, 0, 0, 0, 0, 0, 0, 0, 0, 0, 0, 0, 0, 0<br/>0, 0, 0, 0, 0, 0, 0, 0, 0, 0, 0, 0, 0, 0<br/>21, 0, 1, 0, 0, 0, 0, 0, 0, 0, 0, 0, 0, 0<br/>0, 0, 0]>, fillcolor="#8ee74b"] ;
80 -> 82 ;
83 [label=<entropy = 0.0<br/>samples = 237<br/>value = [0, 0, 0, 0, 0, 0, 0, 0, 0, 0, 0, 0, 0, 0<br/>237, 0, 0, 0, 0, 0, 0, 0, 0, 0, 0, 0, 0, 0<br/>0, 0, 0, 0, 0, 0, 0, 0, 0, 0, 0, 0, 0, 0<br/>0, 0, 0, 0, 0, 0, 0, 0, 0, 0, 0, 0, 0, 0<br/>0, 0, 0, 0, 0, 0, 0, 0, 0, 0, 0, 0, 0, 0<br/>0, 0, 0]>, fillcolor="#83e539"] ;
82 -> 83 ;
84 [label=<X<SUB>0</SUB> &le; 29.5<br/>entropy = 0.267<br/>samples = 22<br/>value = [0, 0, 0, 0, 0, 0, 0, 0, 0, 0, 0, 0, 0, 0<br/>0, 0, 0, 0, 0, 0, 0, 0, 0, 0, 0, 0, 0, 0<br/>0, 0, 0, 0, 0, 0, 0, 0, 0, 0, 0, 0, 0, 0<br/>0, 0, 0, 0, 0, 0, 0, 0, 0, 0, 0, 0, 0, 0<br/>21, 0, 1, 0, 0, 0, 0, 0, 0, 0, 0, 0, 0, 0<br/>0, 0, 0]>, fillcolor="#e642e3"] ;
82 -> 84 ;
85 [label=<entropy = 0.0<br/>samples = 21<br/>value = [0, 0, 0, 0, 0, 0, 0, 0, 0, 0, 0, 0, 0, 0<br/>0, 0, 0, 0, 0, 0, 0, 0, 0, 0, 0, 0, 0, 0<br/>0, 0, 0, 0, 0, 0, 0, 0, 0, 0, 0, 0, 0, 0<br/>0, 0, 0, 0, 0, 0, 0, 0, 0, 0, 0, 0, 0, 0<br/>21, 0, 0, 0, 0, 0, 0, 0, 0, 0, 0, 0, 0, 0<br/>0, 0, 0]>, fillcolor="#e539e2"] ;
84 -> 85 ;
86 [label=<entropy = 0.0<br/>samples = 1<br/>value = [0, 0, 0, 0, 0, 0, 0, 0, 0, 0, 0, 0, 0, 0<br/>0, 0, 0, 0, 0, 0, 0, 0, 0, 0, 0, 0, 0, 0<br/>0, 0, 0, 0, 0, 0, 0, 0, 0, 0, 0, 0, 0, 0<br/>0, 0, 0, 0, 0, 0, 0, 0, 0, 0, 0, 0, 0, 0<br/>0, 0, 1, 0, 0, 0, 0, 0, 0, 0, 0, 0, 0, 0<br/>0, 0, 0]>, fillcolor="#e539c5"] ;
84 -> 86 ;
87 [label=<X<SUB>5</SUB> &le; 933.5<br/>entropy = 1.958<br/>samples = 457<br/>value = [0, 0, 0, 0, 0, 0, 0, 0, 0, 0, 0, 0, 0, 0<br/>0, 0, 0, 0, 0, 0, 0, 0, 0, 284, 0, 0, 0, 0<br/>0, 0, 0, 0, 0, 0, 23, 0, 0, 0, 0, 0, 57, 12<br/>0, 0, 0, 0, 16, 0, 0, 0, 10, 0, 9, 0, 0, 0<br/>0, 38, 0, 0, 0, 0, 0, 0, 0, 0, 0, 0, 0, 8<br/>0, 0, 0]>, fillcolor="#8ff0ac"] ;
79 -> 87 ;
88 [label=<entropy = 0.0<br/>samples = 284<br/>value = [0, 0, 0, 0, 0, 0, 0, 0, 0, 0, 0, 0, 0, 0<br/>0, 0, 0, 0, 0, 0, 0, 0, 0, 284, 0, 0, 0, 0<br/>0, 0, 0, 0, 0, 0, 0, 0, 0, 0, 0, 0, 0, 0<br/>0, 0, 0, 0, 0, 0, 0, 0, 0, 0, 0, 0, 0, 0<br/>0, 0, 0, 0, 0, 0, 0, 0, 0, 0, 0, 0, 0, 0<br/>0, 0, 0]>, fillcolor="#39e56d"] ;
87 -> 88 ;
89 [label=<X<SUB>5</SUB> &le; 1058.0<br/>entropy = 2.644<br/>samples = 173<br/>value = [0, 0, 0, 0, 0, 0, 0, 0, 0, 0, 0, 0, 0, 0<br/>0, 0, 0, 0, 0, 0, 0, 0, 0, 0, 0, 0, 0, 0<br/>0, 0, 0, 0, 0, 0, 23, 0, 0, 0, 0, 0, 57, 12<br/>0, 0, 0, 0, 16, 0, 0, 0, 10, 0, 9, 0, 0, 0<br/>0, 38, 0, 0, 0, 0, 0, 0, 0, 0, 0, 0, 0, 8<br/>0, 0, 0]>, fillcolor="#e3eafb"] ;
87 -> 89 ;
90 [label=<X<SUB>4</SUB> &le; 6.0<br/>entropy = 1.717<br/>samples = 72<br/>value = [0, 0, 0, 0, 0, 0, 0, 0, 0, 0, 0, 0, 0, 0<br/>0, 0, 0, 0, 0, 0, 0, 0, 0, 0, 0, 0, 0, 0<br/>0, 0, 0, 0, 0, 0, 0, 0, 0, 0, 0, 0, 0, 0<br/>0, 0, 0, 0, 16, 0, 0, 0, 10, 0, 0, 0, 0, 0<br/>0, 38, 0, 0, 0, 0, 0, 0, 0, 0, 0, 0, 0, 8<br/>0, 0, 0]>, fillcolor="#f5b1ee"] ;
89 -> 90 ;
91 [label=<X<SUB>5</SUB> &le; 974.0<br/>entropy = 0.961<br/>samples = 26<br/>value = [0, 0, 0, 0, 0, 0, 0, 0, 0, 0, 0, 0, 0, 0<br/>0, 0, 0, 0, 0, 0, 0, 0, 0, 0, 0, 0, 0, 0<br/>0, 0, 0, 0, 0, 0, 0, 0, 0, 0, 0, 0, 0, 0<br/>0, 0, 0, 0, 16, 0, 0, 0, 10, 0, 0, 0, 0, 0<br/>0, 0, 0, 0, 0, 0, 0, 0, 0, 0, 0, 0, 0, 0<br/>0, 0, 0]>, fillcolor="#c0b5f5"] ;
90 -> 91 ;
92 [label=<entropy = 0.0<br/>samples = 16<br/>value = [0, 0, 0, 0, 0, 0, 0, 0, 0, 0, 0, 0, 0, 0<br/>0, 0, 0, 0, 0, 0, 0, 0, 0, 0, 0, 0, 0, 0<br/>0, 0, 0, 0, 0, 0, 0, 0, 0, 0, 0, 0, 0, 0<br/>0, 0, 0, 0, 16, 0, 0, 0, 0, 0, 0, 0, 0, 0<br/>0, 0, 0, 0, 0, 0, 0, 0, 0, 0, 0, 0, 0, 0<br/>0, 0, 0]>, fillcolor="#5839e5"] ;
91 -> 92 ;
93 [label=<entropy = 0.0<br/>samples = 10<br/>value = [0, 0, 0, 0, 0, 0, 0, 0, 0, 0, 0, 0, 0, 0<br/>0, 0, 0, 0, 0, 0, 0, 0, 0, 0, 0, 0, 0, 0<br/>0, 0, 0, 0, 0, 0, 0, 0, 0, 0, 0, 0, 0, 0<br/>0, 0, 0, 0, 0, 0, 0, 0, 10, 0, 0, 0, 0, 0<br/>0, 0, 0, 0, 0, 0, 0, 0, 0, 0, 0, 0, 0, 0<br/>0, 0, 0]>, fillcolor="#9239e5"] ;
91 -> 93 ;
94 [label=<X<SUB>0</SUB> &le; 18.5<br/>entropy = 0.667<br/>samples = 46<br/>value = [0, 0, 0, 0, 0, 0, 0, 0, 0, 0, 0, 0, 0, 0<br/>0, 0, 0, 0, 0, 0, 0, 0, 0, 0, 0, 0, 0, 0<br/>0, 0, 0, 0, 0, 0, 0, 0, 0, 0, 0, 0, 0, 0<br/>0, 0, 0, 0, 0, 0, 0, 0, 0, 0, 0, 0, 0, 0<br/>0, 38, 0, 0, 0, 0, 0, 0, 0, 0, 0, 0, 0, 8<br/>0, 0, 0]>, fillcolor="#ea63dd"] ;
90 -> 94 ;
95 [label=<entropy = 0.0<br/>samples = 38<br/>value = [0, 0, 0, 0, 0, 0, 0, 0, 0, 0, 0, 0, 0, 0<br/>0, 0, 0, 0, 0, 0, 0, 0, 0, 0, 0, 0, 0, 0<br/>0, 0, 0, 0, 0, 0, 0, 0, 0, 0, 0, 0, 0, 0<br/>0, 0, 0, 0, 0, 0, 0, 0, 0, 0, 0, 0, 0, 0<br/>0, 38, 0, 0, 0, 0, 0, 0, 0, 0, 0, 0, 0, 0<br/>0, 0, 0]>, fillcolor="#e539d4"] ;
94 -> 95 ;
96 [label=<entropy = 0.0<br/>samples = 8<br/>value = [0, 0, 0, 0, 0, 0, 0, 0, 0, 0, 0, 0, 0, 0<br/>0, 0, 0, 0, 0, 0, 0, 0, 0, 0, 0, 0, 0, 0<br/>0, 0, 0, 0, 0, 0, 0, 0, 0, 0, 0, 0, 0, 0<br/>0, 0, 0, 0, 0, 0, 0, 0, 0, 0, 0, 0, 0, 0<br/>0, 0, 0, 0, 0, 0, 0, 0, 0, 0, 0, 0, 0, 8<br/>0, 0, 0]>, fillcolor="#e54739"] ;
94 -> 96 ;
97 [label=<X<SUB>5</SUB> &le; 1076.0<br/>entropy = 1.628<br/>samples = 101<br/>value = [0, 0, 0, 0, 0, 0, 0, 0, 0, 0, 0, 0, 0, 0<br/>0, 0, 0, 0, 0, 0, 0, 0, 0, 0, 0, 0, 0, 0<br/>0, 0, 0, 0, 0, 0, 23, 0, 0, 0, 0, 0, 57, 12<br/>0, 0, 0, 0, 0, 0, 0, 0, 0, 0, 9, 0, 0, 0<br/>0, 0, 0, 0, 0, 0, 0, 0, 0, 0, 0, 0, 0, 0<br/>0, 0, 0]>, fillcolor="#a9bff4"] ;
89 -> 97 ;
98 [label=<entropy = 0.0<br/>samples = 57<br/>value = [0, 0, 0, 0, 0, 0, 0, 0, 0, 0, 0, 0, 0, 0<br/>0, 0, 0, 0, 0, 0, 0, 0, 0, 0, 0, 0, 0, 0<br/>0, 0, 0, 0, 0, 0, 0, 0, 0, 0, 0, 0, 57, 0<br/>0, 0, 0, 0, 0, 0, 0, 0, 0, 0, 0, 0, 0, 0<br/>0, 0, 0, 0, 0, 0, 0, 0, 0, 0, 0, 0, 0, 0<br/>0, 0, 0]>, fillcolor="#396de5"] ;
97 -> 98 ;
99 [label=<X<SUB>3</SUB> &le; 27.0<br/>entropy = 1.469<br/>samples = 44<br/>value = [0, 0, 0, 0, 0, 0, 0, 0, 0, 0, 0, 0, 0, 0<br/>0, 0, 0, 0, 0, 0, 0, 0, 0, 0, 0, 0, 0, 0<br/>0, 0, 0, 0, 0, 0, 23, 0, 0, 0, 0, 0, 0, 12<br/>0, 0, 0, 0, 0, 0, 0, 0, 0, 0, 9, 0, 0, 0<br/>0, 0, 0, 0, 0, 0, 0, 0, 0, 0, 0, 0, 0, 0<br/>0, 0, 0]>, fillcolor="#bbeaf6"] ;
97 -> 99 ;
100 [label=<entropy = 0.0<br/>samples = 23<br/>value = [0, 0, 0, 0, 0, 0, 0, 0, 0, 0, 0, 0, 0, 0<br/>0, 0, 0, 0, 0, 0, 0, 0, 0, 0, 0, 0, 0, 0<br/>0, 0, 0, 0, 0, 0, 23, 0, 0, 0, 0, 0, 0, 0<br/>0, 0, 0, 0, 0, 0, 0, 0, 0, 0, 0, 0, 0, 0<br/>0, 0, 0, 0, 0, 0, 0, 0, 0, 0, 0, 0, 0, 0<br/>0, 0, 0]>, fillcolor="#39c3e5"] ;
99 -> 100 ;
101 [label=<X<SUB>4</SUB> &le; 20.0<br/>entropy = 0.985<br/>samples = 21<br/>value = [0, 0, 0, 0, 0, 0, 0, 0, 0, 0, 0, 0, 0, 0<br/>0, 0, 0, 0, 0, 0, 0, 0, 0, 0, 0, 0, 0, 0<br/>0, 0, 0, 0, 0, 0, 0, 0, 0, 0, 0, 0, 0, 12<br/>0, 0, 0, 0, 0, 0, 0, 0, 0, 0, 9, 0, 0, 0<br/>0, 0, 0, 0, 0, 0, 0, 0, 0, 0, 0, 0, 0, 0<br/>0, 0, 0]>, fillcolor="#ced7f8"] ;
99 -> 101 ;
102 [label=<entropy = 0.0<br/>samples = 12<br/>value = [0, 0, 0, 0, 0, 0, 0, 0, 0, 0, 0, 0, 0, 0<br/>0, 0, 0, 0, 0, 0, 0, 0, 0, 0, 0, 0, 0, 0<br/>0, 0, 0, 0, 0, 0, 0, 0, 0, 0, 0, 0, 0, 12<br/>0, 0, 0, 0, 0, 0, 0, 0, 0, 0, 0, 0, 0, 0<br/>0, 0, 0, 0, 0, 0, 0, 0, 0, 0, 0, 0, 0, 0<br/>0, 0, 0]>, fillcolor="#395ee5"] ;
101 -> 102 ;
103 [label=<entropy = 0.0<br/>samples = 9<br/>value = [0, 0, 0, 0, 0, 0, 0, 0, 0, 0, 0, 0, 0, 0<br/>0, 0, 0, 0, 0, 0, 0, 0, 0, 0, 0, 0, 0, 0<br/>0, 0, 0, 0, 0, 0, 0, 0, 0, 0, 0, 0, 0, 0<br/>0, 0, 0, 0, 0, 0, 0, 0, 0, 0, 9, 0, 0, 0<br/>0, 0, 0, 0, 0, 0, 0, 0, 0, 0, 0, 0, 0, 0<br/>0, 0, 0]>, fillcolor="#ae39e5"] ;
101 -> 103 ;
104 [label=<X<SUB>5</SUB> &le; 1249.5<br/>entropy = 3.244<br/>samples = 2078<br/>value = [0, 0, 0, 0, 0, 0, 221, 0, 635, 0, 0, 171, 0<br/>0, 0, 91, 408, 0, 0, 0, 36, 0, 0, 0, 0, 0, 0<br/>42, 48, 107, 0, 0, 0, 0, 0, 88, 0, 0, 0, 0<br/>0, 0, 24, 0, 75, 0, 0, 0, 0, 0, 0, 0, 0, 0<br/>0, 6, 0, 0, 0, 0, 27, 0, 0, 31, 33, 2, 0, 13<br/>11, 0, 9, 0, 0]>, fillcolor="#fafbe4"] ;
70 -> 104 ;
105 [label=<X<SUB>5</SUB> &le; 1173.0<br/>entropy = 1.506<br/>samples = 1182<br/>value = [0, 0, 0, 0, 0, 0, 0, 0, 635, 0, 0, 0, 0, 0<br/>0, 91, 408, 0, 0, 0, 0, 0, 0, 0, 0, 0, 0, 42<br/>0, 0, 0, 0, 0, 0, 0, 0, 0, 0, 0, 0, 0, 0<br/>0, 0, 0, 0, 0, 0, 0, 0, 0, 0, 0, 0, 0, 6<br/>0, 0, 0, 0, 0, 0, 0, 0, 0, 0, 0, 0, 0, 0<br/>0, 0, 0]>, fillcolor="#f4f7c5"] ;
104 -> 105 ;
106 [label=<entropy = 0.0<br/>samples = 635<br/>value = [0, 0, 0, 0, 0, 0, 0, 0, 635, 0, 0, 0, 0, 0<br/>0, 0, 0, 0, 0, 0, 0, 0, 0, 0, 0, 0, 0, 0<br/>0, 0, 0, 0, 0, 0, 0, 0, 0, 0, 0, 0, 0, 0<br/>0, 0, 0, 0, 0, 0, 0, 0, 0, 0, 0, 0, 0, 0<br/>0, 0, 0, 0, 0, 0, 0, 0, 0, 0, 0, 0, 0, 0<br/>0, 0, 0]>, fillcolor="#dae539"] ;
105 -> 106 ;
107 [label=<X<SUB>4</SUB> &le; 10.0<br/>entropy = 1.102<br/>samples = 547<br/>value = [0, 0, 0, 0, 0, 0, 0, 0, 0, 0, 0, 0, 0, 0<br/>0, 91, 408, 0, 0, 0, 0, 0, 0, 0, 0, 0, 0, 42<br/>0, 0, 0, 0, 0, 0, 0, 0, 0, 0, 0, 0, 0, 0<br/>0, 0, 0, 0, 0, 0, 0, 0, 0, 0, 0, 0, 0, 6<br/>0, 0, 0, 0, 0, 0, 0, 0, 0, 0, 0, 0, 0, 0<br/>0, 0, 0]>, fillcolor="#97ed75"] ;
105 -> 107 ;
108 [label=<entropy = 0.0<br/>samples = 408<br/>value = [0, 0, 0, 0, 0, 0, 0, 0, 0, 0, 0, 0, 0, 0<br/>0, 0, 408, 0, 0, 0, 0, 0, 0, 0, 0, 0, 0, 0<br/>0, 0, 0, 0, 0, 0, 0, 0, 0, 0, 0, 0, 0, 0<br/>0, 0, 0, 0, 0, 0, 0, 0, 0, 0, 0, 0, 0, 0<br/>0, 0, 0, 0, 0, 0, 0, 0, 0, 0, 0, 0, 0, 0<br/>0, 0, 0]>, fillcolor="#6ae539"] ;
107 -> 108 ;
109 [label=<X<SUB>5</SUB> &le; 1191.5<br/>entropy = 1.118<br/>samples = 139<br/>value = [0, 0, 0, 0, 0, 0, 0, 0, 0, 0, 0, 0, 0, 0<br/>0, 91, 0, 0, 0, 0, 0, 0, 0, 0, 0, 0, 0, 42<br/>0, 0, 0, 0, 0, 0, 0, 0, 0, 0, 0, 0, 0, 0<br/>0, 0, 0, 0, 0, 0, 0, 0, 0, 0, 0, 0, 0, 6<br/>0, 0, 0, 0, 0, 0, 0, 0, 0, 0, 0, 0, 0, 0<br/>0, 0, 0]>, fillcolor="#bbf29b"] ;
107 -> 109 ;
110 [label=<entropy = 0.0<br/>samples = 91<br/>value = [0, 0, 0, 0, 0, 0, 0, 0, 0, 0, 0, 0, 0, 0<br/>0, 91, 0, 0, 0, 0, 0, 0, 0, 0, 0, 0, 0, 0<br/>0, 0, 0, 0, 0, 0, 0, 0, 0, 0, 0, 0, 0, 0<br/>0, 0, 0, 0, 0, 0, 0, 0, 0, 0, 0, 0, 0, 0<br/>0, 0, 0, 0, 0, 0, 0, 0, 0, 0, 0, 0, 0, 0<br/>0, 0, 0]>, fillcolor="#78e539"] ;
109 -> 110 ;
111 [label=<X<SUB>0</SUB> &le; 39.0<br/>entropy = 0.544<br/>samples = 48<br/>value = [0, 0, 0, 0, 0, 0, 0, 0, 0, 0, 0, 0, 0, 0<br/>0, 0, 0, 0, 0, 0, 0, 0, 0, 0, 0, 0, 0, 42<br/>0, 0, 0, 0, 0, 0, 0, 0, 0, 0, 0, 0, 0, 0<br/>0, 0, 0, 0, 0, 0, 0, 0, 0, 0, 0, 0, 0, 6<br/>0, 0, 0, 0, 0, 0, 0, 0, 0, 0, 0, 0, 0, 0<br/>0, 0, 0]>, fillcolor="#55e9b3"] ;
109 -> 111 ;
112 [label=<entropy = 0.0<br/>samples = 42<br/>value = [0, 0, 0, 0, 0, 0, 0, 0, 0, 0, 0, 0, 0, 0<br/>0, 0, 0, 0, 0, 0, 0, 0, 0, 0, 0, 0, 0, 42<br/>0, 0, 0, 0, 0, 0, 0, 0, 0, 0, 0, 0, 0, 0<br/>0, 0, 0, 0, 0, 0, 0, 0, 0, 0, 0, 0, 0, 0<br/>0, 0, 0, 0, 0, 0, 0, 0, 0, 0, 0, 0, 0, 0<br/>0, 0, 0]>, fillcolor="#39e5a6"] ;
111 -> 112 ;
113 [label=<entropy = 0.0<br/>samples = 6<br/>value = [0, 0, 0, 0, 0, 0, 0, 0, 0, 0, 0, 0, 0, 0<br/>0, 0, 0, 0, 0, 0, 0, 0, 0, 0, 0, 0, 0, 0<br/>0, 0, 0, 0, 0, 0, 0, 0, 0, 0, 0, 0, 0, 0<br/>0, 0, 0, 0, 0, 0, 0, 0, 0, 0, 0, 0, 0, 6<br/>0, 0, 0, 0, 0, 0, 0, 0, 0, 0, 0, 0, 0, 0<br/>0, 0, 0]>, fillcolor="#da39e5"] ;
111 -> 113 ;
114 [label=<X<SUB>5</SUB> &le; 1337.5<br/>entropy = 3.249<br/>samples = 896<br/>value = [0, 0, 0, 0, 0, 0, 221, 0, 0, 0, 0, 171, 0, 0<br/>0, 0, 0, 0, 0, 0, 36, 0, 0, 0, 0, 0, 0, 0<br/>48, 107, 0, 0, 0, 0, 0, 88, 0, 0, 0, 0, 0, 0<br/>24, 0, 75, 0, 0, 0, 0, 0, 0, 0, 0, 0, 0, 0<br/>0, 0, 0, 0, 27, 0, 0, 31, 33, 2, 0, 13, 11<br/>0, 9, 0, 0]>, fillcolor="#fdfcf1"] ;
104 -> 114 ;
115 [label=<X<SUB>4</SUB> &le; 5.5<br/>entropy = 2.255<br/>samples = 470<br/>value = [0, 0, 0, 0, 0, 0, 221, 0, 0, 0, 0, 0, 0, 0<br/>0, 0, 0, 0, 0, 0, 36, 0, 0, 0, 0, 0, 0, 0<br/>48, 0, 0, 0, 0, 0, 0, 88, 0, 0, 0, 0, 0, 0<br/>0, 0, 0, 0, 0, 0, 0, 0, 0, 0, 0, 0, 0, 0<br/>0, 0, 0, 0, 0, 0, 0, 31, 33, 0, 0, 13, 0, 0<br/>0, 0, 0]>, fillcolor="#f6f0ba"] ;
114 -> 115 ;
116 [label=<X<SUB>0</SUB> &le; 27.0<br/>entropy = 1.24<br/>samples = 303<br/>value = [0, 0, 0, 0, 0, 0, 221, 0, 0, 0, 0, 0, 0, 0<br/>0, 0, 0, 0, 0, 0, 36, 0, 0, 0, 0, 0, 0, 0<br/>0, 0, 0, 0, 0, 0, 0, 0, 0, 0, 0, 0, 0, 0<br/>0, 0, 0, 0, 0, 0, 0, 0, 0, 0, 0, 0, 0, 0<br/>0, 0, 0, 0, 0, 0, 0, 0, 33, 0, 0, 13, 0, 0<br/>0, 0, 0]>, fillcolor="#ede176"] ;
115 -> 116 ;
117 [label=<X<SUB>5</SUB> &le; 1283.0<br/>entropy = 0.257<br/>samples = 231<br/>value = [0, 0, 0, 0, 0, 0, 221, 0, 0, 0, 0, 0, 0, 0<br/>0, 0, 0, 0, 0, 0, 10, 0, 0, 0, 0, 0, 0, 0<br/>0, 0, 0, 0, 0, 0, 0, 0, 0, 0, 0, 0, 0, 0<br/>0, 0, 0, 0, 0, 0, 0, 0, 0, 0, 0, 0, 0, 0<br/>0, 0, 0, 0, 0, 0, 0, 0, 0, 0, 0, 0, 0, 0<br/>0, 0, 0]>, fillcolor="#e6d642"] ;
116 -> 117 ;
118 [label=<entropy = 0.0<br/>samples = 10<br/>value = [0, 0, 0, 0, 0, 0, 0, 0, 0, 0, 0, 0, 0, 0<br/>0, 0, 0, 0, 0, 0, 10, 0, 0, 0, 0, 0, 0, 0<br/>0, 0, 0, 0, 0, 0, 0, 0, 0, 0, 0, 0, 0, 0<br/>0, 0, 0, 0, 0, 0, 0, 0, 0, 0, 0, 0, 0, 0<br/>0, 0, 0, 0, 0, 0, 0, 0, 0, 0, 0, 0, 0, 0<br/>0, 0, 0]>, fillcolor="#39e541"] ;
117 -> 118 ;
119 [label=<entropy = 0.0<br/>samples = 221<br/>value = [0, 0, 0, 0, 0, 0, 221, 0, 0, 0, 0, 0, 0, 0<br/>0, 0, 0, 0, 0, 0, 0, 0, 0, 0, 0, 0, 0, 0<br/>0, 0, 0, 0, 0, 0, 0, 0, 0, 0, 0, 0, 0, 0<br/>0, 0, 0, 0, 0, 0, 0, 0, 0, 0, 0, 0, 0, 0<br/>0, 0, 0, 0, 0, 0, 0, 0, 0, 0, 0, 0, 0, 0<br/>0, 0, 0]>, fillcolor="#e5d439"] ;
117 -> 119 ;
120 [label=<X<SUB>5</SUB> &le; 1308.5<br/>entropy = 1.492<br/>samples = 72<br/>value = [0, 0, 0, 0, 0, 0, 0, 0, 0, 0, 0, 0, 0, 0<br/>0, 0, 0, 0, 0, 0, 26, 0, 0, 0, 0, 0, 0, 0<br/>0, 0, 0, 0, 0, 0, 0, 0, 0, 0, 0, 0, 0, 0<br/>0, 0, 0, 0, 0, 0, 0, 0, 0, 0, 0, 0, 0, 0<br/>0, 0, 0, 0, 0, 0, 0, 0, 33, 0, 0, 13, 0, 0<br/>0, 0, 0]>, fillcolor="#fbe1ea"] ;
116 -> 120 ;
121 [label=<X<SUB>8</SUB> &le; 4.5<br/>entropy = 0.918<br/>samples = 39<br/>value = [0, 0, 0, 0, 0, 0, 0, 0, 0, 0, 0, 0, 0, 0<br/>0, 0, 0, 0, 0, 0, 26, 0, 0, 0, 0, 0, 0, 0<br/>0, 0, 0, 0, 0, 0, 0, 0, 0, 0, 0, 0, 0, 0<br/>0, 0, 0, 0, 0, 0, 0, 0, 0, 0, 0, 0, 0, 0<br/>0, 0, 0, 0, 0, 0, 0, 0, 0, 0, 0, 13, 0, 0<br/>0, 0, 0]>, fillcolor="#9cf2a0"] ;
120 -> 121 ;
122 [label=<entropy = 0.0<br/>samples = 26<br/>value = [0, 0, 0, 0, 0, 0, 0, 0, 0, 0, 0, 0, 0, 0<br/>0, 0, 0, 0, 0, 0, 26, 0, 0, 0, 0, 0, 0, 0<br/>0, 0, 0, 0, 0, 0, 0, 0, 0, 0, 0, 0, 0, 0<br/>0, 0, 0, 0, 0, 0, 0, 0, 0, 0, 0, 0, 0, 0<br/>0, 0, 0, 0, 0, 0, 0, 0, 0, 0, 0, 0, 0, 0<br/>0, 0, 0]>, fillcolor="#39e541"] ;
121 -> 122 ;
123 [label=<entropy = 0.0<br/>samples = 13<br/>value = [0, 0, 0, 0, 0, 0, 0, 0, 0, 0, 0, 0, 0, 0<br/>0, 0, 0, 0, 0, 0, 0, 0, 0, 0, 0, 0, 0, 0<br/>0, 0, 0, 0, 0, 0, 0, 0, 0, 0, 0, 0, 0, 0<br/>0, 0, 0, 0, 0, 0, 0, 0, 0, 0, 0, 0, 0, 0<br/>0, 0, 0, 0, 0, 0, 0, 0, 0, 0, 0, 13, 0, 0<br/>0, 0, 0]>, fillcolor="#e53947"] ;
121 -> 123 ;
124 [label=<entropy = 0.0<br/>samples = 33<br/>value = [0, 0, 0, 0, 0, 0, 0, 0, 0, 0, 0, 0, 0, 0<br/>0, 0, 0, 0, 0, 0, 0, 0, 0, 0, 0, 0, 0, 0<br/>0, 0, 0, 0, 0, 0, 0, 0, 0, 0, 0, 0, 0, 0<br/>0, 0, 0, 0, 0, 0, 0, 0, 0, 0, 0, 0, 0, 0<br/>0, 0, 0, 0, 0, 0, 0, 0, 33, 0, 0, 0, 0, 0<br/>0, 0, 0]>, fillcolor="#e53972"] ;
120 -> 124 ;
125 [label=<X<SUB>5</SUB> &le; 1287.5<br/>entropy = 1.455<br/>samples = 167<br/>value = [0, 0, 0, 0, 0, 0, 0, 0, 0, 0, 0, 0, 0, 0<br/>0, 0, 0, 0, 0, 0, 0, 0, 0, 0, 0, 0, 0, 0<br/>48, 0, 0, 0, 0, 0, 0, 88, 0, 0, 0, 0, 0, 0<br/>0, 0, 0, 0, 0, 0, 0, 0, 0, 0, 0, 0, 0, 0<br/>0, 0, 0, 0, 0, 0, 0, 31, 0, 0, 0, 0, 0, 0<br/>0, 0, 0]>, fillcolor="#bce6f6"] ;
115 -> 125 ;
126 [label=<entropy = 0.0<br/>samples = 88<br/>value = [0, 0, 0, 0, 0, 0, 0, 0, 0, 0, 0, 0, 0, 0<br/>0, 0, 0, 0, 0, 0, 0, 0, 0, 0, 0, 0, 0, 0<br/>0, 0, 0, 0, 0, 0, 0, 88, 0, 0, 0, 0, 0, 0<br/>0, 0, 0, 0, 0, 0, 0, 0, 0, 0, 0, 0, 0, 0<br/>0, 0, 0, 0, 0, 0, 0, 0, 0, 0, 0, 0, 0, 0<br/>0, 0, 0]>, fillcolor="#39b4e5"] ;
125 -> 126 ;
127 [label=<X<SUB>5</SUB> &le; 1309.5<br/>entropy = 0.966<br/>samples = 79<br/>value = [0, 0, 0, 0, 0, 0, 0, 0, 0, 0, 0, 0, 0, 0<br/>0, 0, 0, 0, 0, 0, 0, 0, 0, 0, 0, 0, 0, 0<br/>48, 0, 0, 0, 0, 0, 0, 0, 0, 0, 0, 0, 0, 0<br/>0, 0, 0, 0, 0, 0, 0, 0, 0, 0, 0, 0, 0, 0<br/>0, 0, 0, 0, 0, 0, 0, 31, 0, 0, 0, 0, 0, 0<br/>0, 0, 0]>, fillcolor="#b9f6e4"] ;
125 -> 127 ;
128 [label=<entropy = 0.0<br/>samples = 31<br/>value = [0, 0, 0, 0, 0, 0, 0, 0, 0, 0, 0, 0, 0, 0<br/>0, 0, 0, 0, 0, 0, 0, 0, 0, 0, 0, 0, 0, 0<br/>0, 0, 0, 0, 0, 0, 0, 0, 0, 0, 0, 0, 0, 0<br/>0, 0, 0, 0, 0, 0, 0, 0, 0, 0, 0, 0, 0, 0<br/>0, 0, 0, 0, 0, 0, 0, 31, 0, 0, 0, 0, 0, 0<br/>0, 0, 0]>, fillcolor="#e53981"] ;
127 -> 128 ;
129 [label=<entropy = 0.0<br/>samples = 48<br/>value = [0, 0, 0, 0, 0, 0, 0, 0, 0, 0, 0, 0, 0, 0<br/>0, 0, 0, 0, 0, 0, 0, 0, 0, 0, 0, 0, 0, 0<br/>48, 0, 0, 0, 0, 0, 0, 0, 0, 0, 0, 0, 0, 0<br/>0, 0, 0, 0, 0, 0, 0, 0, 0, 0, 0, 0, 0, 0<br/>0, 0, 0, 0, 0, 0, 0, 0, 0, 0, 0, 0, 0, 0<br/>0, 0, 0]>, fillcolor="#39e5b4"] ;
127 -> 129 ;
130 [label=<X<SUB>5</SUB> &le; 1414.5<br/>entropy = 2.247<br/>samples = 426<br/>value = [0, 0, 0, 0, 0, 0, 0, 0, 0, 0, 0, 171, 0, 0<br/>0, 0, 0, 0, 0, 0, 0, 0, 0, 0, 0, 0, 0, 0<br/>0, 107, 0, 0, 0, 0, 0, 0, 0, 0, 0, 0, 0, 0<br/>24, 0, 75, 0, 0, 0, 0, 0, 0, 0, 0, 0, 0, 0<br/>0, 0, 0, 0, 27, 0, 0, 0, 0, 2, 0, 0, 11, 0<br/>9, 0, 0]>, fillcolor="#effad7"] ;
114 -> 130 ;
131 [label=<X<SUB>5</SUB> &le; 1374.5<br/>entropy = 1.637<br/>samples = 217<br/>value = [0, 0, 0, 0, 0, 0, 0, 0, 0, 0, 0, 0, 0, 0<br/>0, 0, 0, 0, 0, 0, 0, 0, 0, 0, 0, 0, 0, 0<br/>0, 107, 0, 0, 0, 0, 0, 0, 0, 0, 0, 0, 0, 0<br/>24, 0, 75, 0, 0, 0, 0, 0, 0, 0, 0, 0, 0, 0<br/>0, 0, 0, 0, 0, 0, 0, 0, 0, 2, 0, 0, 0, 0<br/>9, 0, 0]>, fillcolor="#d2f9f1"] ;
130 -> 131 ;
132 [label=<X<SUB>4</SUB> &le; 11.5<br/>entropy = 0.174<br/>samples = 77<br/>value = [0, 0, 0, 0, 0, 0, 0, 0, 0, 0, 0, 0, 0, 0<br/>0, 0, 0, 0, 0, 0, 0, 0, 0, 0, 0, 0, 0, 0<br/>0, 0, 0, 0, 0, 0, 0, 0, 0, 0, 0, 0, 0, 0<br/>0, 0, 75, 0, 0, 0, 0, 0, 0, 0, 0, 0, 0, 0<br/>0, 0, 0, 0, 0, 0, 0, 0, 0, 2, 0, 0, 0, 0<br/>0, 0, 0]>, fillcolor="#413ee6"] ;
131 -> 132 ;
133 [label=<entropy = 0.0<br/>samples = 2<br/>value = [0, 0, 0, 0, 0, 0, 0, 0, 0, 0, 0, 0, 0, 0<br/>0, 0, 0, 0, 0, 0, 0, 0, 0, 0, 0, 0, 0, 0<br/>0, 0, 0, 0, 0, 0, 0, 0, 0, 0, 0, 0, 0, 0<br/>0, 0, 0, 0, 0, 0, 0, 0, 0, 0, 0, 0, 0, 0<br/>0, 0, 0, 0, 0, 0, 0, 0, 0, 2, 0, 0, 0, 0<br/>0, 0, 0]>, fillcolor="#e53964"] ;
132 -> 133 ;
134 [label=<entropy = 0.0<br/>samples = 75<br/>value = [0, 0, 0, 0, 0, 0, 0, 0, 0, 0, 0, 0, 0, 0<br/>0, 0, 0, 0, 0, 0, 0, 0, 0, 0, 0, 0, 0, 0<br/>0, 0, 0, 0, 0, 0, 0, 0, 0, 0, 0, 0, 0, 0<br/>0, 0, 75, 0, 0, 0, 0, 0, 0, 0, 0, 0, 0, 0<br/>0, 0, 0, 0, 0, 0, 0, 0, 0, 0, 0, 0, 0, 0<br/>0, 0, 0]>, fillcolor="#3c39e5"] ;
132 -> 134 ;
135 [label=<X<SUB>5</SUB> &le; 1386.0<br/>entropy = 0.987<br/>samples = 140<br/>value = [0, 0, 0, 0, 0, 0, 0, 0, 0, 0, 0, 0, 0, 0<br/>0, 0, 0, 0, 0, 0, 0, 0, 0, 0, 0, 0, 0, 0<br/>0, 107, 0, 0, 0, 0, 0, 0, 0, 0, 0, 0, 0, 0<br/>24, 0, 0, 0, 0, 0, 0, 0, 0, 0, 0, 0, 0, 0<br/>0, 0, 0, 0, 0, 0, 0, 0, 0, 0, 0, 0, 0, 0<br/>9, 0, 0]>, fillcolor="#71ecd4"] ;
131 -> 135 ;
136 [label=<entropy = 0.0<br/>samples = 107<br/>value = [0, 0, 0, 0, 0, 0, 0, 0, 0, 0, 0, 0, 0, 0<br/>0, 0, 0, 0, 0, 0, 0, 0, 0, 0, 0, 0, 0, 0<br/>0, 107, 0, 0, 0, 0, 0, 0, 0, 0, 0, 0, 0, 0<br/>0, 0, 0, 0, 0, 0, 0, 0, 0, 0, 0, 0, 0, 0<br/>0, 0, 0, 0, 0, 0, 0, 0, 0, 0, 0, 0, 0, 0<br/>0, 0, 0]>, fillcolor="#39e5c3"] ;
135 -> 136 ;
137 [label=<X<SUB>0</SUB> &le; 44.0<br/>entropy = 0.845<br/>samples = 33<br/>value = [0, 0, 0, 0, 0, 0, 0, 0, 0, 0, 0, 0, 0, 0<br/>0, 0, 0, 0, 0, 0, 0, 0, 0, 0, 0, 0, 0, 0<br/>0, 0, 0, 0, 0, 0, 0, 0, 0, 0, 0, 0, 0, 0<br/>24, 0, 0, 0, 0, 0, 0, 0, 0, 0, 0, 0, 0, 0<br/>0, 0, 0, 0, 0, 0, 0, 0, 0, 0, 0, 0, 0, 0<br/>9, 0, 0]>, fillcolor="#8392ef"] ;
135 -> 137 ;
138 [label=<entropy = 0.0<br/>samples = 24<br/>value = [0, 0, 0, 0, 0, 0, 0, 0, 0, 0, 0, 0, 0, 0<br/>0, 0, 0, 0, 0, 0, 0, 0, 0, 0, 0, 0, 0, 0<br/>0, 0, 0, 0, 0, 0, 0, 0, 0, 0, 0, 0, 0, 0<br/>24, 0, 0, 0, 0, 0, 0, 0, 0, 0, 0, 0, 0, 0<br/>0, 0, 0, 0, 0, 0, 0, 0, 0, 0, 0, 0, 0, 0<br/>0, 0, 0]>, fillcolor="#3950e5"] ;
137 -> 138 ;
139 [label=<entropy = 0.0<br/>samples = 9<br/>value = [0, 0, 0, 0, 0, 0, 0, 0, 0, 0, 0, 0, 0, 0<br/>0, 0, 0, 0, 0, 0, 0, 0, 0, 0, 0, 0, 0, 0<br/>0, 0, 0, 0, 0, 0, 0, 0, 0, 0, 0, 0, 0, 0<br/>0, 0, 0, 0, 0, 0, 0, 0, 0, 0, 0, 0, 0, 0<br/>0, 0, 0, 0, 0, 0, 0, 0, 0, 0, 0, 0, 0, 0<br/>9, 0, 0]>, fillcolor="#e55639"] ;
137 -> 139 ;
140 [label=<X<SUB>5</SUB> &le; 1430.5<br/>entropy = 0.842<br/>samples = 209<br/>value = [0, 0, 0, 0, 0, 0, 0, 0, 0, 0, 0, 171, 0, 0<br/>0, 0, 0, 0, 0, 0, 0, 0, 0, 0, 0, 0, 0, 0<br/>0, 0, 0, 0, 0, 0, 0, 0, 0, 0, 0, 0, 0, 0<br/>0, 0, 0, 0, 0, 0, 0, 0, 0, 0, 0, 0, 0, 0<br/>0, 0, 0, 0, 27, 0, 0, 0, 0, 0, 0, 0, 11, 0<br/>0, 0, 0]>, fillcolor="#bfea62"] ;
130 -> 140 ;
141 [label=<X<SUB>4</SUB> &le; 4.5<br/>entropy = 0.329<br/>samples = 182<br/>value = [0, 0, 0, 0, 0, 0, 0, 0, 0, 0, 0, 171, 0, 0<br/>0, 0, 0, 0, 0, 0, 0, 0, 0, 0, 0, 0, 0, 0<br/>0, 0, 0, 0, 0, 0, 0, 0, 0, 0, 0, 0, 0, 0<br/>0, 0, 0, 0, 0, 0, 0, 0, 0, 0, 0, 0, 0, 0<br/>0, 0, 0, 0, 0, 0, 0, 0, 0, 0, 0, 0, 11, 0<br/>0, 0, 0]>, fillcolor="#b3e746"] ;
140 -> 141 ;
142 [label=<entropy = 0.0<br/>samples = 11<br/>value = [0, 0, 0, 0, 0, 0, 0, 0, 0, 0, 0, 0, 0, 0<br/>0, 0, 0, 0, 0, 0, 0, 0, 0, 0, 0, 0, 0, 0<br/>0, 0, 0, 0, 0, 0, 0, 0, 0, 0, 0, 0, 0, 0<br/>0, 0, 0, 0, 0, 0, 0, 0, 0, 0, 0, 0, 0, 0<br/>0, 0, 0, 0, 0, 0, 0, 0, 0, 0, 0, 0, 11, 0<br/>0, 0, 0]>, fillcolor="#e53939"] ;
141 -> 142 ;
143 [label=<entropy = 0.0<br/>samples = 171<br/>value = [0, 0, 0, 0, 0, 0, 0, 0, 0, 0, 0, 171, 0, 0<br/>0, 0, 0, 0, 0, 0, 0, 0, 0, 0, 0, 0, 0, 0<br/>0, 0, 0, 0, 0, 0, 0, 0, 0, 0, 0, 0, 0, 0<br/>0, 0, 0, 0, 0, 0, 0, 0, 0, 0, 0, 0, 0, 0<br/>0, 0, 0, 0, 0, 0, 0, 0, 0, 0, 0, 0, 0, 0<br/>0, 0, 0]>, fillcolor="#aee539"] ;
141 -> 143 ;
144 [label=<entropy = 0.0<br/>samples = 27<br/>value = [0, 0, 0, 0, 0, 0, 0, 0, 0, 0, 0, 0, 0, 0<br/>0, 0, 0, 0, 0, 0, 0, 0, 0, 0, 0, 0, 0, 0<br/>0, 0, 0, 0, 0, 0, 0, 0, 0, 0, 0, 0, 0, 0<br/>0, 0, 0, 0, 0, 0, 0, 0, 0, 0, 0, 0, 0, 0<br/>0, 0, 0, 0, 27, 0, 0, 0, 0, 0, 0, 0, 0, 0<br/>0, 0, 0]>, fillcolor="#e539ac"] ;
140 -> 144 ;
}