digraph Tree {
node [shape=box, style="filled, rounded", color="black", fontname=helvetica] ;
edge [fontname=helvetica] ;
0 [label=<X<SUB>2</SUB> &le; 3902.5<br/>entropy = 0.584<br/>samples = 8000<br/>value = [6882, 1118]>, fillcolor="#e99559"] ;
1 [label=<X<SUB>1</SUB> &le; 15.5<br/>entropy = 0.253<br/>samples = 6580<br/>value = [6302, 278]>, fillcolor="#e68742"] ;
0 -> 1 [labeldistance=2.5, labelangle=45, headlabel="True"] ;
2 [label=<X<SUB>2</SUB> &le; 2187.0<br/>entropy = 0.005<br/>samples = 2565<br/>value = [2564, 1]>, fillcolor="#e58139"] ;
1 -> 2 ;
3 [label=<entropy = 0.0<br/>samples = 1969<br/>value = [1969, 0]>, fillcolor="#e58139"] ;
2 -> 3 ;
4 [label=<X<SUB>2</SUB> &le; 2189.5<br/>entropy = 0.018<br/>samples = 596<br/>value = [595, 1]>, fillcolor="#e58139"] ;
2 -> 4 ;
5 [label=<entropy = 0.0<br/>samples = 1<br/>value = [0, 1]>, fillcolor="#399de5"] ;
4 -> 5 ;
6 [label=<entropy = 0.0<br/>samples = 595<br/>value = [595, 0]>, fillcolor="#e58139"] ;
4 -> 6 ;
7 [label=<X<SUB>2</SUB> &le; 2024.5<br/>entropy = 0.362<br/>samples = 4015<br/>value = [3738, 277]>, fillcolor="#e78a48"] ;
1 -> 7 ;
8 [label=<X<SUB>1</SUB> &le; 75.5<br/>entropy = 0.209<br/>samples = 3309<br/>value = [3200, 109]>, fillcolor="#e68540"] ;
7 -> 8 ;
9 [label=<X<SUB>2</SUB> &le; 120.5<br/>entropy = 0.081<br/>samples = 2391<br/>value = [2367, 24]>, fillcolor="#e5823b"] ;
8 -> 9 ;
10 [label=<X<SUB>1</SUB> &le; 39.5<br/>entropy = 0.178<br/>samples = 560<br/>value = [545, 15]>, fillcolor="#e6843e"] ;
9 -> 10 ;
11 [label=<entropy = 0.0<br/>samples = 341<br/>value = [341, 0]>, fillcolor="#e58139"] ;
10 -> 11 ;
12 [label=<X<SUB>1</SUB> &le; 40.5<br/>entropy = 0.36<br/>samples = 219<br/>value = [204, 15]>, fillcolor="#e78a48"] ;
10 -> 12 ;
13 [label=<entropy = 0.0<br/>samples = 15<br/>value = [0, 15]>, fillcolor="#399de5"] ;
12 -> 13 ;
14 [label=<entropy = 0.0<br/>samples = 204<br/>value = [204, 0]>, fillcolor="#e58139"] ;
12 -> 14 ;
15 [label=<X<SUB>2</SUB> &le; 1233.0<br/>entropy = 0.045<br/>samples = 1831<br/>value = [1822, 9]>, fillcolor="#e5823a"] ;
9 -> 15 ;
16 [label=<entropy = 0.0<br/>samples = 1446<br/>value = [1446, 0]>, fillcolor="#e58139"] ;
15 -> 16 ;
17 [label=<X<SUB>1</SUB> &le; 21.5<br/>entropy = 0.16<br/>samples = 385<br/>value = [376, 9]>, fillcolor="#e6843e"] ;
15 -> 17 ;
18 [label=<X<SUB>1</SUB> &le; 20.5<br/>entropy = 0.447<br/>samples = 75<br/>value = [68, 7]>, fillcolor="#e88e4d"] ;
17 -> 18 ;
19 [label=<entropy = 0.0<br/>samples = 68<br/>value = [68, 0]>, fillcolor="#e58139"] ;
18 -> 19 ;
20 [label=<entropy = 0.0<br/>samples = 7<br/>value = [0, 7]>, fillcolor="#399de5"] ;
18 -> 20 ;
21 [label=<X<SUB>1</SUB> &le; 35.5<br/>entropy = 0.056<br/>samples = 310<br/>value = [308, 2]>, fillcolor="#e5823a"] ;
17 -> 21 ;
22 [label=<entropy = 0.0<br/>samples = 190<br/>value = [190, 0]>, fillcolor="#e58139"] ;
21 -> 22 ;
23 [label=<X<SUB>1</SUB> &le; 37.5<br/>entropy = 0.122<br/>samples = 120<br/>value = [118, 2]>, fillcolor="#e5833c"] ;
21 -> 23 ;
24 [label=<entropy = 0.0<br/>samples = 1<br/>value = [0, 1]>, fillcolor="#399de5"] ;
23 -> 24 ;
25 [label=<X<SUB>2</SUB> &le; 1265.0<br/>entropy = 0.07<br/>samples = 119<br/>value = [118, 1]>, fillcolor="#e5823b"] ;
23 -> 25 ;
26 [label=<entropy = 0.65<br/>samples = 6<br/>value = [5, 1]>, fillcolor="#ea9a61"] ;
25 -> 26 ;
27 [label=<entropy = 0.0<br/>samples = 113<br/>value = [113, 0]>, fillcolor="#e58139"] ;
25 -> 27 ;
28 [label=<X<SUB>2</SUB> &le; 1211.0<br/>entropy = 0.445<br/>samples = 918<br/>value = [833, 85]>, fillcolor="#e88e4d"] ;
8 -> 28 ;
29 [label=<X<SUB>1</SUB> &le; 204.0<br/>entropy = 0.345<br/>samples = 805<br/>value = [753, 52]>, fillcolor="#e78a47"] ;
28 -> 29 ;
30 [label=<X<SUB>1</SUB> &le; 76.5<br/>entropy = 0.263<br/>samples = 740<br/>value = [707, 33]>, fillcolor="#e68742"] ;
29 -> 30 ;
31 [label=<entropy = 0.592<br/>samples = 7<br/>value = [1, 6]>, fillcolor="#5aade9"] ;
30 -> 31 ;
32 [label=<X<SUB>3</SUB> &le; 3.5<br/>entropy = 0.228<br/>samples = 733<br/>value = [706, 27]>, fillcolor="#e68641"] ;
30 -> 32 ;
33 [label=<entropy = 0.0<br/>samples = 176<br/>value = [176, 0]>, fillcolor="#e58139"] ;
32 -> 33 ;
34 [label=<X<SUB>1</SUB> &le; 99.5<br/>entropy = 0.28<br/>samples = 557<br/>value = [530, 27]>, fillcolor="#e68743"] ;
32 -> 34 ;
35 [label=<X<SUB>1</SUB> &le; 77.5<br/>entropy = 0.054<br/>samples = 161<br/>value = [160, 1]>, fillcolor="#e5823a"] ;
34 -> 35 ;
36 [label=<X<SUB>2</SUB> &le; 623.0<br/>entropy = 0.297<br/>samples = 19<br/>value = [18, 1]>, fillcolor="#e68844"] ;
35 -> 36 ;
37 [label=<entropy = 0.0<br/>samples = 18<br/>value = [18, 0]>, fillcolor="#e58139"] ;
36 -> 37 ;
38 [label=<entropy = 0.0<br/>samples = 1<br/>value = [0, 1]>, fillcolor="#399de5"] ;
36 -> 38 ;
39 [label=<entropy = 0.0<br/>samples = 142<br/>value = [142, 0]>, fillcolor="#e58139"] ;
35 -> 39 ;
40 [label=<X<SUB>1</SUB> &le; 121.0<br/>entropy = 0.35<br/>samples = 396<br/>value = [370, 26]>, fillcolor="#e78a47"] ;
34 -> 40 ;
41 [label=<X<SUB>2</SUB> &le; 505.5<br/>entropy = 0.536<br/>samples = 139<br/>value = [122, 17]>, fillcolor="#e99355"] ;
40 -> 41 ;
42 [label=<X<SUB>2</SUB> &le; 82.5<br/>entropy = 0.325<br/>samples = 101<br/>value = [95, 6]>, fillcolor="#e78946"] ;
41 -> 42 ;
43 [label=<X<SUB>1</SUB> &le; 110.5<br/>entropy = 0.811<br/>samples = 24<br/>value = [18, 6]>, fillcolor="#eeab7b"] ;
42 -> 43 ;
44 [label=<entropy = 0.0<br/>samples = 14<br/>value = [14, 0]>, fillcolor="#e58139"] ;
43 -> 44 ;
45 [label=<X<SUB>1</SUB> &le; 111.5<br/>entropy = 0.971<br/>samples = 10<br/>value = [4, 6]>, fillcolor="#bddef6"] ;
43 -> 45 ;
46 [label=<entropy = 0.0<br/>samples = 5<br/>value = [0, 5]>, fillcolor="#399de5"] ;
45 -> 46 ;
47 [label=<entropy = 0.722<br/>samples = 5<br/>value = [4, 1]>, fillcolor="#eca06a"] ;
45 -> 47 ;
48 [label=<entropy = 0.0<br/>samples = 77<br/>value = [77, 0]>, fillcolor="#e58139"] ;
42 -> 48 ;
49 [label=<X<SUB>1</SUB> &le; 118.0<br/>entropy = 0.868<br/>samples = 38<br/>value = [27, 11]>, fillcolor="#f0b48a"] ;
41 -> 49 ;
50 [label=<X<SUB>1</SUB> &le; 104.0<br/>entropy = 0.625<br/>samples = 32<br/>value = [27, 5]>, fillcolor="#ea985e"] ;
49 -> 50 ;
51 [label=<entropy = 0.722<br/>samples = 5<br/>value = [1, 4]>, fillcolor="#6ab6ec"] ;
50 -> 51 ;
52 [label=<X<SUB>2</SUB> &le; 527.0<br/>entropy = 0.229<br/>samples = 27<br/>value = [26, 1]>, fillcolor="#e68641"] ;
50 -> 52 ;
53 [label=<entropy = 1.0<br/>samples = 2<br/>value = [1, 1]>, fillcolor="#ffffff"] ;
52 -> 53 ;
54 [label=<entropy = 0.0<br/>samples = 25<br/>value = [25, 0]>, fillcolor="#e58139"] ;
52 -> 54 ;
55 [label=<entropy = 0.0<br/>samples = 6<br/>value = [0, 6]>, fillcolor="#399de5"] ;
49 -> 55 ;
56 [label=<X<SUB>1</SUB> &le; 157.0<br/>entropy = 0.219<br/>samples = 257<br/>value = [248, 9]>, fillcolor="#e68640"] ;
40 -> 56 ;
57 [label=<entropy = 0.0<br/>samples = 159<br/>value = [159, 0]>, fillcolor="#e58139"] ;
56 -> 57 ;
58 [label=<X<SUB>1</SUB> &le; 170.5<br/>entropy = 0.443<br/>samples = 98<br/>value = [89, 9]>, fillcolor="#e88e4d"] ;
56 -> 58 ;
59 [label=<X<SUB>1</SUB> &le; 168.5<br/>entropy = 0.79<br/>samples = 38<br/>value = [29, 9]>, fillcolor="#eda876"] ;
58 -> 59 ;
60 [label=<X<SUB>3</SUB> &le; 8.5<br/>entropy = 0.602<br/>samples = 34<br/>value = [29, 5]>, fillcolor="#e9975b"] ;
59 -> 60 ;
61 [label=<entropy = 0.811<br/>samples = 4<br/>value = [1, 3]>, fillcolor="#7bbeee"] ;
60 -> 61 ;
62 [label=<X<SUB>1</SUB> &le; 158.5<br/>entropy = 0.353<br/>samples = 30<br/>value = [28, 2]>, fillcolor="#e78a47"] ;
60 -> 62 ;
63 [label=<entropy = 0.0<br/>samples = 1<br/>value = [0, 1]>, fillcolor="#399de5"] ;
62 -> 63 ;
64 [label=<entropy = 0.216<br/>samples = 29<br/>value = [28, 1]>, fillcolor="#e68640"] ;
62 -> 64 ;
65 [label=<entropy = 0.0<br/>samples = 4<br/>value = [0, 4]>, fillcolor="#399de5"] ;
59 -> 65 ;
66 [label=<entropy = 0.0<br/>samples = 60<br/>value = [60, 0]>, fillcolor="#e58139"] ;
58 -> 66 ;
67 [label=<X<SUB>2</SUB> &le; 1003.5<br/>entropy = 0.872<br/>samples = 65<br/>value = [46, 19]>, fillcolor="#f0b58b"] ;
29 -> 67 ;
68 [label=<X<SUB>3</SUB> &le; 18.5<br/>entropy = 0.824<br/>samples = 62<br/>value = [46, 16]>, fillcolor="#eead7e"] ;
67 -> 68 ;
69 [label=<X<SUB>2</SUB> &le; 207.5<br/>entropy = 0.68<br/>samples = 50<br/>value = [41, 9]>, fillcolor="#eb9d64"] ;
68 -> 69 ;
70 [label=<X<SUB>3</SUB> &le; 16.5<br/>entropy = 0.937<br/>samples = 17<br/>value = [11, 6]>, fillcolor="#f3c6a5"] ;
69 -> 70 ;
71 [label=<X<SUB>2</SUB> &le; 83.5<br/>entropy = 0.994<br/>samples = 11<br/>value = [5, 6]>, fillcolor="#deeffb"] ;
70 -> 71 ;
72 [label=<entropy = 0.0<br/>samples = 3<br/>value = [0, 3]>, fillcolor="#399de5"] ;
71 -> 72 ;
73 [label=<X<SUB>3</SUB> &le; 14.5<br/>entropy = 0.954<br/>samples = 8<br/>value = [5, 3]>, fillcolor="#f5cdb0"] ;
71 -> 73 ;
74 [label=<entropy = 0.65<br/>samples = 6<br/>value = [5, 1]>, fillcolor="#ea9a61"] ;
73 -> 74 ;
75 [label=<entropy = 0.0<br/>samples = 2<br/>value = [0, 2]>, fillcolor="#399de5"] ;
73 -> 75 ;
76 [label=<entropy = 0.0<br/>samples = 6<br/>value = [6, 0]>, fillcolor="#e58139"] ;
70 -> 76 ;
77 [label=<X<SUB>2</SUB> &le; 723.5<br/>entropy = 0.439<br/>samples = 33<br/>value = [30, 3]>, fillcolor="#e88e4d"] ;
69 -> 77 ;
78 [label=<X<SUB>1</SUB> &le; 208.0<br/>entropy = 0.242<br/>samples = 25<br/>value = [24, 1]>, fillcolor="#e68641"] ;
77 -> 78 ;
79 [label=<entropy = 0.722<br/>samples = 5<br/>value = [4, 1]>, fillcolor="#eca06a"] ;
78 -> 79 ;
80 [label=<entropy = 0.0<br/>samples = 20<br/>value = [20, 0]>, fillcolor="#e58139"] ;
78 -> 80 ;
81 [label=<X<SUB>3</SUB> &le; 10.5<br/>entropy = 0.811<br/>samples = 8<br/>value = [6, 2]>, fillcolor="#eeab7b"] ;
77 -> 81 ;
82 [label=<entropy = 0.0<br/>samples = 5<br/>value = [5, 0]>, fillcolor="#e58139"] ;
81 -> 82 ;
83 [label=<entropy = 0.918<br/>samples = 3<br/>value = [1, 2]>, fillcolor="#9ccef2"] ;
81 -> 83 ;
84 [label=<X<SUB>0</SUB> &le; 33.5<br/>entropy = 0.98<br/>samples = 12<br/>value = [5, 7]>, fillcolor="#c6e3f8"] ;
68 -> 84 ;
85 [label=<X<SUB>0</SUB> &le; 11.0<br/>entropy = 0.544<br/>samples = 8<br/>value = [1, 7]>, fillcolor="#55abe9"] ;
84 -> 85 ;
86 [label=<entropy = 0.0<br/>samples = 1<br/>value = [1, 0]>, fillcolor="#e58139"] ;
85 -> 86 ;
87 [label=<entropy = 0.0<br/>samples = 7<br/>value = [0, 7]>, fillcolor="#399de5"] ;
85 -> 87 ;
88 [label=<entropy = 0.0<br/>samples = 4<br/>value = [4, 0]>, fillcolor="#e58139"] ;
84 -> 88 ;
89 [label=<entropy = 0.0<br/>samples = 3<br/>value = [0, 3]>, fillcolor="#399de5"] ;
67 -> 89 ;
90 [label=<X<SUB>1</SUB> &le; 86.5<br/>entropy = 0.871<br/>samples = 113<br/>value = [80, 33]>, fillcolor="#f0b58b"] ;
28 -> 90 ;
91 [label=<X<SUB>1</SUB> &le; 83.5<br/>entropy = 0.994<br/>samples = 22<br/>value = [10, 12]>, fillcolor="#deeffb"] ;
90 -> 91 ;
92 [label=<X<SUB>1</SUB> &le; 77.5<br/>entropy = 0.439<br/>samples = 11<br/>value = [10, 1]>, fillcolor="#e88e4d"] ;
91 -> 92 ;
93 [label=<entropy = 0.0<br/>samples = 1<br/>value = [0, 1]>, fillcolor="#399de5"] ;
92 -> 93 ;
94 [label=<entropy = 0.0<br/>samples = 10<br/>value = [10, 0]>, fillcolor="#e58139"] ;
92 -> 94 ;
95 [label=<entropy = 0.0<br/>samples = 11<br/>value = [0, 11]>, fillcolor="#399de5"] ;
91 -> 95 ;
96 [label=<X<SUB>1</SUB> &le; 105.0<br/>entropy = 0.779<br/>samples = 91<br/>value = [70, 21]>, fillcolor="#eda774"] ;
90 -> 96 ;
97 [label=<entropy = 0.0<br/>samples = 14<br/>value = [14, 0]>, fillcolor="#e58139"] ;
96 -> 97 ;
98 [label=<X<SUB>1</SUB> &le; 134.0<br/>entropy = 0.845<br/>samples = 77<br/>value = [56, 21]>, fillcolor="#efb083"] ;
96 -> 98 ;
99 [label=<X<SUB>1</SUB> &le; 130.5<br/>entropy = 0.992<br/>samples = 29<br/>value = [16, 13]>, fillcolor="#fae7da"] ;
98 -> 99 ;
100 [label=<X<SUB>1</SUB> &le; 124.5<br/>entropy = 0.918<br/>samples = 24<br/>value = [16, 8]>, fillcolor="#f2c09c"] ;
99 -> 100 ;
101 [label=<X<SUB>0</SUB> &le; 9.5<br/>entropy = 0.985<br/>samples = 14<br/>value = [6, 8]>, fillcolor="#cee6f8"] ;
100 -> 101 ;
102 [label=<entropy = 0.0<br/>samples = 4<br/>value = [4, 0]>, fillcolor="#e58139"] ;
101 -> 102 ;
103 [label=<X<SUB>2</SUB> &le; 1268.5<br/>entropy = 0.722<br/>samples = 10<br/>value = [2, 8]>, fillcolor="#6ab6ec"] ;
101 -> 103 ;
104 [label=<entropy = 0.0<br/>samples = 1<br/>value = [1, 0]>, fillcolor="#e58139"] ;
103 -> 104 ;
105 [label=<X<SUB>2</SUB> &le; 1972.5<br/>entropy = 0.503<br/>samples = 9<br/>value = [1, 8]>, fillcolor="#52a9e8"] ;
103 -> 105 ;
106 [label=<entropy = 0.0<br/>samples = 8<br/>value = [0, 8]>, fillcolor="#399de5"] ;
105 -> 106 ;
107 [label=<entropy = 0.0<br/>samples = 1<br/>value = [1, 0]>, fillcolor="#e58139"] ;
105 -> 107 ;
108 [label=<entropy = 0.0<br/>samples = 10<br/>value = [10, 0]>, fillcolor="#e58139"] ;
100 -> 108 ;
109 [label=<entropy = 0.0<br/>samples = 5<br/>value = [0, 5]>, fillcolor="#399de5"] ;
99 -> 109 ;
110 [label=<X<SUB>1</SUB> &le; 151.5<br/>entropy = 0.65<br/>samples = 48<br/>value = [40, 8]>, fillcolor="#ea9a61"] ;
98 -> 110 ;
111 [label=<entropy = 0.0<br/>samples = 17<br/>value = [17, 0]>, fillcolor="#e58139"] ;
110 -> 111 ;
112 [label=<X<SUB>3</SUB> &le; 11.5<br/>entropy = 0.824<br/>samples = 31<br/>value = [23, 8]>, fillcolor="#eead7e"] ;
110 -> 112 ;
113 [label=<X<SUB>1</SUB> &le; 201.5<br/>entropy = 0.454<br/>samples = 21<br/>value = [19, 2]>, fillcolor="#e88e4e"] ;
112 -> 113 ;
114 [label=<entropy = 0.0<br/>samples = 14<br/>value = [14, 0]>, fillcolor="#e58139"] ;
113 -> 114 ;
115 [label=<entropy = 0.863<br/>samples = 7<br/>value = [5, 2]>, fillcolor="#efb388"] ;
113 -> 115 ;
116 [label=<X<SUB>2</SUB> &le; 1479.0<br/>entropy = 0.971<br/>samples = 10<br/>value = [4, 6]>, fillcolor="#bddef6"] ;
112 -> 116 ;
117 [label=<entropy = 0.0<br/>samples = 3<br/>value = [0, 3]>, fillcolor="#399de5"] ;
116 -> 117 ;
118 [label=<entropy = 0.985<br/>samples = 7<br/>value = [4, 3]>, fillcolor="#f8e0ce"] ;
116 -> 118 ;
119 [label=<X<SUB>1</SUB> &le; 27.5<br/>entropy = 0.792<br/>samples = 706<br/>value = [538, 168]>, fillcolor="#eda877"] ;
7 -> 119 ;
120 [label=<X<SUB>0</SUB> &le; 5.5<br/>entropy = 0.98<br/>samples = 182<br/>value = [76, 106]>, fillcolor="#c7e3f8"] ;
119 -> 120 ;
121 [label=<X<SUB>1</SUB> &le; 26.5<br/>entropy = 0.258<br/>samples = 46<br/>value = [44, 2]>, fillcolor="#e68742"] ;
120 -> 121 ;
122 [label=<entropy = 0.0<br/>samples = 44<br/>value = [44, 0]>, fillcolor="#e58139"] ;
121 -> 122 ;
123 [label=<entropy = 0.0<br/>samples = 2<br/>value = [0, 2]>, fillcolor="#399de5"] ;
121 -> 123 ;
124 [label=<X<SUB>0</SUB> &le; 37.5<br/>entropy = 0.787<br/>samples = 136<br/>value = [32, 104]>, fillcolor="#76bbed"] ;
120 -> 124 ;
125 [label=<X<SUB>2</SUB> &le; 2098.0<br/>entropy = 0.589<br/>samples = 120<br/>value = [17, 103]>, fillcolor="#5aade9"] ;
124 -> 125 ;
126 [label=<entropy = 0.0<br/>samples = 6<br/>value = [6, 0]>, fillcolor="#e58139"] ;
125 -> 126 ;
127 [label=<X<SUB>3</SUB> &le; 18.5<br/>entropy = 0.458<br/>samples = 114<br/>value = [11, 103]>, fillcolor="#4ea7e8"] ;
125 -> 127 ;
128 [label=<X<SUB>3</SUB> &le; 16.5<br/>entropy = 0.587<br/>samples = 78<br/>value = [11, 67]>, fillcolor="#5aade9"] ;
127 -> 128 ;
129 [label=<X<SUB>3</SUB> &le; 2.5<br/>entropy = 0.255<br/>samples = 70<br/>value = [3, 67]>, fillcolor="#42a1e6"] ;
128 -> 129 ;
130 [label=<X<SUB>3</SUB> &le; 1.0<br/>entropy = 0.672<br/>samples = 17<br/>value = [3, 14]>, fillcolor="#63b2eb"] ;
129 -> 130 ;
131 [label=<entropy = 0.0<br/>samples = 14<br/>value = [0, 14]>, fillcolor="#399de5"] ;
130 -> 131 ;
132 [label=<entropy = 0.0<br/>samples = 3<br/>value = [3, 0]>, fillcolor="#e58139"] ;
130 -> 132 ;
133 [label=<entropy = 0.0<br/>samples = 53<br/>value = [0, 53]>, fillcolor="#399de5"] ;
129 -> 133 ;
134 [label=<entropy = 0.0<br/>samples = 8<br/>value = [8, 0]>, fillcolor="#e58139"] ;
128 -> 134 ;
135 [label=<entropy = 0.0<br/>samples = 36<br/>value = [0, 36]>, fillcolor="#399de5"] ;
127 -> 135 ;
136 [label=<X<SUB>3</SUB> &le; 18.5<br/>entropy = 0.337<br/>samples = 16<br/>value = [15, 1]>, fillcolor="#e78946"] ;
124 -> 136 ;
137 [label=<entropy = 0.0<br/>samples = 15<br/>value = [15, 0]>, fillcolor="#e58139"] ;
136 -> 137 ;
138 [label=<entropy = 0.0<br/>samples = 1<br/>value = [0, 1]>, fillcolor="#399de5"] ;
136 -> 138 ;
139 [label=<X<SUB>1</SUB> &le; 83.5<br/>entropy = 0.525<br/>samples = 524<br/>value = [462, 62]>, fillcolor="#e89254"] ;
119 -> 139 ;
140 [label=<X<SUB>1</SUB> &le; 33.5<br/>entropy = 0.262<br/>samples = 406<br/>value = [388, 18]>, fillcolor="#e68742"] ;
139 -> 140 ;
141 [label=<entropy = 0.0<br/>samples = 120<br/>value = [120, 0]>, fillcolor="#e58139"] ;
140 -> 141 ;
142 [label=<X<SUB>1</SUB> &le; 43.5<br/>entropy = 0.339<br/>samples = 286<br/>value = [268, 18]>, fillcolor="#e78946"] ;
140 -> 142 ;
143 [label=<X<SUB>0</SUB> &le; 12.5<br/>entropy = 0.82<br/>samples = 43<br/>value = [32, 11]>, fillcolor="#eeac7d"] ;
142 -> 143 ;
144 [label=<X<SUB>3</SUB> &le; 2.0<br/>entropy = 0.94<br/>samples = 14<br/>value = [5, 9]>, fillcolor="#a7d3f3"] ;
143 -> 144 ;
145 [label=<entropy = 0.722<br/>samples = 5<br/>value = [4, 1]>, fillcolor="#eca06a"] ;
144 -> 145 ;
146 [label=<X<SUB>1</SUB> &le; 35.5<br/>entropy = 0.503<br/>samples = 9<br/>value = [1, 8]>, fillcolor="#52a9e8"] ;
144 -> 146 ;
147 [label=<entropy = 1.0<br/>samples = 2<br/>value = [1, 1]>, fillcolor="#ffffff"] ;
146 -> 147 ;
148 [label=<entropy = 0.0<br/>samples = 7<br/>value = [0, 7]>, fillcolor="#399de5"] ;
146 -> 148 ;
149 [label=<X<SUB>2</SUB> &le; 2122.5<br/>entropy = 0.362<br/>samples = 29<br/>value = [27, 2]>, fillcolor="#e78a48"] ;
143 -> 149 ;
150 [label=<entropy = 0.0<br/>samples = 2<br/>value = [0, 2]>, fillcolor="#399de5"] ;
149 -> 150 ;
151 [label=<entropy = 0.0<br/>samples = 27<br/>value = [27, 0]>, fillcolor="#e58139"] ;
149 -> 151 ;
152 [label=<X<SUB>1</SUB> &le; 61.5<br/>entropy = 0.188<br/>samples = 243<br/>value = [236, 7]>, fillcolor="#e6853f"] ;
142 -> 152 ;
153 [label=<entropy = 0.0<br/>samples = 180<br/>value = [180, 0]>, fillcolor="#e58139"] ;
152 -> 153 ;
154 [label=<X<SUB>1</SUB> &le; 64.5<br/>entropy = 0.503<br/>samples = 63<br/>value = [56, 7]>, fillcolor="#e89152"] ;
152 -> 154 ;
155 [label=<entropy = 0.722<br/>samples = 5<br/>value = [1, 4]>, fillcolor="#6ab6ec"] ;
154 -> 155 ;
156 [label=<X<SUB>2</SUB> &le; 3392.5<br/>entropy = 0.294<br/>samples = 58<br/>value = [55, 3]>, fillcolor="#e68844"] ;
154 -> 156 ;
157 [label=<X<SUB>2</SUB> &le; 2169.5<br/>entropy = 0.146<br/>samples = 48<br/>value = [47, 1]>, fillcolor="#e6843d"] ;
156 -> 157 ;
158 [label=<entropy = 0.592<br/>samples = 7<br/>value = [6, 1]>, fillcolor="#e9965a"] ;
157 -> 158 ;
159 [label=<entropy = 0.0<br/>samples = 41<br/>value = [41, 0]>, fillcolor="#e58139"] ;
157 -> 159 ;
160 [label=<X<SUB>0</SUB> &le; 5.0<br/>entropy = 0.722<br/>samples = 10<br/>value = [8, 2]>, fillcolor="#eca06a"] ;
156 -> 160 ;
161 [label=<entropy = 0.0<br/>samples = 1<br/>value = [0, 1]>, fillcolor="#399de5"] ;
160 -> 161 ;
162 [label=<X<SUB>0</SUB> &le; 40.0<br/>entropy = 0.503<br/>samples = 9<br/>value = [8, 1]>, fillcolor="#e89152"] ;
160 -> 162 ;
163 [label=<entropy = 0.0<br/>samples = 7<br/>value = [7, 0]>, fillcolor="#e58139"] ;
162 -> 163 ;
164 [label=<entropy = 1.0<br/>samples = 2<br/>value = [1, 1]>, fillcolor="#ffffff"] ;
162 -> 164 ;
165 [label=<X<SUB>1</SUB> &le; 87.5<br/>entropy = 0.953<br/>samples = 118<br/>value = [74, 44]>, fillcolor="#f4ccaf"] ;
139 -> 165 ;
166 [label=<entropy = 0.0<br/>samples = 7<br/>value = [0, 7]>, fillcolor="#399de5"] ;
165 -> 166 ;
167 [label=<X<SUB>1</SUB> &le; 111.0<br/>entropy = 0.918<br/>samples = 111<br/>value = [74, 37]>, fillcolor="#f2c09c"] ;
165 -> 167 ;
168 [label=<X<SUB>2</SUB> &le; 3025.0<br/>entropy = 0.48<br/>samples = 29<br/>value = [26, 3]>, fillcolor="#e89050"] ;
167 -> 168 ;
169 [label=<X<SUB>1</SUB> &le; 93.5<br/>entropy = 0.722<br/>samples = 15<br/>value = [12, 3]>, fillcolor="#eca06a"] ;
168 -> 169 ;
170 [label=<entropy = 0.0<br/>samples = 2<br/>value = [0, 2]>, fillcolor="#399de5"] ;
169 -> 170 ;
171 [label=<X<SUB>2</SUB> &le; 2887.5<br/>entropy = 0.391<br/>samples = 13<br/>value = [12, 1]>, fillcolor="#e78c49"] ;
169 -> 171 ;
172 [label=<entropy = 0.0<br/>samples = 12<br/>value = [12, 0]>, fillcolor="#e58139"] ;
171 -> 172 ;
173 [label=<entropy = 0.0<br/>samples = 1<br/>value = [0, 1]>, fillcolor="#399de5"] ;
171 -> 173 ;
174 [label=<entropy = 0.0<br/>samples = 14<br/>value = [14, 0]>, fillcolor="#e58139"] ;
168 -> 174 ;
175 [label=<X<SUB>3</SUB> &le; 17.5<br/>entropy = 0.979<br/>samples = 82<br/>value = [48, 34]>, fillcolor="#f7dac5"] ;
167 -> 175 ;
176 [label=<X<SUB>1</SUB> &le; 147.5<br/>entropy = 0.918<br/>samples = 69<br/>value = [46, 23]>, fillcolor="#f2c09c"] ;
175 -> 176 ;
177 [label=<X<SUB>2</SUB> &le; 2038.0<br/>entropy = 0.996<br/>samples = 28<br/>value = [13, 15]>, fillcolor="#e5f2fc"] ;
176 -> 177 ;
178 [label=<entropy = 0.0<br/>samples = 2<br/>value = [2, 0]>, fillcolor="#e58139"] ;
177 -> 178 ;
179 [label=<X<SUB>1</SUB> &le; 128.5<br/>entropy = 0.983<br/>samples = 26<br/>value = [11, 15]>, fillcolor="#cae5f8"] ;
177 -> 179 ;
180 [label=<X<SUB>1</SUB> &le; 114.5<br/>entropy = 0.961<br/>samples = 13<br/>value = [8, 5]>, fillcolor="#f5d0b5"] ;
179 -> 180 ;
181 [label=<entropy = 0.0<br/>samples = 2<br/>value = [0, 2]>, fillcolor="#399de5"] ;
180 -> 181 ;
182 [label=<X<SUB>3</SUB> &le; 6.5<br/>entropy = 0.845<br/>samples = 11<br/>value = [8, 3]>, fillcolor="#efb083"] ;
180 -> 182 ;
183 [label=<entropy = 0.0<br/>samples = 5<br/>value = [5, 0]>, fillcolor="#e58139"] ;
182 -> 183 ;
184 [label=<entropy = 1.0<br/>samples = 6<br/>value = [3, 3]>, fillcolor="#ffffff"] ;
182 -> 184 ;
185 [label=<X<SUB>1</SUB> &le; 136.5<br/>entropy = 0.779<br/>samples = 13<br/>value = [3, 10]>, fillcolor="#74baed"] ;
179 -> 185 ;
186 [label=<entropy = 0.0<br/>samples = 7<br/>value = [0, 7]>, fillcolor="#399de5"] ;
185 -> 186 ;
187 [label=<entropy = 1.0<br/>samples = 6<br/>value = [3, 3]>, fillcolor="#ffffff"] ;
185 -> 187 ;
188 [label=<X<SUB>1</SUB> &le; 149.5<br/>entropy = 0.712<br/>samples = 41<br/>value = [33, 8]>, fillcolor="#eba069"] ;
176 -> 188 ;
189 [label=<entropy = 0.0<br/>samples = 10<br/>value = [10, 0]>, fillcolor="#e58139"] ;
188 -> 189 ;
190 [label=<X<SUB>0</SUB> &le; 6.5<br/>entropy = 0.824<br/>samples = 31<br/>value = [23, 8]>, fillcolor="#eead7e"] ;
188 -> 190 ;
191 [label=<X<SUB>1</SUB> &le; 182.5<br/>entropy = 1.0<br/>samples = 10<br/>value = [5, 5]>, fillcolor="#ffffff"] ;
190 -> 191 ;
192 [label=<entropy = 0.0<br/>samples = 3<br/>value = [0, 3]>, fillcolor="#399de5"] ;
191 -> 192 ;
193 [label=<entropy = 0.863<br/>samples = 7<br/>value = [5, 2]>, fillcolor="#efb388"] ;
191 -> 193 ;
194 [label=<X<SUB>3</SUB> &le; 15.5<br/>entropy = 0.592<br/>samples = 21<br/>value = [18, 3]>, fillcolor="#e9965a"] ;
190 -> 194 ;
195 [label=<X<SUB>1</SUB> &le; 153.5<br/>entropy = 0.31<br/>samples = 18<br/>value = [17, 1]>, fillcolor="#e78845"] ;
194 -> 195 ;
196 [label=<entropy = 0.0<br/>samples = 1<br/>value = [0, 1]>, fillcolor="#399de5"] ;
195 -> 196 ;
197 [label=<entropy = 0.0<br/>samples = 17<br/>value = [17, 0]>, fillcolor="#e58139"] ;
195 -> 197 ;
198 [label=<entropy = 0.918<br/>samples = 3<br/>value = [1, 2]>, fillcolor="#9ccef2"] ;
194 -> 198 ;
199 [label=<X<SUB>3</SUB> &le; 20.5<br/>entropy = 0.619<br/>samples = 13<br/>value = [2, 11]>, fillcolor="#5dafea"] ;
175 -> 199 ;
200 [label=<entropy = 0.0<br/>samples = 11<br/>value = [0, 11]>, fillcolor="#399de5"] ;
199 -> 200 ;
201 [label=<entropy = 0.0<br/>samples = 2<br/>value = [2, 0]>, fillcolor="#e58139"] ;
199 -> 201 ;
202 [label=<X<SUB>2</SUB> &le; 7517.5<br/>entropy = 0.976<br/>samples = 1420<br/>value = [580, 840]>, fillcolor="#c2e1f7"] ;
0 -> 202 [labeldistance=2.5, labelangle=-45, headlabel="False"] ;
203 [label=<X<SUB>1</SUB> &le; 8.5<br/>entropy = 0.998<br/>samples = 939<br/>value = [497, 442]>, fillcolor="#fcf1e9"] ;
202 -> 203 ;
204 [label=<X<SUB>1</SUB> &le; 6.5<br/>entropy = 0.5<br/>samples = 209<br/>value = [186, 23]>, fillcolor="#e89151"] ;
203 -> 204 ;
205 [label=<X<SUB>1</SUB> &le; 1.5<br/>entropy = 0.996<br/>samples = 41<br/>value = [19, 22]>, fillcolor="#e4f2fb"] ;
204 -> 205 ;
206 [label=<entropy = 0.0<br/>samples = 18<br/>value = [18, 0]>, fillcolor="#e58139"] ;
205 -> 206 ;
207 [label=<X<SUB>3</SUB> &le; 11.5<br/>entropy = 0.258<br/>samples = 23<br/>value = [1, 22]>, fillcolor="#42a1e6"] ;
205 -> 207 ;
208 [label=<entropy = 0.0<br/>samples = 22<br/>value = [0, 22]>, fillcolor="#399de5"] ;
207 -> 208 ;
209 [label=<entropy = 0.0<br/>samples = 1<br/>value = [1, 0]>, fillcolor="#e58139"] ;
207 -> 209 ;
210 [label=<X<SUB>2</SUB> &le; 7473.0<br/>entropy = 0.053<br/>samples = 168<br/>value = [167, 1]>, fillcolor="#e5823a"] ;
204 -> 210 ;
211 [label=<entropy = 0.0<br/>samples = 167<br/>value = [167, 0]>, fillcolor="#e58139"] ;
210 -> 211 ;
212 [label=<entropy = 0.0<br/>samples = 1<br/>value = [0, 1]>, fillcolor="#399de5"] ;
210 -> 212 ;
213 [label=<X<SUB>1</SUB> &le; 12.5<br/>entropy = 0.984<br/>samples = 730<br/>value = [311, 419]>, fillcolor="#cce6f8"] ;
203 -> 213 ;
214 [label=<entropy = 0.0<br/>samples = 225<br/>value = [0, 225]>, fillcolor="#399de5"] ;
213 -> 214 ;
215 [label=<X<SUB>1</SUB> &le; 51.5<br/>entropy = 0.961<br/>samples = 505<br/>value = [311, 194]>, fillcolor="#f5d0b5"] ;
213 -> 215 ;
216 [label=<X<SUB>1</SUB> &le; 32.5<br/>entropy = 0.756<br/>samples = 308<br/>value = [241, 67]>, fillcolor="#eca470"] ;
215 -> 216 ;
217 [label=<X<SUB>1</SUB> &le; 30.5<br/>entropy = 0.98<br/>samples = 158<br/>value = [92, 66]>, fillcolor="#f8dbc7"] ;
216 -> 217 ;
218 [label=<X<SUB>1</SUB> &le; 27.5<br/>entropy = 0.891<br/>samples = 133<br/>value = [92, 41]>, fillcolor="#f1b991"] ;
217 -> 218 ;
219 [label=<X<SUB>1</SUB> &le; 16.0<br/>entropy = 0.994<br/>samples = 90<br/>value = [49, 41]>, fillcolor="#fbeadf"] ;
218 -> 219 ;
220 [label=<entropy = 0.0<br/>samples = 24<br/>value = [24, 0]>, fillcolor="#e58139"] ;
219 -> 220 ;
221 [label=<X<SUB>1</SUB> &le; 22.5<br/>entropy = 0.957<br/>samples = 66<br/>value = [25, 41]>, fillcolor="#b2d9f5"] ;
219 -> 221 ;
222 [label=<X<SUB>1</SUB> &le; 18.5<br/>entropy = 0.967<br/>samples = 28<br/>value = [17, 11]>, fillcolor="#f6d3b9"] ;
221 -> 222 ;
223 [label=<entropy = 0.0<br/>samples = 10<br/>value = [0, 10]>, fillcolor="#399de5"] ;
222 -> 223 ;
224 [label=<X<SUB>0</SUB> &le; 19.5<br/>entropy = 0.31<br/>samples = 18<br/>value = [17, 1]>, fillcolor="#e78845"] ;
222 -> 224 ;
225 [label=<entropy = 0.722<br/>samples = 5<br/>value = [4, 1]>, fillcolor="#eca06a"] ;
224 -> 225 ;
226 [label=<entropy = 0.0<br/>samples = 13<br/>value = [13, 0]>, fillcolor="#e58139"] ;
224 -> 226 ;
227 [label=<X<SUB>1</SUB> &le; 25.5<br/>entropy = 0.742<br/>samples = 38<br/>value = [8, 30]>, fillcolor="#6eb7ec"] ;
221 -> 227 ;
228 [label=<X<SUB>2</SUB> &le; 7055.0<br/>entropy = 0.459<br/>samples = 31<br/>value = [3, 28]>, fillcolor="#4ea8e8"] ;
227 -> 228 ;
229 [label=<X<SUB>3</SUB> &le; 7.5<br/>entropy = 0.353<br/>samples = 30<br/>value = [2, 28]>, fillcolor="#47a4e7"] ;
228 -> 229 ;
230 [label=<X<SUB>3</SUB> &le; 3.5<br/>entropy = 0.567<br/>samples = 15<br/>value = [2, 13]>, fillcolor="#57ace9"] ;
229 -> 230 ;
231 [label=<entropy = 0.0<br/>samples = 13<br/>value = [0, 13]>, fillcolor="#399de5"] ;
230 -> 231 ;
232 [label=<entropy = 0.0<br/>samples = 2<br/>value = [2, 0]>, fillcolor="#e58139"] ;
230 -> 232 ;
233 [label=<entropy = 0.0<br/>samples = 15<br/>value = [0, 15]>, fillcolor="#399de5"] ;
229 -> 233 ;
234 [label=<entropy = 0.0<br/>samples = 1<br/>value = [1, 0]>, fillcolor="#e58139"] ;
228 -> 234 ;
235 [label=<entropy = 0.863<br/>samples = 7<br/>value = [5, 2]>, fillcolor="#efb388"] ;
227 -> 235 ;
236 [label=<entropy = 0.0<br/>samples = 43<br/>value = [43, 0]>, fillcolor="#e58139"] ;
218 -> 236 ;
237 [label=<entropy = 0.0<br/>samples = 25<br/>value = [0, 25]>, fillcolor="#399de5"] ;
217 -> 237 ;
238 [label=<X<SUB>2</SUB> &le; 4053.0<br/>entropy = 0.058<br/>samples = 150<br/>value = [149, 1]>, fillcolor="#e5823a"] ;
216 -> 238 ;
239 [label=<entropy = 0.811<br/>samples = 4<br/>value = [3, 1]>, fillcolor="#eeab7b"] ;
238 -> 239 ;
240 [label=<entropy = 0.0<br/>samples = 146<br/>value = [146, 0]>, fillcolor="#e58139"] ;
238 -> 240 ;
241 [label=<X<SUB>1</SUB> &le; 53.5<br/>entropy = 0.939<br/>samples = 197<br/>value = [70, 127]>, fillcolor="#a6d3f3"] ;
215 -> 241 ;
242 [label=<entropy = 0.0<br/>samples = 40<br/>value = [0, 40]>, fillcolor="#399de5"] ;
241 -> 242 ;
243 [label=<X<SUB>1</SUB> &le; 160.0<br/>entropy = 0.992<br/>samples = 157<br/>value = [70, 87]>, fillcolor="#d8ecfa"] ;
241 -> 243 ;
244 [label=<X<SUB>0</SUB> &le; 33.5<br/>entropy = 0.964<br/>samples = 134<br/>value = [52, 82]>, fillcolor="#b7dbf5"] ;
243 -> 244 ;
245 [label=<X<SUB>1</SUB> &le; 107.5<br/>entropy = 0.994<br/>samples = 106<br/>value = [48, 58]>, fillcolor="#ddeefb"] ;
244 -> 245 ;
246 [label=<X<SUB>1</SUB> &le; 79.5<br/>entropy = 0.993<br/>samples = 71<br/>value = [39, 32]>, fillcolor="#fae8db"] ;
245 -> 246 ;
247 [label=<X<SUB>1</SUB> &le; 61.5<br/>entropy = 0.989<br/>samples = 48<br/>value = [21, 27]>, fillcolor="#d3e9f9"] ;
246 -> 247 ;
248 [label=<X<SUB>1</SUB> &le; 55.5<br/>entropy = 0.918<br/>samples = 24<br/>value = [16, 8]>, fillcolor="#f2c09c"] ;
247 -> 248 ;
249 [label=<entropy = 0.592<br/>samples = 7<br/>value = [1, 6]>, fillcolor="#5aade9"] ;
248 -> 249 ;
250 [label=<X<SUB>3</SUB> &le; 2.5<br/>entropy = 0.523<br/>samples = 17<br/>value = [15, 2]>, fillcolor="#e89253"] ;
248 -> 250 ;
251 [label=<entropy = 0.918<br/>samples = 6<br/>value = [4, 2]>, fillcolor="#f2c09c"] ;
250 -> 251 ;
252 [label=<entropy = 0.0<br/>samples = 11<br/>value = [11, 0]>, fillcolor="#e58139"] ;
250 -> 252 ;
253 [label=<X<SUB>2</SUB> &le; 6198.0<br/>entropy = 0.738<br/>samples = 24<br/>value = [5, 19]>, fillcolor="#6db7ec"] ;
247 -> 253 ;
254 [label=<X<SUB>1</SUB> &le; 74.5<br/>entropy = 0.297<br/>samples = 19<br/>value = [1, 18]>, fillcolor="#44a2e6"] ;
253 -> 254 ;
255 [label=<entropy = 0.0<br/>samples = 13<br/>value = [0, 13]>, fillcolor="#399de5"] ;
254 -> 255 ;
256 [label=<entropy = 0.65<br/>samples = 6<br/>value = [1, 5]>, fillcolor="#61b1ea"] ;
254 -> 256 ;
257 [label=<entropy = 0.722<br/>samples = 5<br/>value = [4, 1]>, fillcolor="#eca06a"] ;
253 -> 257 ;
258 [label=<X<SUB>1</SUB> &le; 84.0<br/>entropy = 0.755<br/>samples = 23<br/>value = [18, 5]>, fillcolor="#eca470"] ;
246 -> 258 ;
259 [label=<entropy = 0.0<br/>samples = 11<br/>value = [11, 0]>, fillcolor="#e58139"] ;
258 -> 259 ;
260 [label=<X<SUB>0</SUB> &le; 19.0<br/>entropy = 0.98<br/>samples = 12<br/>value = [7, 5]>, fillcolor="#f8dbc6"] ;
258 -> 260 ;
261 [label=<X<SUB>2</SUB> &le; 4043.5<br/>entropy = 0.881<br/>samples = 10<br/>value = [7, 3]>, fillcolor="#f0b78e"] ;
260 -> 261 ;
262 [label=<entropy = 0.0<br/>samples = 1<br/>value = [0, 1]>, fillcolor="#399de5"] ;
261 -> 262 ;
263 [label=<X<SUB>1</SUB> &le; 103.5<br/>entropy = 0.764<br/>samples = 9<br/>value = [7, 2]>, fillcolor="#eca572"] ;
261 -> 263 ;
264 [label=<entropy = 0.918<br/>samples = 6<br/>value = [4, 2]>, fillcolor="#f2c09c"] ;
263 -> 264 ;
265 [label=<entropy = 0.0<br/>samples = 3<br/>value = [3, 0]>, fillcolor="#e58139"] ;
263 -> 265 ;
266 [label=<entropy = 0.0<br/>samples = 2<br/>value = [0, 2]>, fillcolor="#399de5"] ;
260 -> 266 ;
267 [label=<X<SUB>2</SUB> &le; 4427.5<br/>entropy = 0.822<br/>samples = 35<br/>value = [9, 26]>, fillcolor="#7ebfee"] ;
245 -> 267 ;
268 [label=<entropy = 0.0<br/>samples = 9<br/>value = [0, 9]>, fillcolor="#399de5"] ;
267 -> 268 ;
269 [label=<X<SUB>1</SUB> &le; 112.0<br/>entropy = 0.931<br/>samples = 26<br/>value = [9, 17]>, fillcolor="#a2d1f3"] ;
267 -> 269 ;
270 [label=<entropy = 0.0<br/>samples = 5<br/>value = [0, 5]>, fillcolor="#399de5"] ;
269 -> 270 ;
271 [label=<X<SUB>1</SUB> &le; 147.0<br/>entropy = 0.985<br/>samples = 21<br/>value = [9, 12]>, fillcolor="#cee6f8"] ;
269 -> 271 ;
272 [label=<X<SUB>0</SUB> &le; 6.0<br/>entropy = 0.985<br/>samples = 14<br/>value = [8, 6]>, fillcolor="#f8e0ce"] ;
271 -> 272 ;
273 [label=<entropy = 0.0<br/>samples = 3<br/>value = [0, 3]>, fillcolor="#399de5"] ;
272 -> 273 ;
274 [label=<X<SUB>3</SUB> &le; 16.5<br/>entropy = 0.845<br/>samples = 11<br/>value = [8, 3]>, fillcolor="#efb083"] ;
272 -> 274 ;
275 [label=<entropy = 0.0<br/>samples = 6<br/>value = [6, 0]>, fillcolor="#e58139"] ;
274 -> 275 ;
276 [label=<entropy = 0.971<br/>samples = 5<br/>value = [2, 3]>, fillcolor="#bddef6"] ;
274 -> 276 ;
277 [label=<entropy = 0.592<br/>samples = 7<br/>value = [1, 6]>, fillcolor="#5aade9"] ;
271 -> 277 ;
278 [label=<X<SUB>1</SUB> &le; 57.5<br/>entropy = 0.592<br/>samples = 28<br/>value = [4, 24]>, fillcolor="#5aade9"] ;
244 -> 278 ;
279 [label=<entropy = 0.0<br/>samples = 2<br/>value = [2, 0]>, fillcolor="#e58139"] ;
278 -> 279 ;
280 [label=<X<SUB>2</SUB> &le; 6533.5<br/>entropy = 0.391<br/>samples = 26<br/>value = [2, 24]>, fillcolor="#49a5e7"] ;
278 -> 280 ;
281 [label=<entropy = 0.0<br/>samples = 21<br/>value = [0, 21]>, fillcolor="#399de5"] ;
280 -> 281 ;
282 [label=<entropy = 0.971<br/>samples = 5<br/>value = [2, 3]>, fillcolor="#bddef6"] ;
280 -> 282 ;
283 [label=<X<SUB>3</SUB> &le; 18.5<br/>entropy = 0.755<br/>samples = 23<br/>value = [18, 5]>, fillcolor="#eca470"] ;
243 -> 283 ;
284 [label=<X<SUB>1</SUB> &le; 212.5<br/>entropy = 0.592<br/>samples = 21<br/>value = [18, 3]>, fillcolor="#e9965a"] ;
283 -> 284 ;
285 [label=<entropy = 0.0<br/>samples = 14<br/>value = [14, 0]>, fillcolor="#e58139"] ;
284 -> 285 ;
286 [label=<entropy = 0.985<br/>samples = 7<br/>value = [4, 3]>, fillcolor="#f8e0ce"] ;
284 -> 286 ;
287 [label=<entropy = 0.0<br/>samples = 2<br/>value = [0, 2]>, fillcolor="#399de5"] ;
283 -> 287 ;
288 [label=<X<SUB>3</SUB> &le; 1.5<br/>entropy = 0.664<br/>samples = 481<br/>value = [83, 398]>, fillcolor="#62b1ea"] ;
202 -> 288 ;
289 [label=<X<SUB>2</SUB> &le; 14875.0<br/>entropy = 0.995<br/>samples = 124<br/>value = [57, 67]>, fillcolor="#e1f0fb"] ;
288 -> 289 ;
290 [label=<X<SUB>1</SUB> &le; 4.5<br/>entropy = 0.87<br/>samples = 79<br/>value = [56, 23]>, fillcolor="#f0b58a"] ;
289 -> 290 ;
291 [label=<entropy = 0.0<br/>samples = 35<br/>value = [35, 0]>, fillcolor="#e58139"] ;
290 -> 291 ;
292 [label=<X<SUB>1</SUB> &le; 57.5<br/>entropy = 0.999<br/>samples = 44<br/>value = [21, 23]>, fillcolor="#eef6fd"] ;
290 -> 292 ;
293 [label=<X<SUB>1</SUB> &le; 35.5<br/>entropy = 0.929<br/>samples = 29<br/>value = [19, 10]>, fillcolor="#f3c3a1"] ;
292 -> 293 ;
294 [label=<X<SUB>0</SUB> &le; 2.5<br/>entropy = 0.89<br/>samples = 13<br/>value = [4, 9]>, fillcolor="#91c9f1"] ;
293 -> 294 ;
295 [label=<entropy = 0.918<br/>samples = 6<br/>value = [4, 2]>, fillcolor="#f2c09c"] ;
294 -> 295 ;
296 [label=<entropy = 0.0<br/>samples = 7<br/>value = [0, 7]>, fillcolor="#399de5"] ;
294 -> 296 ;
297 [label=<X<SUB>3</SUB> &le; 0.5<br/>entropy = 0.337<br/>samples = 16<br/>value = [15, 1]>, fillcolor="#e78946"] ;
293 -> 297 ;
298 [label=<entropy = 0.0<br/>samples = 1<br/>value = [0, 1]>, fillcolor="#399de5"] ;
297 -> 298 ;
299 [label=<entropy = 0.0<br/>samples = 15<br/>value = [15, 0]>, fillcolor="#e58139"] ;
297 -> 299 ;
300 [label=<X<SUB>2</SUB> &le; 13523.0<br/>entropy = 0.567<br/>samples = 15<br/>value = [2, 13]>, fillcolor="#57ace9"] ;
292 -> 300 ;
301 [label=<X<SUB>1</SUB> &le; 81.0<br/>entropy = 0.371<br/>samples = 14<br/>value = [1, 13]>, fillcolor="#48a5e7"] ;
300 -> 301 ;
302 [label=<entropy = 0.0<br/>samples = 7<br/>value = [0, 7]>, fillcolor="#399de5"] ;
301 -> 302 ;
303 [label=<entropy = 0.592<br/>samples = 7<br/>value = [1, 6]>, fillcolor="#5aade9"] ;
301 -> 303 ;
304 [label=<entropy = 0.0<br/>samples = 1<br/>value = [1, 0]>, fillcolor="#e58139"] ;
300 -> 304 ;
305 [label=<X<SUB>2</SUB> &le; 71025.5<br/>entropy = 0.154<br/>samples = 45<br/>value = [1, 44]>, fillcolor="#3d9fe6"] ;
289 -> 305 ;
306 [label=<entropy = 0.0<br/>samples = 44<br/>value = [0, 44]>, fillcolor="#399de5"] ;
305 -> 306 ;
307 [label=<entropy = 0.0<br/>samples = 1<br/>value = [1, 0]>, fillcolor="#e58139"] ;
305 -> 307 ;
308 [label=<X<SUB>1</SUB> &le; 36.5<br/>entropy = 0.376<br/>samples = 357<br/>value = [26, 331]>, fillcolor="#49a5e7"] ;
288 -> 308 ;
309 [label=<X<SUB>3</SUB> &le; 16.5<br/>entropy = 0.076<br/>samples = 216<br/>value = [2, 214]>, fillcolor="#3b9ee5"] ;
308 -> 309 ;
310 [label=<entropy = 0.0<br/>samples = 161<br/>value = [0, 161]>, fillcolor="#399de5"] ;
309 -> 310 ;
311 [label=<X<SUB>3</SUB> &le; 17.5<br/>entropy = 0.225<br/>samples = 55<br/>value = [2, 53]>, fillcolor="#40a1e6"] ;
309 -> 311 ;
312 [label=<X<SUB>2</SUB> &le; 11045.5<br/>entropy = 0.469<br/>samples = 20<br/>value = [2, 18]>, fillcolor="#4fa8e8"] ;
311 -> 312 ;
313 [label=<X<SUB>2</SUB> &le; 10664.5<br/>entropy = 0.811<br/>samples = 8<br/>value = [2, 6]>, fillcolor="#7bbeee"] ;
312 -> 313 ;
314 [label=<entropy = 0.0<br/>samples = 6<br/>value = [0, 6]>, fillcolor="#399de5"] ;
313 -> 314 ;
315 [label=<entropy = 0.0<br/>samples = 2<br/>value = [2, 0]>, fillcolor="#e58139"] ;
313 -> 315 ;
316 [label=<entropy = 0.0<br/>samples = 12<br/>value = [0, 12]>, fillcolor="#399de5"] ;
312 -> 316 ;
317 [label=<entropy = 0.0<br/>samples = 35<br/>value = [0, 35]>, fillcolor="#399de5"] ;
311 -> 317 ;
318 [label=<X<SUB>1</SUB> &le; 49.5<br/>entropy = 0.658<br/>samples = 141<br/>value = [24, 117]>, fillcolor="#62b1ea"] ;
308 -> 318 ;
319 [label=<X<SUB>2</SUB> &le; 14360.5<br/>entropy = 0.962<br/>samples = 44<br/>value = [17, 27]>, fillcolor="#b6dbf5"] ;
318 -> 319 ;
320 [label=<X<SUB>1</SUB> &le; 38.5<br/>entropy = 0.999<br/>samples = 33<br/>value = [17, 16]>, fillcolor="#fdf8f3"] ;
319 -> 320 ;
321 [label=<entropy = 0.0<br/>samples = 6<br/>value = [6, 0]>, fillcolor="#e58139"] ;
320 -> 321 ;
322 [label=<X<SUB>1</SUB> &le; 43.5<br/>entropy = 0.975<br/>samples = 27<br/>value = [11, 16]>, fillcolor="#c1e0f7"] ;
320 -> 322 ;
323 [label=<X<SUB>1</SUB> &le; 40.0<br/>entropy = 0.742<br/>samples = 19<br/>value = [4, 15]>, fillcolor="#6eb7ec"] ;
322 -> 323 ;
324 [label=<entropy = 0.985<br/>samples = 7<br/>value = [4, 3]>, fillcolor="#f8e0ce"] ;
323 -> 324 ;
325 [label=<entropy = 0.0<br/>samples = 12<br/>value = [0, 12]>, fillcolor="#399de5"] ;
323 -> 325 ;
326 [label=<X<SUB>3</SUB> &le; 10.0<br/>entropy = 0.544<br/>samples = 8<br/>value = [7, 1]>, fillcolor="#e99355"] ;
322 -> 326 ;
327 [label=<entropy = 1.0<br/>samples = 2<br/>value = [1, 1]>, fillcolor="#ffffff"] ;
326 -> 327 ;
328 [label=<entropy = 0.0<br/>samples = 6<br/>value = [6, 0]>, fillcolor="#e58139"] ;
326 -> 328 ;
329 [label=<entropy = 0.0<br/>samples = 11<br/>value = [0, 11]>, fillcolor="#399de5"] ;
319 -> 329 ;
330 [label=<X<SUB>1</SUB> &le; 197.0<br/>entropy = 0.374<br/>samples = 97<br/>value = [7, 90]>, fillcolor="#48a5e7"] ;
318 -> 330 ;
331 [label=<X<SUB>3</SUB> &le; 7.5<br/>entropy = 0.262<br/>samples = 90<br/>value = [4, 86]>, fillcolor="#42a2e6"] ;
330 -> 331 ;
332 [label=<X<SUB>0</SUB> &le; 7.0<br/>entropy = 0.742<br/>samples = 19<br/>value = [4, 15]>, fillcolor="#6eb7ec"] ;
331 -> 332 ;
333 [label=<entropy = 0.0<br/>samples = 6<br/>value = [0, 6]>, fillcolor="#399de5"] ;
332 -> 333 ;
334 [label=<X<SUB>0</SUB> &le; 9.0<br/>entropy = 0.89<br/>samples = 13<br/>value = [4, 9]>, fillcolor="#91c9f1"] ;
332 -> 334 ;
335 [label=<entropy = 0.0<br/>samples = 2<br/>value = [2, 0]>, fillcolor="#e58139"] ;
334 -> 335 ;
336 [label=<X<SUB>3</SUB> &le; 5.5<br/>entropy = 0.684<br/>samples = 11<br/>value = [2, 9]>, fillcolor="#65b3eb"] ;
334 -> 336 ;
337 [label=<entropy = 0.0<br/>samples = 6<br/>value = [0, 6]>, fillcolor="#399de5"] ;
336 -> 337 ;
338 [label=<entropy = 0.971<br/>samples = 5<br/>value = [2, 3]>, fillcolor="#bddef6"] ;
336 -> 338 ;
339 [label=<entropy = 0.0<br/>samples = 71<br/>value = [0, 71]>, fillcolor="#399de5"] ;
331 -> 339 ;
340 [label=<entropy = 0.985<br/>samples = 7<br/>value = [3, 4]>, fillcolor="#cee6f8"] ;
330 -> 340 ;
}